{
    "in_shape": [
        null,
        8
    ],
    "layers": [
        {
            "type": "unknown",
            "activation": "",
            "shape": [
                null,
                1,
                8
            ],
            "weights": []
        },
        {
            "type": "gru",
            "activation": "tanh",
            "shape": [
                null,
                1,
                16
            ],
            "weights": [
                [
                    [
                        -0.1137288361787796,
                        -0.16714899241924286,
                        0.4216642379760742,
                        0.22905828058719635,
                        0.08503914624452591,
                        -0.11822584271430969,
                        -0.21368612349033356,
                        -0.17779219150543213,
                        0.16729776561260223,
                        -0.04258484020829201,
                        -0.03465760126709938,
                        0.27964046597480774,
                        0.29308879375457764,
                        0.25685983896255493,
                        0.35445636510849,
                        0.3806496560573578,
                        0.19487756490707397,
                        0.10361912846565247,
                        0.03984701633453369,
                        -0.27810782194137573,
                        0.19713270664215088,
                        0.18813449144363403,
                        0.029505670070648193,
                        0.1212126612663269,
                        0.11304497718811035,
                        0.3155394196510315,
                        -0.22336970269680023,
                        0.18984830379486084,
                        0.3272573947906494,
                        -0.1029345691204071,
                        0.19270193576812744,
                        -0.08408263325691223,
                        -0.13798788189888,
                        -0.1827365905046463,
                        0.29635241627693176,
                        0.18609125912189484,
                        0.2152605652809143,
                        -0.12870289385318756,
                        -0.2425578236579895,
                        0.1830238699913025,
                        -0.06387682259082794,
                        0.03350719437003136,
                        0.12025443464517593,
                        -0.16520586609840393,
                        -0.0840625986456871,
                        -0.21497544646263123,
                        0.3036237359046936,
                        -0.26189500093460083
                    ],
                    [
                        -0.14759109914302826,
                        -0.1835835725069046,
                        0.24576225876808167,
                        -0.005207980517297983,
                        -0.11936011165380478,
                        -0.0835057944059372,
                        0.42770451307296753,
                        0.018648143857717514,
                        -0.19821658730506897,
                        0.116056427359581,
                        -0.160264253616333,
                        -0.035821013152599335,
                        -0.17940093576908112,
                        0.15882225334644318,
                        0.42179426550865173,
                        0.07569298893213272,
                        0.22461259365081787,
                        0.005950212478637695,
                        0.27516478300094604,
                        0.060165852308273315,
                        -0.2314208596944809,
                        0.0793408751487732,
                        -0.20470242202281952,
                        0.172467440366745,
                        -0.2436569631099701,
                        0.1331855058670044,
                        -0.1892309933900833,
                        -0.11144998669624329,
                        0.00934937596321106,
                        0.025644659996032715,
                        -0.18402285873889923,
                        0.01769396662712097,
                        0.2477058470249176,
                        -0.14485158026218414,
                        -0.29127171635627747,
                        -0.06564869731664658,
                        0.1727634221315384,
                        0.30025434494018555,
                        0.16114947199821472,
                        -0.29165658354759216,
                        0.16116935014724731,
                        0.3215698301792145,
                        0.14279280602931976,
                        0.20218394696712494,
                        0.1237793043255806,
                        0.1774953156709671,
                        0.13555389642715454,
                        0.07902824878692627
                    ],
                    [
                        -0.023059170693159103,
                        -0.03518209978938103,
                        0.17778758704662323,
                        0.13620512187480927,
                        0.08403937518596649,
                        0.18702612817287445,
                        0.4564133286476135,
                        0.08804473280906677,
                        0.25943347811698914,
                        0.12167531251907349,
                        0.34332475066185,
                        0.20466244220733643,
                        0.2571536898612976,
                        -0.10266046971082687,
                        -0.08470892161130905,
                        -0.07867486029863358,
                        -0.2574422359466553,
                        -0.022827863693237305,
                        0.17686104774475098,
                        0.10348692536354065,
                        -0.31017613410949707,
                        -0.22554445266723633,
                        0.19895845651626587,
                        -0.05838295817375183,
                        -0.2912449836730957,
                        0.10550898313522339,
                        -0.1794758141040802,
                        -0.2833244800567627,
                        -0.13089588284492493,
                        -0.2987361252307892,
                        0.24140596389770508,
                        0.040023624897003174,
                        -0.1433994174003601,
                        0.02458193711936474,
                        -0.22163338959217072,
                        -0.20037950575351715,
                        -0.3071286082267761,
                        -0.0932583212852478,
                        0.08697255700826645,
                        -0.22059451043605804,
                        -0.2999478876590729,
                        0.07615238428115845,
                        0.23591049015522003,
                        0.20855626463890076,
                        0.08062715828418732,
                        0.24722400307655334,
                        -0.25276780128479004,
                        0.0532078742980957
                    ],
                    [
                        -0.21224284172058105,
                        -0.13750983774662018,
                        -0.07608559727668762,
                        -0.27054691314697266,
                        -0.048750363290309906,
                        0.1904338151216507,
                        -0.1468190997838974,
                        0.024431545287370682,
                        0.11262024939060211,
                        0.17798207700252533,
                        0.3409455418586731,
                        -0.06655562669038773,
                        -0.016208505257964134,
                        -0.035894934087991714,
                        -0.0963890552520752,
                        0.056298259645700455,
                        0.037882864475250244,
                        -0.027483850717544556,
                        -0.05594128370285034,
                        0.20463263988494873,
                        -0.09832797944545746,
                        0.21855568885803223,
                        -0.0180414617061615,
                        -0.19049477577209473,
                        0.22718316316604614,
                        -0.3273067772388458,
                        -0.10013337433338165,
                        -0.29862913489341736,
                        -0.16083934903144836,
                        -0.18134059011936188,
                        -0.10622210800647736,
                        -0.27367377281188965,
                        0.19506095349788666,
                        -0.1932358741760254,
                        -0.2239893078804016,
                        -0.07536222040653229,
                        -0.17198070883750916,
                        -0.16131901741027832,
                        -0.21665377914905548,
                        0.10526440292596817,
                        0.31763955950737,
                        0.31935837864875793,
                        0.0995621606707573,
                        0.22461861371994019,
                        -0.13140489161014557,
                        -0.13802337646484375,
                        0.2975187599658966,
                        0.0799960047006607
                    ],
                    [
                        -0.2852744460105896,
                        -0.07521860301494598,
                        -0.3598226308822632,
                        0.2723955512046814,
                        0.6430304050445557,
                        -0.21924430131912231,
                        -0.12920458614826202,
                        0.4515974819660187,
                        0.2530810236930847,
                        0.1616530567407608,
                        0.02337970770895481,
                        -0.04677068442106247,
                        -0.4783271551132202,
                        -0.24417345225811005,
                        -0.159445121884346,
                        -0.04933183267712593,
                        -0.05389466881752014,
                        0.2672986388206482,
                        0.034848034381866455,
                        0.2031705379486084,
                        0.27118122577667236,
                        -0.11628063023090363,
                        -0.19404251873493195,
                        -0.029867619276046753,
                        -0.04435792565345764,
                        -0.16105982661247253,
                        -0.03392627835273743,
                        -0.019427090883255005,
                        -0.06711819767951965,
                        -0.21934451162815094,
                        -0.17088140547275543,
                        -0.20057101547718048,
                        -0.26562222838401794,
                        0.14442768692970276,
                        0.21790343523025513,
                        -0.36059969663619995,
                        0.17124246060848236,
                        0.30896514654159546,
                        -0.055441562086343765,
                        0.26877376437187195,
                        -0.1052059531211853,
                        -0.10673502832651138,
                        -0.09438873827457428,
                        -0.2803398072719574,
                        -0.2931356430053711,
                        -0.1255062222480774,
                        -0.24867863953113556,
                        0.15107576549053192
                    ],
                    [
                        0.1856442242860794,
                        -0.15467524528503418,
                        -0.002745610661804676,
                        -0.06150330603122711,
                        0.3478091359138489,
                        0.22789207100868225,
                        -0.014773187227547169,
                        0.07312175631523132,
                        -0.2309759259223938,
                        0.06413521617650986,
                        0.06128275766968727,
                        -0.03134862706065178,
                        -0.17648842930793762,
                        -0.10318130999803543,
                        -0.04201466590166092,
                        0.03672967851161957,
                        0.0014915168285369873,
                        -0.2603031396865845,
                        0.08579164743423462,
                        0.01789185404777527,
                        -0.28376173973083496,
                        0.21357887983322144,
                        -0.23500098288059235,
                        -0.11683550477027893,
                        -0.06578567624092102,
                        -0.15619975328445435,
                        -0.02987876534461975,
                        -0.03568798303604126,
                        -0.1548895239830017,
                        -0.13599365949630737,
                        0.034220099449157715,
                        -0.2895769476890564,
                        -0.2580408751964569,
                        0.1486203670501709,
                        0.017413539811968803,
                        0.08523143827915192,
                        -0.28112348914146423,
                        -0.11782922595739365,
                        -0.03310732543468475,
                        -0.16795296967029572,
                        0.2694668769836426,
                        0.006667344365268946,
                        -0.5001019835472107,
                        0.0048172250390052795,
                        -0.37245771288871765,
                        0.1283532977104187,
                        -0.2986527979373932,
                        -0.18256808817386627
                    ],
                    [
                        0.08493196219205856,
                        -0.09141872823238373,
                        -0.19161094725131989,
                        0.05002443119883537,
                        -0.11745676398277283,
                        0.06646934151649475,
                        0.25222867727279663,
                        0.14194366335868835,
                        -0.920461893081665,
                        0.26647070050239563,
                        0.4952232241630554,
                        -0.2531168460845947,
                        -0.8366180062294006,
                        -0.18934686481952667,
                        0.09572142362594604,
                        0.5521901249885559,
                        0.32494235038757324,
                        -0.2434791773557663,
                        0.01069861650466919,
                        -0.2698410451412201,
                        0.06418684124946594,
                        0.26416581869125366,
                        0.31259649991989136,
                        -0.32457682490348816,
                        -0.14107638597488403,
                        0.2845994830131531,
                        0.22155463695526123,
                        -0.2437715232372284,
                        0.13105148077011108,
                        0.1085977554321289,
                        -0.2719219923019409,
                        0.06584209203720093,
                        0.08173327893018723,
                        0.0672631561756134,
                        0.3428967595100403,
                        0.639151394367218,
                        0.3820933997631073,
                        0.0959053710103035,
                        0.190639466047287,
                        -0.027377746999263763,
                        -0.6304521560668945,
                        0.3365509808063507,
                        -0.2531912624835968,
                        0.4124871790409088,
                        -0.11653664708137512,
                        -0.13541756570339203,
                        0.02334076352417469,
                        0.0893142819404602
                    ],
                    [
                        -0.633398711681366,
                        -0.3066486418247223,
                        -0.6418526768684387,
                        -0.4252910017967224,
                        0.3359244465827942,
                        0.47465279698371887,
                        0.5150317549705505,
                        -0.3947438597679138,
                        -1.070298194885254,
                        0.7529563307762146,
                        0.6207559704780579,
                        0.2773967683315277,
                        -0.7574802041053772,
                        -0.41604968905448914,
                        -0.06850495934486389,
                        -0.29780101776123047,
                        0.16009992361068726,
                        -0.09616835415363312,
                        0.10256591439247131,
                        -0.007808297872543335,
                        0.20644766092300415,
                        0.1574714183807373,
                        -0.26871466636657715,
                        -0.060205817222595215,
                        0.3228973150253296,
                        -0.23726868629455566,
                        -0.09270989894866943,
                        0.1996181607246399,
                        0.16139867901802063,
                        -0.28571048378944397,
                        0.24701619148254395,
                        -0.08628347516059875,
                        0.4405365288257599,
                        -0.4116644859313965,
                        0.14926019310951233,
                        -0.5261703133583069,
                        -0.39890411496162415,
                        -0.46494293212890625,
                        0.1963108628988266,
                        0.4668547809123993,
                        -0.061845533549785614,
                        0.18112410604953766,
                        -0.17139193415641785,
                        -0.6215323805809021,
                        -0.3258667290210724,
                        0.3128340244293213,
                        0.4090019762516022,
                        0.5101298689842224
                    ]
                ],
                [
                    [
                        -0.06640124320983887,
                        -0.1640651375055313,
                        0.09376172721385956,
                        0.03525367006659508,
                        -0.3040366768836975,
                        0.1753382682800293,
                        -0.2744676470756531,
                        0.06857140362262726,
                        -0.26306405663490295,
                        -0.23309578001499176,
                        -0.1445796936750412,
                        0.15638084709644318,
                        0.08198404312133789,
                        -0.018586020916700363,
                        0.08273470401763916,
                        -0.13154295086860657,
                        -0.18216557800769806,
                        -0.033124715089797974,
                        0.23390337824821472,
                        -0.0405164398252964,
                        -0.3823513388633728,
                        0.06281296908855438,
                        0.12838339805603027,
                        -0.04551437124609947,
                        -0.021391775459051132,
                        -0.04090627282857895,
                        0.10073654353618622,
                        0.1417437344789505,
                        -0.16232511401176453,
                        -0.06545533239841461,
                        0.06123504787683487,
                        0.1379382461309433,
                        0.01819324493408203,
                        0.06285496801137924,
                        0.05834653601050377,
                        0.011385610327124596,
                        -0.06120575591921806,
                        -0.1138329803943634,
                        -0.2388363927602768,
                        -0.0009054575930349529,
                        0.09909740835428238,
                        0.05028160288929939,
                        -0.12862542271614075,
                        -0.2822794020175934,
                        -0.1193384900689125,
                        0.016325637698173523,
                        0.036499131470918655,
                        0.06502388417720795
                    ],
                    [
                        -0.035089895129203796,
                        0.09064920246601105,
                        -0.2642748951911926,
                        -0.06278470158576965,
                        0.05806336924433708,
                        0.2011057585477829,
                        -0.07271017134189606,
                        0.20154426991939545,
                        -0.21860811114311218,
                        -0.016183502972126007,
                        0.19760768115520477,
                        0.009029344655573368,
                        -0.2748536169528961,
                        0.0803910419344902,
                        -0.12132792919874191,
                        -0.18077518045902252,
                        0.06859813630580902,
                        -0.2173454761505127,
                        -0.03930319845676422,
                        0.0785720944404602,
                        0.14161580801010132,
                        -0.020962994545698166,
                        0.06569653004407883,
                        -0.04949735105037689,
                        -0.029127292335033417,
                        0.05771104618906975,
                        -0.015244933776557446,
                        0.11779025942087173,
                        0.12124831229448318,
                        -0.005630687810480595,
                        -0.09384467452764511,
                        0.3254554867744446,
                        0.12883077561855316,
                        0.0278632752597332,
                        0.004352750722318888,
                        -0.03434991091489792,
                        -0.22720465064048767,
                        0.006958062760531902,
                        -0.020598609000444412,
                        -0.03977607563138008,
                        -0.07848304510116577,
                        -0.07824543118476868,
                        -0.11081228405237198,
                        -0.02246241644024849,
                        0.31393682956695557,
                        0.19886180758476257,
                        0.30367758870124817,
                        -0.2194293737411499
                    ],
                    [
                        0.11454653739929199,
                        -0.09335392713546753,
                        0.27183783054351807,
                        -0.008613700978457928,
                        0.003895845264196396,
                        0.09064938873052597,
                        0.2749961316585541,
                        0.014361018314957619,
                        -0.06974782049655914,
                        0.10209453105926514,
                        -0.17024752497673035,
                        -0.07302914559841156,
                        -0.08698289096355438,
                        -0.21914704144001007,
                        -0.17615367472171783,
                        -0.0691603571176529,
                        -0.18637019395828247,
                        -0.252551406621933,
                        -0.023239148780703545,
                        0.05487464368343353,
                        0.03695467859506607,
                        -0.27121081948280334,
                        0.05767882242798805,
                        0.010869072750210762,
                        0.25563281774520874,
                        0.24935443699359894,
                        0.1688891053199768,
                        -0.166426420211792,
                        -0.010372890159487724,
                        0.12377007305622101,
                        0.06500972807407379,
                        0.05561455339193344,
                        -0.19457142055034637,
                        0.024012630805373192,
                        0.05937926471233368,
                        0.1258661150932312,
                        0.3259871304035187,
                        0.026447486132383347,
                        -0.10197404772043228,
                        -0.054349515587091446,
                        -0.04736442491412163,
                        0.01827865280210972,
                        -0.01578470692038536,
                        -0.18043242394924164,
                        0.060893721878528595,
                        -0.059424493461847305,
                        0.12257705628871918,
                        -0.23754306137561798
                    ],
                    [
                        0.16674049198627472,
                        0.2304299771785736,
                        0.10851471871137619,
                        -0.1020023450255394,
                        0.0018951743841171265,
                        0.17505960166454315,
                        -0.2972460985183716,
                        0.08518244326114655,
                        0.09321428090333939,
                        0.15092530846595764,
                        -0.0325319841504097,
                        0.07016830146312714,
                        0.06740528345108032,
                        -0.05275161564350128,
                        -0.09778953343629837,
                        -0.29088887572288513,
                        -0.01676221378147602,
                        0.035521671175956726,
                        0.18772031366825104,
                        -0.24501171708106995,
                        0.13227009773254395,
                        -0.1891951858997345,
                        0.10278816521167755,
                        -0.267585813999176,
                        -0.015594931319355965,
                        0.022564608603715897,
                        0.07053294777870178,
                        0.07557891309261322,
                        0.04757694900035858,
                        0.10091754049062729,
                        -0.258907675743103,
                        -0.2940492630004883,
                        -0.08647409826517105,
                        -0.3204105496406555,
                        0.07479332387447357,
                        -0.05811142176389694,
                        0.05715734884142876,
                        0.06449370086193085,
                        -0.02808687835931778,
                        0.16576968133449554,
                        0.13575546443462372,
                        -0.12441195547580719,
                        0.022763194516301155,
                        0.08952752500772476,
                        0.0025538746267557144,
                        0.10154964029788971,
                        0.04772453010082245,
                        0.11047511547803879
                    ],
                    [
                        -0.07071912288665771,
                        -0.07490042597055435,
                        0.147597536444664,
                        0.071723073720932,
                        -0.19684916734695435,
                        -0.17462880909442902,
                        0.08679775893688202,
                        0.0669141337275505,
                        0.12446137517690659,
                        0.2191908061504364,
                        -0.1099286675453186,
                        -0.010604772716760635,
                        -0.1598241776227951,
                        -0.19739440083503723,
                        0.06134510412812233,
                        -0.016112226992845535,
                        0.05648317560553551,
                        0.07394319027662277,
                        0.20098157227039337,
                        0.14377447962760925,
                        -0.08838261663913727,
                        0.11482062190771103,
                        0.19765092432498932,
                        -0.16578225791454315,
                        0.12786521017551422,
                        0.04017672315239906,
                        0.15118597447872162,
                        -0.05475889891386032,
                        0.05499478802084923,
                        -0.08102099597454071,
                        -0.2875616252422333,
                        0.009623212739825249,
                        0.15079514682292938,
                        0.0023262137547135353,
                        -0.476662278175354,
                        0.034693893045186996,
                        -0.15277612209320068,
                        -0.043800003826618195,
                        0.03144543617963791,
                        -0.07930231839418411,
                        -0.2005150467157364,
                        0.1551286280155182,
                        0.1074286699295044,
                        0.07804757356643677,
                        0.09129396826028824,
                        0.02957616187632084,
                        0.18232588469982147,
                        0.18823616206645966
                    ],
                    [
                        0.1512211114168167,
                        -0.033512622117996216,
                        -0.04302302002906799,
                        -0.047219786792993546,
                        -0.1472499817609787,
                        -0.16221657395362854,
                        -0.18256396055221558,
                        0.056672774255275726,
                        -0.002990707755088806,
                        0.23640108108520508,
                        0.06218210980296135,
                        -0.28010863065719604,
                        0.004853967577219009,
                        -0.03694417327642441,
                        -0.007616814691573381,
                        -0.006658397614955902,
                        -0.1523262858390808,
                        0.34261536598205566,
                        0.026194144040346146,
                        -0.09413285553455353,
                        0.0820072740316391,
                        0.19857729971408844,
                        -0.04634890705347061,
                        -0.039624880999326706,
                        -0.0371861606836319,
                        0.22709685564041138,
                        0.03440796956419945,
                        -0.1354900598526001,
                        0.14346148073673248,
                        -0.22549541294574738,
                        0.14481575787067413,
                        0.24486887454986572,
                        -0.04568133130669594,
                        -0.1435755044221878,
                        0.2518598735332489,
                        0.1307937651872635,
                        -0.04879441112279892,
                        -0.11182179301977158,
                        0.0413815975189209,
                        -0.10387852042913437,
                        0.21077294647693634,
                        0.16074718534946442,
                        0.0968480110168457,
                        0.049078166484832764,
                        -0.16489574313163757,
                        -0.022660862654447556,
                        0.23827975988388062,
                        -0.16013365983963013
                    ],
                    [
                        -0.12448317557573318,
                        -0.06602855026721954,
                        0.2177906483411789,
                        0.1965963989496231,
                        0.09908431023359299,
                        0.06191568449139595,
                        -0.20042672753334045,
                        -0.06539806723594666,
                        0.00954965129494667,
                        0.016774935647845268,
                        0.04777698218822479,
                        0.17785295844078064,
                        0.1328860968351364,
                        0.03401116654276848,
                        0.09756818413734436,
                        -0.1017339900135994,
                        0.09582395851612091,
                        0.08828137069940567,
                        0.013202643021941185,
                        0.07783705741167068,
                        -0.08505669236183167,
                        0.15841273963451385,
                        -0.07247129827737808,
                        0.08010280877351761,
                        0.2892243564128876,
                        -0.03866636008024216,
                        -0.08397330343723297,
                        0.13854800164699554,
                        0.15978875756263733,
                        -0.005292872432619333,
                        -0.20518380403518677,
                        -0.09723834693431854,
                        0.06311040371656418,
                        0.18405930697917938,
                        0.23875300586223602,
                        0.41053250432014465,
                        0.05148973688483238,
                        -0.05737480893731117,
                        0.2033166140317917,
                        0.14970795810222626,
                        -0.12388447672128677,
                        -0.12276912480592728,
                        0.22155892848968506,
                        0.0005915425717830658,
                        0.10934200137853622,
                        -0.04981580004096031,
                        0.1090552881360054,
                        -0.26142409443855286
                    ],
                    [
                        -0.32912811636924744,
                        -0.14017438888549805,
                        -0.05692923814058304,
                        -0.07312367111444473,
                        0.09256837517023087,
                        -0.1123870238661766,
                        -0.026761997491121292,
                        0.12769006192684174,
                        0.018588684499263763,
                        0.018069565296173096,
                        -0.2374715358018875,
                        0.16945885121822357,
                        -0.03426343947649002,
                        -0.1473218947649002,
                        -0.20810100436210632,
                        0.05609128251671791,
                        0.15469640493392944,
                        0.0245734304189682,
                        0.04890149086713791,
                        0.1506224423646927,
                        -0.0015038475394248962,
                        0.23143945634365082,
                        -0.16053375601768494,
                        -0.11717638373374939,
                        0.05623601749539375,
                        0.07465643435716629,
                        -0.11795629560947418,
                        0.10110130906105042,
                        -0.27096739411354065,
                        -0.019414933398365974,
                        0.056277528405189514,
                        -0.07094612717628479,
                        -0.25281646847724915,
                        -0.06274046003818512,
                        0.17408695816993713,
                        -0.20575480163097382,
                        0.020770758390426636,
                        0.13559973239898682,
                        -0.27748218178749084,
                        0.08887086063623428,
                        0.011737463995814323,
                        0.045847728848457336,
                        0.0344376303255558,
                        0.3168894648551941,
                        0.04716762527823448,
                        -0.05810791626572609,
                        0.2269691675901413,
                        -0.08593397587537766
                    ],
                    [
                        -0.13348425924777985,
                        0.06220071762800217,
                        -0.15002653002738953,
                        0.22261136770248413,
                        -0.12087716162204742,
                        -0.06022290140390396,
                        -0.06108441203832626,
                        -0.12501093745231628,
                        -0.2227289229631424,
                        0.2774584889411926,
                        0.049361683428287506,
                        0.1624515950679779,
                        0.09272243827581406,
                        0.15219563245773315,
                        -0.22100260853767395,
                        0.2371085286140442,
                        0.0988384485244751,
                        -0.11984299123287201,
                        -0.02083650231361389,
                        -0.12188884615898132,
                        0.08681269735097885,
                        -0.10715968161821365,
                        0.061981089413166046,
                        -0.11937298625707626,
                        0.21320049464702606,
                        -0.007993302308022976,
                        -0.014021605253219604,
                        0.06634682416915894,
                        0.20327052474021912,
                        0.14010515809059143,
                        -0.002404616679996252,
                        0.055426739156246185,
                        0.06428657472133636,
                        -0.1636514961719513,
                        0.1431235820055008,
                        0.14928212761878967,
                        -0.07452818751335144,
                        0.09685570001602173,
                        -0.21140317618846893,
                        -0.02557040937244892,
                        -0.17494738101959229,
                        0.39061060547828674,
                        -0.0758267268538475,
                        -0.02826043590903282,
                        -0.11264347285032272,
                        -0.08544990420341492,
                        -0.17854711413383484,
                        0.10083456337451935
                    ],
                    [
                        -0.04642362520098686,
                        0.10383516550064087,
                        -0.04332054406404495,
                        0.1276872456073761,
                        -0.06767890602350235,
                        -0.040923189371824265,
                        -0.12763075530529022,
                        0.2404327243566513,
                        0.001883259043097496,
                        0.044415511190891266,
                        -0.02152154967188835,
                        -0.10092691332101822,
                        0.011208062060177326,
                        -0.004795479588210583,
                        0.017446020618081093,
                        0.12515988945960999,
                        -0.01494724303483963,
                        -0.20848046243190765,
                        0.03682486340403557,
                        0.5246319770812988,
                        0.05625540763139725,
                        0.002025674097239971,
                        0.06195490434765816,
                        0.1738748550415039,
                        0.06570219993591309,
                        -0.19827266037464142,
                        0.1532168984413147,
                        -0.037108395248651505,
                        -0.03826627507805824,
                        -0.08978581428527832,
                        -0.13215035200119019,
                        -0.07458475232124329,
                        -0.16979622840881348,
                        -0.15965159237384796,
                        0.22388580441474915,
                        0.009725287556648254,
                        -0.02581094577908516,
                        0.26499032974243164,
                        0.3069840371608734,
                        -0.13350528478622437,
                        0.16683077812194824,
                        -0.019742615520954132,
                        -0.08147824555635452,
                        -0.16182444989681244,
                        -0.13745100796222687,
                        0.04692494124174118,
                        0.04175294563174248,
                        0.1727903187274933
                    ],
                    [
                        -0.03862457722425461,
                        -0.09270097315311432,
                        0.04419487342238426,
                        -0.0796920508146286,
                        -0.08034085482358932,
                        -0.17357268929481506,
                        -0.20487737655639648,
                        0.049892108887434006,
                        -0.19270160794258118,
                        -0.05331098288297653,
                        0.037271179258823395,
                        0.04253941401839256,
                        -0.1419926881790161,
                        0.10817518830299377,
                        -0.039574138820171356,
                        -0.044540613889694214,
                        0.18724659085273743,
                        -0.07862407714128494,
                        -0.1587046980857849,
                        0.06745486706495285,
                        0.028174374252557755,
                        -0.11639624089002609,
                        -0.271464079618454,
                        0.22549483180046082,
                        -0.21489150822162628,
                        0.18937380611896515,
                        0.21229006350040436,
                        0.12071321904659271,
                        0.04555567353963852,
                        0.08371459692716599,
                        -0.16160279512405396,
                        0.029735250398516655,
                        0.1059095486998558,
                        -0.22788377106189728,
                        -0.11069604009389877,
                        -0.026257934048771858,
                        0.2040804773569107,
                        -0.1730661392211914,
                        -0.0697852075099945,
                        -0.055708784610033035,
                        -0.02363935299217701,
                        -0.13462422788143158,
                        0.26056787371635437,
                        -0.06263850629329681,
                        -0.05743405222892761,
                        -0.400345116853714,
                        0.06641451269388199,
                        0.1421203315258026
                    ],
                    [
                        0.15934120118618011,
                        -0.1307097226381302,
                        -0.023537568747997284,
                        0.19235587120056152,
                        0.13957396149635315,
                        -0.03117356076836586,
                        -0.23081880807876587,
                        0.21872453391551971,
                        0.19881299138069153,
                        -0.06849130988121033,
                        0.08197929710149765,
                        0.049846548587083817,
                        0.0852571427822113,
                        0.1813066303730011,
                        0.08668706566095352,
                        0.013875933364033699,
                        0.04052663594484329,
                        0.11249782890081406,
                        0.05512870475649834,
                        0.007191416807472706,
                        -0.027892090380191803,
                        0.06327183544635773,
                        -0.10881899297237396,
                        0.013794273138046265,
                        0.24371802806854248,
                        -0.040592506527900696,
                        -0.2875138223171234,
                        -0.1847340166568756,
                        -0.012415764853358269,
                        0.18661947548389435,
                        0.04469689354300499,
                        0.22318357229232788,
                        -0.03001895546913147,
                        -0.20989853143692017,
                        -0.256758451461792,
                        -0.1426379382610321,
                        0.28797468543052673,
                        0.14366398751735687,
                        -0.12696203589439392,
                        -0.055962830781936646,
                        0.06977929174900055,
                        0.10767721384763718,
                        0.0807226300239563,
                        -0.25780120491981506,
                        0.21127334237098694,
                        0.09555964916944504,
                        0.024352941662073135,
                        0.02119048684835434
                    ],
                    [
                        0.15587672591209412,
                        0.10285087674856186,
                        0.05353782698512077,
                        -0.2113913893699646,
                        -0.16963627934455872,
                        0.23207902908325195,
                        -0.05751631036400795,
                        -0.06713294237852097,
                        0.1396656036376953,
                        -0.016032330691814423,
                        0.08323588967323303,
                        0.06577781587839127,
                        0.003070564940571785,
                        -0.09368342161178589,
                        -0.30736061930656433,
                        0.09846417605876923,
                        0.20025727152824402,
                        0.0030058645643293858,
                        -0.26269370317459106,
                        -0.08798636496067047,
                        -0.05818327143788338,
                        0.2167762666940689,
                        0.15356911718845367,
                        0.06290978938341141,
                        -0.17000222206115723,
                        -0.28378552198410034,
                        -0.02044585719704628,
                        -0.06436590105295181,
                        -0.08129018545150757,
                        -0.10297581553459167,
                        0.0659618005156517,
                        0.13708868622779846,
                        -0.10618758201599121,
                        -0.007935279048979282,
                        -0.09665936976671219,
                        0.21574996411800385,
                        0.1747521013021469,
                        0.20174697041511536,
                        -0.020381737500429153,
                        0.13245809078216553,
                        -0.25408902764320374,
                        0.008720737881958485,
                        0.1064656674861908,
                        -0.1146494671702385,
                        -0.15410524606704712,
                        0.00016225758008658886,
                        0.23929262161254883,
                        0.08637280762195587
                    ],
                    [
                        0.11259788274765015,
                        -0.15458516776561737,
                        -0.10343906283378601,
                        -0.1740078628063202,
                        0.07444468140602112,
                        0.06959830969572067,
                        -0.1937580704689026,
                        -0.07396091520786285,
                        0.2559250295162201,
                        0.016755245625972748,
                        0.27707481384277344,
                        0.17885304987430573,
                        0.08317597955465317,
                        -0.17165860533714294,
                        -0.11163993924856186,
                        -0.03332727774977684,
                        -0.31434571743011475,
                        -0.023543445393443108,
                        0.06097424402832985,
                        0.2895372807979584,
                        0.14070145785808563,
                        0.023876594379544258,
                        -0.054784681648015976,
                        0.04796203225851059,
                        0.06215701624751091,
                        -0.14922598004341125,
                        0.07844389975070953,
                        -0.02933705970644951,
                        0.026465479284524918,
                        0.32376760244369507,
                        -0.058019526302814484,
                        0.005314832553267479,
                        0.10735958814620972,
                        0.11813490092754364,
                        -0.047667261213064194,
                        -0.1138439029455185,
                        -0.04065626859664917,
                        -0.24357132613658905,
                        -0.03951592743396759,
                        0.01984255015850067,
                        -0.07150059938430786,
                        0.14802706241607666,
                        -0.18323372304439545,
                        0.11886671930551529,
                        -0.25617051124572754,
                        -0.17568610608577728,
                        0.07172265648841858,
                        -0.09944318234920502
                    ],
                    [
                        -0.13630272448062897,
                        0.02482391893863678,
                        -0.004209172911942005,
                        -0.020275620743632317,
                        0.003934450447559357,
                        0.11824501305818558,
                        0.0007094591856002808,
                        -0.20410460233688354,
                        0.006053309887647629,
                        -0.21834808588027954,
                        0.0245182104408741,
                        0.12972208857536316,
                        -0.07097658514976501,
                        -0.15211482346057892,
                        -0.12429338693618774,
                        -0.14953932166099548,
                        0.1602981835603714,
                        -0.03745226562023163,
                        0.017092686146497726,
                        0.0027381042018532753,
                        -0.16151559352874756,
                        -0.04901868849992752,
                        0.22572848200798035,
                        0.3274878263473511,
                        0.20811781287193298,
                        0.14758604764938354,
                        0.06392760574817657,
                        -0.10461359471082687,
                        0.13745805621147156,
                        -0.0028386879712343216,
                        0.1499677151441574,
                        0.10882378369569778,
                        0.17455585300922394,
                        -0.20933638513088226,
                        -0.06359896808862686,
                        -0.17744703590869904,
                        -0.023300552740693092,
                        0.0976552814245224,
                        0.2053452432155609,
                        0.15988610684871674,
                        0.31005170941352844,
                        0.20873470604419708,
                        0.2024315595626831,
                        0.2206680178642273,
                        -0.10861758887767792,
                        0.09598890691995621,
                        -0.06730099022388458,
                        -0.05992240086197853
                    ],
                    [
                        -0.1829220950603485,
                        0.00284389965236187,
                        0.1609480082988739,
                        -0.13837005198001862,
                        -0.12520381808280945,
                        -0.05143367499113083,
                        -0.3130316734313965,
                        0.11056768894195557,
                        -0.05753407999873161,
                        0.05061765015125275,
                        -0.0032880976796150208,
                        -0.0580492727458477,
                        -0.2024451494216919,
                        0.020661234855651855,
                        0.052593376487493515,
                        0.29249465465545654,
                        -0.034953612834215164,
                        0.036218736320734024,
                        0.14080911874771118,
                        -0.11776596307754517,
                        0.13798603415489197,
                        -0.06197485700249672,
                        -0.03515023738145828,
                        0.0002468475140631199,
                        0.05969357118010521,
                        -0.022647028788924217,
                        0.16966037452220917,
                        0.0811634436249733,
                        0.12813931703567505,
                        0.055074576288461685,
                        0.3727574050426483,
                        -0.06903242319822311,
                        -0.013554008677601814,
                        0.17501071095466614,
                        0.0008329106494784355,
                        -0.26040002703666687,
                        0.2032928615808487,
                        -0.04262351989746094,
                        0.2953474223613739,
                        0.24113842844963074,
                        -0.248599573969841,
                        0.04351972043514252,
                        -0.03723521903157234,
                        -0.03715040907263756,
                        0.11136613041162491,
                        0.1567991077899933,
                        0.009098516777157784,
                        0.018003413453698158
                    ]
                ],
                [
                    [
                        -0.20807111263275146,
                        -0.07424727827310562,
                        -0.04025975614786148,
                        -0.2944929599761963,
                        -0.22488906979560852,
                        -0.20782804489135742,
                        -0.038164589554071426,
                        -0.16203147172927856,
                        -0.04892786592245102,
                        0.017374934628605843,
                        -0.3052156865596771,
                        -0.31478065252304077,
                        0.04808630049228668,
                        -0.09821850061416626,
                        -0.22978515923023224,
                        -0.13213011622428894,
                        0.0,
                        0.0,
                        0.0,
                        0.0,
                        0.0,
                        0.0,
                        0.0,
                        0.0,
                        0.0,
                        0.0,
                        0.0,
                        0.0,
                        0.0,
                        0.0,
                        0.0,
                        0.0,
                        -0.0920475423336029,
                        -0.028735658153891563,
                        0.13728298246860504,
                        -0.0939645767211914,
                        0.04102317988872528,
                        0.015049178153276443,
                        -0.13704469799995422,
                        0.07677187770605087,
                        0.035787977278232574,
                        -0.07295160740613937,
                        0.09160200506448746,
                        0.0370333306491375,
                        -0.050580691546201706,
                        0.059061530977487564,
                        0.02471187524497509,
                        0.039771050214767456
                    ],
                    [
                        -0.20807111263275146,
                        -0.07424727827310562,
                        -0.04025975614786148,
                        -0.2944929599761963,
                        -0.22488906979560852,
                        -0.20782804489135742,
                        -0.038164589554071426,
                        -0.16203147172927856,
                        -0.04892786592245102,
                        0.017374934628605843,
                        -0.3052156865596771,
                        -0.31478065252304077,
                        0.04808630049228668,
                        -0.09821850061416626,
                        -0.22978515923023224,
                        -0.13213011622428894,
                        0.0,
                        0.0,
                        0.0,
                        0.0,
                        0.0,
                        0.0,
                        0.0,
                        0.0,
                        0.0,
                        0.0,
                        0.0,
                        0.0,
                        0.0,
                        0.0,
                        0.0,
                        0.0,
                        -0.0920475423336029,
                        -0.028735658153891563,
                        0.13728298246860504,
                        -0.0939645767211914,
                        0.04102317988872528,
                        0.015049178153276443,
                        -0.13704469799995422,
                        0.07677187770605087,
                        0.035787977278232574,
                        -0.07295160740613937,
                        0.09160200506448746,
                        0.0370333306491375,
                        -0.050580691546201706,
                        0.059061530977487564,
                        0.02471187524497509,
                        0.039771050214767456
                    ]
                ]
            ]
        },
        {
            "type": "gru",
            "activation": "tanh",
            "shape": [
                null,
                1,
                16
            ],
            "weights": [
                [
                    [
                        0.01649080216884613,
                        -0.43763914704322815,
                        -0.3557055592536926,
                        -0.5731085538864136,
                        -0.31292960047721863,
                        0.04630052298307419,
                        0.03129192814230919,
                        0.17836783826351166,
                        -0.20197351276874542,
                        -1.4892234802246094,
                        -0.7879343628883362,
                        -0.26360246539115906,
                        -0.48439881205558777,
                        -0.21509240567684174,
                        -0.008077162317931652,
                        -0.34218618273735046,
                        0.13111865520477295,
                        0.014494329690933228,
                        -0.2996259033679962,
                        -0.2871885895729065,
                        -0.22266805171966553,
                        -0.19768808782100677,
                        0.06341668963432312,
                        0.2511310875415802,
                        -0.2824481427669525,
                        -0.21195954084396362,
                        0.11728322505950928,
                        -0.049537837505340576,
                        0.08660769462585449,
                        -0.16839562356472015,
                        0.07810956239700317,
                        0.27517935633659363,
                        0.43870458006858826,
                        0.38652434945106506,
                        0.05580214038491249,
                        -0.3958418071269989,
                        0.17607004940509796,
                        -0.0827741026878357,
                        0.000556530081667006,
                        -0.061679668724536896,
                        0.20643024146556854,
                        -0.5525109767913818,
                        0.2807721495628357,
                        -0.1934177577495575,
                        -0.13582536578178406,
                        0.07069510221481323,
                        -0.326007604598999,
                        0.14671751856803894
                    ],
                    [
                        0.3069699704647064,
                        0.38022488355636597,
                        0.3150656223297119,
                        0.14280638098716736,
                        0.3382032811641693,
                        0.2348492592573166,
                        -0.044557809829711914,
                        -0.0691971480846405,
                        0.19908413290977478,
                        0.376446396112442,
                        0.4825880825519562,
                        0.27717000246047974,
                        0.071794293820858,
                        0.10632193833589554,
                        -0.04666149616241455,
                        0.023679031059145927,
                        -0.27550455927848816,
                        0.1280638873577118,
                        -0.1233711838722229,
                        -0.21335618197917938,
                        0.135862797498703,
                        0.0549604594707489,
                        -0.22518058121204376,
                        -0.21098944544792175,
                        -0.2743104100227356,
                        0.2644544541835785,
                        0.04019758105278015,
                        -0.29802995920181274,
                        -0.16412129998207092,
                        -0.024724453687667847,
                        0.20816943049430847,
                        0.19238847494125366,
                        -0.3444117605686188,
                        -0.21221210062503815,
                        0.04079509526491165,
                        0.07717326283454895,
                        -0.02781989797949791,
                        0.30606818199157715,
                        -0.30754104256629944,
                        0.033844951540231705,
                        -0.04964186251163483,
                        0.1233481913805008,
                        -0.383590430021286,
                        0.07203759253025055,
                        -0.0840730294585228,
                        -0.11086432635784149,
                        0.4078938364982605,
                        -0.2002440243959427
                    ],
                    [
                        -0.33118656277656555,
                        0.1366569846868515,
                        -0.327465683221817,
                        -0.23801006376743317,
                        -0.1331956684589386,
                        0.18327777087688446,
                        -0.20314384996891022,
                        0.3718280792236328,
                        0.16003042459487915,
                        -0.8394059538841248,
                        -0.48135414719581604,
                        -0.12340143322944641,
                        -0.8064771294593811,
                        -0.4340001046657562,
                        -0.5194323658943176,
                        0.01883271336555481,
                        0.2911515533924103,
                        0.23644062876701355,
                        0.2230232059955597,
                        0.2686496675014496,
                        0.24333062767982483,
                        0.08162906765937805,
                        -0.06950296461582184,
                        0.17474207282066345,
                        0.18810656666755676,
                        -0.007343709468841553,
                        0.09616929292678833,
                        0.033845365047454834,
                        0.13462093472480774,
                        0.13702335953712463,
                        0.08621138334274292,
                        0.06351369619369507,
                        0.20510195195674896,
                        0.09140531718730927,
                        0.18692852556705475,
                        -0.25665801763534546,
                        0.08691022545099258,
                        -0.29566365480422974,
                        0.08198106288909912,
                        0.12706172466278076,
                        0.02111043594777584,
                        -0.39714315533638,
                        0.3622365891933441,
                        -0.3750469982624054,
                        0.05514124408364296,
                        0.3399505913257599,
                        -0.3048721253871918,
                        0.2639794647693634
                    ],
                    [
                        -0.3158029019832611,
                        0.5700897574424744,
                        -0.4614136219024658,
                        0.8700445294380188,
                        -0.19558385014533997,
                        0.5857598781585693,
                        0.16711680591106415,
                        -0.35934871435165405,
                        0.5279240608215332,
                        0.10399668663740158,
                        0.2942390739917755,
                        0.31742534041404724,
                        -0.424074649810791,
                        -0.20065553486347198,
                        -0.6651612520217896,
                        0.17260949313640594,
                        -0.220403790473938,
                        0.09303948283195496,
                        0.24320808053016663,
                        0.2157805860042572,
                        -0.1889008730649948,
                        -0.025656521320343018,
                        -0.2854486107826233,
                        0.23721536993980408,
                        0.22216340899467468,
                        -0.18263480067253113,
                        -0.07435938715934753,
                        0.17176976799964905,
                        -0.15813051164150238,
                        -0.27909961342811584,
                        0.26822808384895325,
                        0.14356252551078796,
                        -0.23246538639068604,
                        -0.09367519617080688,
                        -0.03466295823454857,
                        -0.006465589627623558,
                        0.43415066599845886,
                        0.08442119508981705,
                        -0.2520543336868286,
                        0.055676162242889404,
                        0.02902054227888584,
                        -0.09265277534723282,
                        -0.2192317545413971,
                        0.23355546593666077,
                        0.43353271484375,
                        -0.3044423758983612,
                        0.30881455540657043,
                        0.5283059477806091
                    ],
                    [
                        -0.5335549712181091,
                        -0.093401700258255,
                        -0.15269425511360168,
                        0.10129812359809875,
                        -0.25499969720840454,
                        -0.4232805669307709,
                        -0.18197256326675415,
                        -0.49151933193206787,
                        0.006192314438521862,
                        0.7115296125411987,
                        0.26970067620277405,
                        -0.24187727272510529,
                        -0.6875654458999634,
                        -0.4217105805873871,
                        -0.46656566858291626,
                        -0.4877498745918274,
                        0.27194157242774963,
                        0.040212541818618774,
                        -0.20384255051612854,
                        -0.200020894408226,
                        -0.2657296657562256,
                        -0.08390209078788757,
                        0.05113181471824646,
                        0.21125754714012146,
                        0.13248339295387268,
                        -0.014132529497146606,
                        -0.06399032473564148,
                        0.022253751754760742,
                        0.04300948977470398,
                        -0.27364540100097656,
                        -0.18452121317386627,
                        0.0008230805397033691,
                        -0.12430262565612793,
                        -0.2957865297794342,
                        -0.29212239384651184,
                        -0.013518464751541615,
                        0.4772571325302124,
                        0.0021999527234584093,
                        -0.38489577174186707,
                        0.03578284755349159,
                        -0.09715785086154938,
                        0.8575164079666138,
                        -0.20782391726970673,
                        -0.08756191283464432,
                        -0.036293692886829376,
                        -0.017784347757697105,
                        0.38361895084381104,
                        0.148947075009346
                    ],
                    [
                        -0.23110930621623993,
                        0.11376357078552246,
                        -0.35704585909843445,
                        0.5654393434524536,
                        -0.060672953724861145,
                        -0.44211652874946594,
                        -0.11780881881713867,
                        -0.06878083944320679,
                        -0.479053258895874,
                        0.9326330423355103,
                        0.5469828844070435,
                        0.19438238441944122,
                        -0.595451831817627,
                        -0.2611890137195587,
                        -0.12098062038421631,
                        -0.46901535987854004,
                        0.10263144969940186,
                        -0.211525559425354,
                        -0.13039901852607727,
                        -0.008554548025131226,
                        0.11159548163414001,
                        -0.1732628494501114,
                        -0.0337485671043396,
                        -0.109587162733078,
                        -0.07288113236427307,
                        -0.14980517327785492,
                        0.0878458023071289,
                        0.1261831521987915,
                        0.24041715264320374,
                        -0.17890827357769012,
                        -0.09156385064125061,
                        -0.07455912232398987,
                        0.10486924648284912,
                        0.014211706817150116,
                        -0.26340994238853455,
                        0.07126224786043167,
                        0.2629602551460266,
                        0.31670665740966797,
                        0.0633099377155304,
                        -0.5028653144836426,
                        -0.454094797372818,
                        0.5965938568115234,
                        -0.039213262498378754,
                        0.14385440945625305,
                        0.1546756625175476,
                        -0.345578134059906,
                        -0.05758745223283768,
                        0.012739595025777817
                    ],
                    [
                        0.021476317197084427,
                        0.16141194105148315,
                        0.06542839109897614,
                        -0.1535351723432541,
                        -0.04034651070833206,
                        0.29747653007507324,
                        0.010072968900203705,
                        0.22654461860656738,
                        0.0773673802614212,
                        -1.2219856977462769,
                        -0.4147917926311493,
                        -0.1708815097808838,
                        0.4078904390335083,
                        0.49095284938812256,
                        -0.13320773839950562,
                        0.6764320731163025,
                        0.21125271916389465,
                        0.14668068289756775,
                        0.2968684732913971,
                        -0.16161051392555237,
                        -0.12675438821315765,
                        0.11373722553253174,
                        -0.29142969846725464,
                        -0.15506361424922943,
                        0.0950242280960083,
                        0.15290507674217224,
                        -0.08881151676177979,
                        0.1416534185409546,
                        -0.091527059674263,
                        0.2990597188472748,
                        -0.1287606656551361,
                        0.25144264101982117,
                        0.31238678097724915,
                        0.08953747898340225,
                        0.11493845283985138,
                        -0.18060167133808136,
                        -0.19710706174373627,
                        -0.23214177787303925,
                        -0.1363198161125183,
                        0.16579653322696686,
                        0.07829628884792328,
                        -0.43617403507232666,
                        0.02664876915514469,
                        -0.2426106035709381,
                        0.2408321350812912,
                        0.30751273036003113,
                        0.16506609320640564,
                        0.18923725187778473
                    ],
                    [
                        0.4198017418384552,
                        -0.3529297411441803,
                        0.06907840073108673,
                        -0.6004871129989624,
                        0.21647228300571442,
                        0.4311993718147278,
                        -0.059082575142383575,
                        0.5122089385986328,
                        0.017232351005077362,
                        -1.0321458578109741,
                        -0.10653328895568848,
                        -0.029692267999053,
                        -0.07713437080383301,
                        -0.2532249689102173,
                        -0.2602899670600891,
                        0.09796252846717834,
                        -0.1902891993522644,
                        0.12828931212425232,
                        0.2220652997493744,
                        0.023344963788986206,
                        0.2573392689228058,
                        0.2958756387233734,
                        0.1805180013179779,
                        0.15302932262420654,
                        -0.16981971263885498,
                        -0.15438441932201385,
                        0.27732524275779724,
                        0.012003481388092041,
                        0.09073355793952942,
                        0.05237886309623718,
                        0.07472124695777893,
                        0.2771299183368683,
                        0.27374520897865295,
                        0.10414658486843109,
                        0.29915714263916016,
                        0.16901688277721405,
                        -0.12428092211484909,
                        -0.1634506732225418,
                        0.2890840768814087,
                        0.16990986466407776,
                        0.376406729221344,
                        -0.1763446033000946,
                        -0.0891275554895401,
                        -0.002226167591288686,
                        -0.0671832412481308,
                        0.33972811698913574,
                        -0.256661981344223,
                        -0.33039262890815735
                    ],
                    [
                        0.7364352345466614,
                        -0.14565888047218323,
                        0.5213412046432495,
                        -0.2793510854244232,
                        0.4257669150829315,
                        0.14200836420059204,
                        0.04955343157052994,
                        0.10134878009557724,
                        -0.026877326890826225,
                        0.9900712370872498,
                        0.35033395886421204,
                        -0.08442116528749466,
                        1.0126162767410278,
                        0.3192998766899109,
                        0.6356258392333984,
                        0.24508200585842133,
                        -0.08592726290225983,
                        -0.19087298214435577,
                        -0.02685418725013733,
                        -0.11828634142875671,
                        0.17362713813781738,
                        0.09941855072975159,
                        0.10074964165687561,
                        0.30611446499824524,
                        -0.20677964389324188,
                        -0.28443384170532227,
                        0.19148612022399902,
                        -0.09751646220684052,
                        -0.26857471466064453,
                        0.1723119616508484,
                        0.29177919030189514,
                        -0.07803431153297424,
                        0.4216669201850891,
                        0.13702048361301422,
                        -0.04858827963471413,
                        -0.0713237002491951,
                        -0.0012746274005621672,
                        -0.24070791900157928,
                        0.31380024552345276,
                        -0.12644919753074646,
                        -0.0773732140660286,
                        0.7107701301574707,
                        -0.21088217198848724,
                        -0.03975571691989899,
                        -0.0405634343624115,
                        0.19856823980808258,
                        0.049573712050914764,
                        -0.08538110554218292
                    ],
                    [
                        0.5123628973960876,
                        0.03454134985804558,
                        0.1484372466802597,
                        0.4729357361793518,
                        0.11221158504486084,
                        0.1173291951417923,
                        0.5954324007034302,
                        0.6871232390403748,
                        0.3853244185447693,
                        -0.29335832595825195,
                        0.11063775420188904,
                        0.12097851186990738,
                        0.4267328977584839,
                        0.43262267112731934,
                        -0.12870259582996368,
                        0.3678663969039917,
                        0.1561925709247589,
                        -0.05115595459938049,
                        -0.0998089611530304,
                        0.19595834612846375,
                        -0.2636643350124359,
                        -0.231480672955513,
                        0.05573573708534241,
                        -0.16272881627082825,
                        0.2076670229434967,
                        -0.06978809833526611,
                        0.010408341884613037,
                        -0.18985286355018616,
                        0.2349105179309845,
                        0.07856246829032898,
                        -0.21309016644954681,
                        0.1843273937702179,
                        -0.3282887637615204,
                        0.027420315891504288,
                        -0.16127166152000427,
                        -0.058651480823755264,
                        -0.07121092081069946,
                        -0.02543012611567974,
                        0.0529472678899765,
                        0.3039018213748932,
                        -0.11333984136581421,
                        -0.009276685304939747,
                        0.09502986818552017,
                        -0.035754233598709106,
                        -0.1136568933725357,
                        -0.14857813715934753,
                        0.17064863443374634,
                        -0.15091481804847717
                    ],
                    [
                        -0.5295876860618591,
                        -0.37699955701828003,
                        -0.5230845808982849,
                        -0.48096904158592224,
                        -0.33893993496894836,
                        -0.19815047085285187,
                        -0.09220976382493973,
                        -0.6159293055534363,
                        -0.5006589293479919,
                        0.7033418416976929,
                        -0.2466101199388504,
                        -0.0026372671127319336,
                        -0.5598328113555908,
                        -1.0926870107650757,
                        0.2404005080461502,
                        -0.4379320740699768,
                        0.07827922701835632,
                        -0.16753575205802917,
                        -0.28251945972442627,
                        -0.08502578735351562,
                        0.2867680490016937,
                        0.12361055612564087,
                        -0.2748255133628845,
                        0.09547069668769836,
                        0.06736820936203003,
                        -0.25332051515579224,
                        -0.14480705559253693,
                        -0.1417369395494461,
                        -0.06695649027824402,
                        0.0033964216709136963,
                        0.2268170416355133,
                        0.13010787963867188,
                        0.07773872464895248,
                        -0.004304518457502127,
                        0.2665995657444,
                        -0.6281402707099915,
                        -0.19853423535823822,
                        0.012498532421886921,
                        -0.24052965641021729,
                        0.14067105948925018,
                        -0.08541613817214966,
                        0.14209462702274323,
                        0.22902466356754303,
                        -0.32865411043167114,
                        -0.1555808037519455,
                        -0.10936848819255829,
                        0.09818516671657562,
                        -0.05252530053257942
                    ],
                    [
                        -0.534045398235321,
                        0.11710747331380844,
                        -0.5265305042266846,
                        1.1222714185714722,
                        -0.2738824486732483,
                        0.3349705934524536,
                        -0.3149740695953369,
                        -0.558722198009491,
                        0.25970473885536194,
                        1.404956579208374,
                        0.4428066909313202,
                        0.441813200712204,
                        -0.7914485931396484,
                        -0.5643500685691833,
                        -0.17867985367774963,
                        -0.0017002503154799342,
                        0.039938122034072876,
                        0.2130241096019745,
                        0.053491175174713135,
                        0.13638994097709656,
                        -0.07985121011734009,
                        -0.08608676493167877,
                        -0.06620107591152191,
                        0.24033251404762268,
                        0.2914740741252899,
                        0.24399742484092712,
                        -0.2038266956806183,
                        -0.11300438642501831,
                        -0.05568528175354004,
                        0.1777837872505188,
                        0.22483083605766296,
                        0.0957435667514801,
                        -0.4522663354873657,
                        -0.10503022372722626,
                        -0.38029736280441284,
                        0.4700000286102295,
                        0.5463511943817139,
                        0.5195834636688232,
                        -0.09310021996498108,
                        -0.07513170689344406,
                        0.045948274433612823,
                        0.6294441223144531,
                        -0.5035409331321716,
                        0.31741011142730713,
                        0.521651029586792,
                        -0.3142000138759613,
                        0.03533826768398285,
                        0.5287622213363647
                    ],
                    [
                        0.8391373157501221,
                        0.06314222514629364,
                        0.4695267975330353,
                        -0.1402507871389389,
                        0.16653844714164734,
                        -0.1581590324640274,
                        0.42443469166755676,
                        -0.0797976702451706,
                        0.652639627456665,
                        0.8520639538764954,
                        0.30514100193977356,
                        0.21019195020198822,
                        0.6039631962776184,
                        0.10673035681247711,
                        0.47596779465675354,
                        0.4725823700428009,
                        0.17628273367881775,
                        0.023501545190811157,
                        0.2298525869846344,
                        0.11409857869148254,
                        -0.06173869967460632,
                        0.270378440618515,
                        0.05333152413368225,
                        -0.18279218673706055,
                        0.01458120346069336,
                        -0.03564539551734924,
                        0.045081526041030884,
                        -0.008435875177383423,
                        0.26440104842185974,
                        0.1520811915397644,
                        -0.14406521618366241,
                        -0.03932267427444458,
                        0.06553509086370468,
                        -0.12724478542804718,
                        0.08621703088283539,
                        0.13254311680793762,
                        0.1054515689611435,
                        -0.0628073662519455,
                        0.017376868054270744,
                        -0.14283356070518494,
                        0.17261144518852234,
                        0.13470607995986938,
                        -0.1675988733768463,
                        -0.09905890375375748,
                        -0.021085085347294807,
                        0.18153735995292664,
                        0.06685660034418106,
                        0.30893751978874207
                    ],
                    [
                        -0.12327826023101807,
                        0.005113499704748392,
                        -0.07351800799369812,
                        -0.5435057282447815,
                        -0.5423139929771423,
                        -0.26561132073402405,
                        -0.21798643469810486,
                        0.030771687626838684,
                        -0.09565486013889313,
                        -0.46117761731147766,
                        -0.33420637249946594,
                        -0.15811024606227875,
                        -0.16326726973056793,
                        -0.36283138394355774,
                        -0.6167634129524231,
                        -0.3619515299797058,
                        0.25562402606010437,
                        0.1277466118335724,
                        0.1014505922794342,
                        -0.009165793657302856,
                        0.2285555899143219,
                        0.10975521802902222,
                        -0.040898025035858154,
                        -0.13817772269248962,
                        -0.09567968547344208,
                        -0.296543151140213,
                        0.0983947217464447,
                        -0.16056829690933228,
                        -0.17555339634418488,
                        0.030280321836471558,
                        0.17327022552490234,
                        0.08387866616249084,
                        0.043875813484191895,
                        0.178066685795784,
                        0.03372214734554291,
                        -0.41449403762817383,
                        -0.31183841824531555,
                        0.1792699694633484,
                        0.10424592345952988,
                        0.34695926308631897,
                        0.37128159403800964,
                        -0.43638405203819275,
                        0.13021354377269745,
                        -0.1906728446483612,
                        -0.41361314058303833,
                        0.19126690924167633,
                        0.1277555227279663,
                        -0.0913960412144661
                    ],
                    [
                        0.003026754828169942,
                        -0.33341437578201294,
                        0.5004401206970215,
                        -0.3917408883571625,
                        0.20688237249851227,
                        0.19679254293441772,
                        0.1937304586172104,
                        0.5997555255889893,
                        0.29134640097618103,
                        -1.262311577796936,
                        -0.31802669167518616,
                        0.02872937172651291,
                        0.38044053316116333,
                        -0.09951702505350113,
                        0.08444634079933167,
                        0.11730389297008514,
                        -0.28013718128204346,
                        -0.14886018633842468,
                        0.26497313380241394,
                        0.1374627649784088,
                        0.2977777421474457,
                        0.21751025319099426,
                        -0.0347331166267395,
                        0.17369553446769714,
                        0.04385298490524292,
                        0.009582549333572388,
                        -0.02384975552558899,
                        0.10065540671348572,
                        -0.01341208815574646,
                        -0.19033432006835938,
                        0.06718489527702332,
                        -0.0464627742767334,
                        0.39030587673187256,
                        0.30781012773513794,
                        0.5126156210899353,
                        0.12363696843385696,
                        -0.04018881544470787,
                        -0.2788456976413727,
                        0.00788539182394743,
                        0.4480000436306,
                        0.3172166645526886,
                        -0.6827391386032104,
                        -0.015676721930503845,
                        -0.13511922955513,
                        -0.30524972081184387,
                        -0.0952608734369278,
                        -0.3283689320087433,
                        -0.15745870769023895
                    ],
                    [
                        0.20283390581607819,
                        0.08995305746793747,
                        -0.0011069499887526035,
                        -0.3327634036540985,
                        0.3154529929161072,
                        0.10344913601875305,
                        0.246097594499588,
                        0.6885789036750793,
                        0.3888305127620697,
                        -0.9802409410476685,
                        -0.536963939666748,
                        -0.19649626314640045,
                        0.28712865710258484,
                        -0.05923648178577423,
                        0.11294923722743988,
                        -0.06933539360761642,
                        0.01956602931022644,
                        0.30094996094703674,
                        -0.17433297634124756,
                        0.010710835456848145,
                        -0.04003244638442993,
                        -0.2935488820075989,
                        0.11680492758750916,
                        -0.11417612433433533,
                        0.2504849135875702,
                        0.011568903923034668,
                        0.2934742867946625,
                        0.22727039456367493,
                        0.18439871072769165,
                        0.059501469135284424,
                        -0.1567240059375763,
                        0.0619644820690155,
                        0.42694076895713806,
                        0.026385093107819557,
                        0.3242727518081665,
                        -0.13081035017967224,
                        -0.22492565214633942,
                        -0.09949259459972382,
                        0.36851561069488525,
                        0.4984828531742096,
                        0.2352658361196518,
                        -0.018657390028238297,
                        0.08269163966178894,
                        -0.26912856101989746,
                        -0.4169735610485077,
                        0.11398494243621826,
                        -0.0028789087664335966,
                        -0.3510851263999939
                    ]
                ],
                [
                    [
                        -0.056267619132995605,
                        -0.09614807367324829,
                        -0.007925689220428467,
                        0.21896454691886902,
                        -0.3097184896469116,
                        -0.026518750935792923,
                        0.20099377632141113,
                        -0.0712691992521286,
                        -0.2468346655368805,
                        -0.00968373753130436,
                        -0.007617746479809284,
                        -0.10566031187772751,
                        0.12217918038368225,
                        0.05751626938581467,
                        0.19934922456741333,
                        -0.1048644408583641,
                        0.01807403564453125,
                        -0.12988844513893127,
                        -0.09599994122982025,
                        0.2325485199689865,
                        0.054674021899700165,
                        0.06680675595998764,
                        0.22779032588005066,
                        0.07897066324949265,
                        0.0179264098405838,
                        -0.08500216901302338,
                        -0.20954930782318115,
                        -0.2070464789867401,
                        -0.13119959831237793,
                        -0.2526245713233948,
                        -0.18075497448444366,
                        -0.011341855861246586,
                        -0.14058952033519745,
                        -0.05028877034783363,
                        -0.13429372012615204,
                        -0.0625491514801979,
                        -0.008532296866178513,
                        -0.029809558764100075,
                        -0.41612935066223145,
                        -0.11140265315771103,
                        0.035474978387355804,
                        -0.14592066407203674,
                        -0.053781647235155106,
                        -0.00816153734922409,
                        -0.13650545477867126,
                        0.09322447329759598,
                        0.1169511079788208,
                        0.06884672492742538
                    ],
                    [
                        0.16884540021419525,
                        -0.07048671692609787,
                        0.005905916914343834,
                        -0.12704679369926453,
                        -0.2717055082321167,
                        0.071932852268219,
                        -0.11756111681461334,
                        0.4201558828353882,
                        -0.057114191353321075,
                        -0.18017300963401794,
                        0.0827268734574318,
                        -0.0403357557952404,
                        -0.24005363881587982,
                        -0.044257644563913345,
                        -0.025743097066879272,
                        0.04429464787244797,
                        -0.037064336240291595,
                        0.07232081890106201,
                        0.029880426824092865,
                        0.09246659278869629,
                        0.1372787356376648,
                        0.10809799283742905,
                        -0.13773079216480255,
                        0.1201481968164444,
                        0.02235248126089573,
                        -0.28066563606262207,
                        0.11135992407798767,
                        -0.1240328699350357,
                        0.03481724113225937,
                        -0.12633976340293884,
                        0.04153183102607727,
                        0.14803893864154816,
                        0.23580074310302734,
                        -0.20454269647598267,
                        0.233175590634346,
                        -0.036693356931209564,
                        -0.06252405047416687,
                        0.061252884566783905,
                        0.0037955492734909058,
                        -0.07477496564388275,
                        -0.12103497236967087,
                        0.11915332078933716,
                        -0.10673927515745163,
                        -0.08981399238109589,
                        -0.29968810081481934,
                        0.07358141243457794,
                        0.0401226244866848,
                        -0.1875373125076294
                    ],
                    [
                        -0.028604092076420784,
                        0.02767554111778736,
                        0.17707733809947968,
                        0.009153300896286964,
                        -0.15223853290081024,
                        -0.4387916326522827,
                        -0.049733906984329224,
                        0.15286225080490112,
                        0.06789008527994156,
                        -0.008615491911768913,
                        -0.07463758438825607,
                        0.002125872764736414,
                        0.009873509407043457,
                        0.04312790930271149,
                        -0.09016263484954834,
                        0.06348727643489838,
                        -0.07844606041908264,
                        -0.20390154421329498,
                        0.063937246799469,
                        0.2241588979959488,
                        -0.10482216626405716,
                        -0.3419443368911743,
                        -0.057051271200180054,
                        0.09093911200761795,
                        -0.055744025856256485,
                        0.04215152561664581,
                        -0.2603844404220581,
                        0.08724933862686157,
                        0.053645193576812744,
                        -0.1766582876443863,
                        0.12864358723163605,
                        0.11344561725854874,
                        0.174681156873703,
                        0.06669332832098007,
                        0.05549896880984306,
                        0.17704978585243225,
                        0.27601358294487,
                        0.07088219374418259,
                        -0.10667651891708374,
                        0.2641637325286865,
                        -0.12693975865840912,
                        0.02274736389517784,
                        0.05578918382525444,
                        0.017264340072870255,
