{
    "in_shape": [
        null,
        8
    ],
    "layers": [
        {
            "type": "unknown",
            "activation": "",
            "shape": [
                null,
                1,
                8
            ],
            "weights": []
        },
        {
            "type": "gru",
            "activation": "tanh",
            "shape": [
                null,
                1,
                8
            ],
            "weights": [
                [
                    [
                        0.22815710306167603,
                        -0.5817185640335083,
                        0.1507454812526703,
                        -0.5982194542884827,
                        0.07107190042734146,
                        1.1027601957321167,
                        0.49862828850746155,
                        -0.15205401182174683,
                        -0.3112465739250183,
                        0.34096887707710266,
                        0.25944337248802185,
                        -0.20049326121807098,
                        0.4028962552547455,
                        0.24890676140785217,
                        0.36601200699806213,
                        0.23504021763801575,
                        0.31023603677749634,
                        -0.22537119686603546,
                        0.3134411871433258,
                        0.07106197625398636,
                        -0.2532714903354645,
                        0.21159538626670837,
                        -0.18243876099586487,
                        -0.14608171582221985
                    ],
                    [
                        -0.4068128168582916,
                        -0.27124521136283875,
                        0.030553817749023438,
                        0.2109764963388443,
                        0.09506027400493622,
                        -0.026079002767801285,
                        0.5842350125312805,
                        0.05091729387640953,
                        0.396405965089798,
                        0.3660137355327606,
                        -0.41368719935417175,
                        0.1048610508441925,
                        -0.31532105803489685,
                        0.13116714358329773,
                        0.36886319518089294,
                        -0.11580175161361694,
                        -0.0020724961068481207,
                        0.32164788246154785,
                        0.5223336219787598,
                        0.1903119534254074,
                        -0.17771528661251068,
                        -0.17553795874118805,
                        -0.02771674655377865,
                        0.18823957443237305
                    ],
                    [
                        -0.5116381645202637,
                        -0.04926769807934761,
                        -0.052921611815690994,
                        -0.06121116131544113,
                        0.629432737827301,
                        0.30620330572128296,
                        -0.018017226830124855,
                        0.5477237701416016,
                        -0.42650195956230164,
                        -0.19085504114627838,
                        0.016257554292678833,
                        0.30224016308784485,
                        -0.23638322949409485,
                        0.4184304177761078,
                        -0.19598577916622162,
                        -0.04450613260269165,
                        -0.4330921471118927,
                        -0.3237529993057251,
                        -0.37382060289382935,
                        -0.43264561891555786,
                        0.13180705904960632,
                        0.11431369930505753,
                        0.0500044971704483,
                        -0.314525842666626
                    ],
                    [
                        0.3623928129673004,
                        0.3216715455055237,
                        0.5455290079116821,
                        0.08857785910367966,
                        -0.585898220539093,
                        -0.4540832042694092,
                        -0.6485414505004883,
                        0.41648584604263306,
                        0.0966925323009491,
                        0.24723264575004578,
                        -0.16714203357696533,
                        -0.3270350992679596,
                        0.028824537992477417,
                        0.00013574957847595215,
                        -0.03943803906440735,
                        0.06696686148643494,
                        -0.2892425060272217,
                        -0.15633291006088257,
                        0.29131749272346497,
                        -0.3244357407093048,
                        -0.03323723003268242,
                        -0.45961737632751465,
                        0.318703293800354,
                        0.06983581185340881
                    ],
                    [
                        0.2657284736633301,
                        0.011601518839597702,
                        -0.6814925074577332,
                        0.17840828001499176,
                        -0.3501755893230438,
                        -0.1924028843641281,
                        0.3092121481895447,
                        0.3779270052909851,
                        -0.370709627866745,
                        -0.4186050593852997,
                        0.3739825189113617,
                        0.244766503572464,
                        0.10709556937217712,
                        -0.055849432945251465,
                        0.159697026014328,
                        -0.17050865292549133,
                        0.15757465362548828,
                        0.15917058289051056,
                        -0.26105576753616333,
                        -0.007014201954007149,
                        -0.06291116029024124,
                        0.3081207275390625,
                        0.09442377090454102,
                        0.08563525974750519
                    ],
                    [
                        -0.3832811415195465,
                        0.488368421792984,
                        -0.4576605260372162,
                        -0.39438292384147644,
                        -0.10837006568908691,
                        -1.1899617910385132,
                        0.09140430390834808,
                        -0.5260980129241943,
                        0.08147409558296204,
                        0.4187478721141815,
                        0.04912582039833069,
                        0.33664730191230774,
                        0.1623530089855194,
                        0.16315850615501404,
                        -0.3200525641441345,
                        0.20438101887702942,
                        -0.4276268780231476,
                        0.22289474308490753,
                        -0.2726975977420807,
                        0.36223891377449036,
                        0.4257032871246338,
                        0.058869604021310806,
                        0.12370764464139938,
                        0.17180462181568146
                    ],
                    [
                        -0.08325652033090591,
                        0.0252226535230875,
                        -1.0211397409439087,
                        -1.124037265777588,
                        -0.17963960766792297,
                        -0.26679155230522156,
                        0.25126296281814575,
                        -0.6329200863838196,
                        -0.014195561408996582,
                        -0.20511679351329803,
                        0.2407785952091217,
                        0.312290221452713,
                        -0.31715551018714905,
                        -0.017300784587860107,
                        -0.4272198975086212,
                        0.20076820254325867,
                        0.21875178813934326,
                        -0.33358776569366455,
                        -0.4767974019050598,
                        0.30611756443977356,
                        -0.13216479122638702,
                        -0.3976799547672272,
                        -0.28189563751220703,
                        0.21789923310279846
                    ],
                    [
                        0.7105226516723633,
                        0.7315013408660889,
                        1.5493606328964233,
                        0.7525562047958374,
                        -0.8264116644859314,
                        -0.7225927114486694,
                        -0.28114932775497437,
                        1.3606383800506592,
                        0.4185868203639984,
                        -0.03627079725265503,
                        -0.052333325147628784,
                        0.02213078737258911,
                        0.1347416341304779,
                        -0.002771437168121338,
                        0.25207236409187317,
                        0.3197353184223175,
                        0.5185116529464722,
                        -0.512542188167572,
                        0.09608293324708939,
                        -0.538483202457428,
                        0.3356415033340454,
                        0.7168193459510803,
                        0.39350077509880066,
                        0.23697464168071747
                    ]
                ],
                [
                    [
                        0.1504518985748291,
                        -0.2568001449108124,
                        0.08626455068588257,
                        -0.23536446690559387,
                        0.13559286296367645,
                        -0.43331483006477356,
                        0.14193032681941986,
                        -0.2197594940662384,
                        0.367238312959671,
                        0.022687014192342758,
                        0.23177987337112427,
                        0.06796285510063171,
                        -0.2855593264102936,
                        0.00968706514686346,
                        0.06629715859889984,
                        0.034201908856630325,
                        0.022571925073862076,
                        0.25531914830207825,
                        -0.08793569356203079,
                        0.10194357484579086,
                        -0.20556937158107758,
                        -0.24848520755767822,
                        -0.32376065850257874,
                        -0.009231749922037125
                    ],
                    [
                        -0.07044193893671036,
                        -0.09250807762145996,
                        0.2537103593349457,
                        -0.16147030889987946,
                        0.10378620028495789,
                        0.5021436214447021,
                        -0.39267390966415405,
                        0.0123277697712183,
                        0.17983752489089966,
                        -0.28543490171432495,
                        0.12666840851306915,
                        0.030637754127383232,
                        -0.19195254147052765,
                        -0.12454764544963837,
                        0.12110882252454758,
                        0.1993233561515808,
                        -0.24574393033981323,
                        0.1873656064271927,
                        -0.1892528384923935,
                        0.13960003852844238,
                        0.11051606386899948,
                        -0.11670607328414917,
                        0.1549970656633377,
                        0.17561008036136627
                    ],
                    [
                        -0.08540263772010803,
                        -0.029485592618584633,
                        -0.0723114088177681,
                        -0.029404133558273315,
                        0.004709972999989986,
                        0.3113565146923065,
                        0.10030464082956314,
                        0.060363203287124634,
                        -0.1724560409784317,
                        0.065682552754879,
                        -0.031192384660243988,
                        0.2824002504348755,
                        0.1747349202632904,
                        0.0038220188580453396,
                        0.465134859085083,
                        0.09331261366605759,
                        0.263460248708725,
                        0.41150951385498047,
                        0.2502637803554535,
                        0.30487003922462463,
                        0.018687821924686432,
                        0.06001764535903931,
                        -0.36630764603614807,
                        -0.2039654552936554
                    ],
                    [
                        -0.06288433820009232,
                        -0.40265583992004395,
                        -0.2390734851360321,
                        -0.061592649668455124,
                        -0.09020677208900452,
                        0.15565097332000732,
                        -0.14442193508148193,
                        0.3507581353187561,
                        0.07536794245243073,
                        -0.2715686559677124,
                        0.14827626943588257,
                        0.21388846635818481,
                        -0.0936722680926323,
                        0.24493226408958435,
                        -0.22822357714176178,
                        -0.37330925464630127,
                        -0.06816258281469345,
                        -0.17484018206596375,
                        0.15658137202262878,
                        -0.042102012783288956,
                        -0.009780083782970905,
                        0.07931297272443771,
                        -0.35548242926597595,
                        0.05861753225326538
                    ],
                    [
                        -0.002073196927085519,
                        0.015678586438298225,
                        -0.05221225321292877,
                        0.1530904918909073,
                        -0.32003799080848694,
                        -0.17299073934555054,
                        -0.16403862833976746,
                        -0.21022775769233704,
                        -0.2311391681432724,
                        -0.15600234270095825,
                        0.3258424699306488,
                        0.28764793276786804,
                        0.24415874481201172,
                        -0.2875328063964844,
                        0.20258189737796783,
                        -0.10263960063457489,
                        -0.20898979902267456,
                        0.1748516857624054,
                        -0.278541624546051,
                        -0.19598928093910217,
                        -0.10365395992994308,
                        0.11551293730735779,
                        -0.15286780893802643,
                        0.21150679886341095
                    ],
                    [
                        -0.06629113107919693,
                        0.15279720723628998,
                        -0.0771765187382698,
                        -0.22262635827064514,
                        0.37438929080963135,
                        0.08120259642601013,
                        -0.02813795953989029,
                        0.08569598942995071,
                        -0.28184744715690613,
                        0.16144514083862305,
                        0.15113523602485657,
                        0.19000431895256042,
                        -0.2497844099998474,
                        0.18995758891105652,
                        0.22951096296310425,
                        -0.18489739298820496,
                        0.030120396986603737,
                        -0.07192923873662949,
                        -0.4887126088142395,
                        -0.3037659823894501,
                        0.1087222695350647,
                        0.013563576154410839,
                        -0.06484580039978027,
                        -0.3035518229007721
                    ],
                    [
                        -0.1947588324546814,
                        -0.277386337518692,
                        -0.06350718438625336,
                        0.2804887592792511,
                        0.24053779244422913,
                        0.012579932808876038,
                        -0.21635328233242035,
                        -0.3818523585796356,
                        -0.1499282568693161,
                        -0.06809182465076447,
                        0.11222504824399948,
                        -0.36783772706985474,
                        0.30467331409454346,
                        0.14707504212856293,
                        -0.035252731293439865,
                        0.366123229265213,
                        -0.09522700309753418,
                        -0.10807833820581436,
                        0.09508362412452698,
                        -0.2925286889076233,
                        -0.03018069639801979,
                        -0.15332597494125366,
                        -0.23723764717578888,
                        -0.2398681938648224
                    ],
                    [
                        0.28161925077438354,
                        -0.3180141746997833,
                        0.36637505888938904,
                        -0.17792807519435883,
                        -0.18034738302230835,
                        0.02842777967453003,
                        0.007135175168514252,
                        0.12644796073436737,
                        -0.0847705826163292,
                        -0.14259134232997894,
                        -0.12058646231889725,
                        0.054074231535196304,
                        0.32518482208251953,
                        -0.07584089040756226,
                        -0.10581625998020172,
                        -0.009566846303641796,
                        0.01894848421216011,
                        -0.0821235254406929,
                        -0.21001440286636353,
                        0.04863840341567993,
                        -0.1407284438610077,
                        -0.15404678881168365,
                        0.10000400990247726,
                        -0.5490395426750183
                    ]
                ],
                [
                    [
                        -0.24284376204013824,
                        -0.18068453669548035,
                        -0.24801863729953766,
                        -0.153798446059227,
                        -0.04006108641624451,
                        -0.13731105625629425,
                        -0.187707781791687,
                        -0.053506795316934586,
                        0.0,
                        0.0,
                        0.0,
                        0.0,
                        0.0,
                        0.0,
                        0.0,
                        0.0,
                        -0.08368842303752899,
                        -0.2741641402244568,
                        0.03634631261229515,
                        0.13526609539985657,
                        0.18998901546001434,
                        0.08460238575935364,
                        0.26829519867897034,
                        0.2212112993001938
                    ],
                    [
                        -0.24284376204013824,
                        -0.18068453669548035,
                        -0.24801863729953766,
                        -0.153798446059227,
                        -0.04006108641624451,
                        -0.13731105625629425,
                        -0.187707781791687,
                        -0.053506795316934586,
                        0.0,
                        0.0,
                        0.0,
                        0.0,
                        0.0,
                        0.0,
                        0.0,
                        0.0,
                        -0.08368842303752899,
                        -0.2741641402244568,
                        0.03634631261229515,
                        0.13526609539985657,
                        0.18998901546001434,
                        0.08460238575935364,
                        0.26829519867897034,
                        0.2212112993001938
                    ]
                ]
            ]
        },
        {
            "type": "gru",
            "activation": "tanh",
            "shape": [
                null,
                1,
                8
            ],
            "weights": [
                [
                    [
                        1.3841509819030762,
                        -0.9049934148788452,
                        0.3866428732872009,
                        0.2670876383781433,
                        -0.15231207013130188,
                        -2.088379144668579,
                        0.28365015983581543,
                        -0.44535738229751587,
                        -0.06056678295135498,
                        -0.32819023728370667,
                        0.4172317683696747,
                        -0.3806912302970886,
                        -0.08647525310516357,
                        0.14008215069770813,
                        -0.39267677068710327,
                        0.3873228132724762,
                        0.007053987123072147,
                        -0.5156733393669128,
                        -0.5763421058654785,
                        -0.628399670124054,
                        -0.11220225691795349,
                        0.12806876003742218,
                        -0.5471776723861694,
                        0.04437902197241783
                    ],
                    [
                        -0.5162277221679688,
                        -0.30221447348594666,
                        -1.4434601068496704,
                        -0.3177255690097809,
                        -0.8804301023483276,
                        -1.4610669612884521,
                        -0.40050798654556274,
                        -0.26065561175346375,
                        -0.058109819889068604,
                        0.40886279940605164,
                        0.4272952377796173,
                        -0.34879791736602783,
                        -0.13462218642234802,
                        0.3857940137386322,
                        0.33876463770866394,
                        0.024508237838745117,
                        0.030926553532481194,
                        -1.230248212814331,
                        0.46170321106910706,
                        0.14553231000900269,
                        0.0031578242778778076,
                        0.24101372063159943,
                        0.18742351233959198,
                        -0.242451474070549
                    ],
                    [
                        0.03085479326546192,
                        0.9293529391288757,
                        0.6066900491714478,
                        -1.2680857181549072,
                        -0.8001391291618347,
                        0.2755865752696991,
                        -1.2118233442306519,
                        -0.46812495589256287,
                        0.2501530349254608,
                        -0.002650231122970581,
                        0.30700400471687317,
                        0.08250376582145691,
                        0.21098700165748596,
                        0.24841895699501038,
                        0.3339478075504303,
                        0.22941461205482483,
                        0.03665400296449661,
                        -0.8700125813484192,
                        -0.024226434528827667,
                        -0.16215837001800537,
                        -0.2776491641998291,
                        -0.3944871723651886,
                        -0.11887338757514954,
                        -0.44650551676750183
                    ],
                    [
                        -0.25473296642303467,
                        0.8053910732269287,
                        -2.0245723724365234,
                        -0.23298406600952148,
                        0.161174938082695,
                        1.5387582778930664,
                        -0.6979211568832397,
                        0.5395259261131287,
                        0.4259609878063202,
                        -0.006700992584228516,
                        0.4020065367221832,
                        0.2486969530582428,
                        0.40897688269615173,
                        -0.3943637013435364,
                        -0.21807442605495453,
                        0.2736595571041107,
                        0.6656175851821899,
                        0.46132034063339233,
                        -0.08942149579524994,
                        0.5602369904518127,
                        -0.3176499009132385,
                        -0.21507252752780914,
                        0.3591008484363556,
                        0.6674255728721619
                    ],
                    [
                        -0.18860284984111786,
                        -1.4144084453582764,
                        0.33795467019081116,
                        0.03811243176460266,
                        -0.5802896618843079,
                        -1.4428610801696777,
                        -0.19667915999889374,
                        -0.8925211429595947,
                        0.33671924471855164,
                        -0.20352837443351746,
                        0.3425844609737396,
                        0.3142642080783844,
                        0.31103184819221497,
                        0.1784515678882599,
                        0.3189045488834381,
                        -0.2640334367752075,
                        -0.04514816775918007,
                        -0.4757227301597595,
                        -0.7257388830184937,
                        -0.24252867698669434,
                        0.071916364133358,
                        0.5566338896751404,
                        -0.30648326873779297,
                        -0.5819814801216125
                    ],
                    [
                        1.8169676065444946,
                        -1.901350736618042,
                        0.6001191139221191,
                        -0.7880663871765137,
                        -0.42855870723724365,
                        -2.2461767196655273,
                        -0.6627427935600281,
                        -0.7333493828773499,
                        0.1356966197490692,
                        0.1681981384754181,
                        -0.3017151951789856,
                        -0.23620977997779846,
                        0.3920747935771942,
                        0.0039001405239105225,
                        -0.3921409845352173,
                        -0.026137560606002808,
                        0.17784066498279572,
                        -0.5857311487197876,
                        0.10436160862445831,
                        -0.5486422777175903,
                        0.598250150680542,
                        0.4834883511066437,
                        -0.35419774055480957,
                        -0.5218864679336548
                    ],
                    [
                        0.8571728467941284,
                        -0.4404275119304657,
                        1.491305947303772,
                        0.9040138721466064,
                        -0.17799358069896698,
                        -0.7037695646286011,
                        -0.016259483993053436,
                        -0.6834239363670349,
                        -0.3576740622520447,
                        -0.025948941707611084,
                        0.14832189679145813,
                        -0.012909650802612305,
                        -0.24752892553806305,
                        -0.2845931053161621,
                        0.2753744423389435,
                        -0.1689053475856781,
                        -0.6035277843475342,
                        -0.2775467038154602,
                        -0.3259463608264923,
                        0.07110688090324402,
                        0.3786688446998596,
                        -0.021567462012171745,
                        -0.413349986076355,
                        -0.058158308267593384
                    ],
                    [
                        0.6186610460281372,
                        0.16852203011512756,
                        0.15959270298480988,
                        0.03132076933979988,
                        -0.13308317959308624,
                        0.36950966715812683,
                        0.16364187002182007,
                        -0.2894190549850464,
                        -0.14130574464797974,
                        -0.3817005753517151,
                        -0.16563951969146729,
                        -0.12296763062477112,
                        -0.2193193882703781,
                        -0.16474339365959167,
                        -0.4205995202064514,
                        0.17329391837120056,
                        -0.40897777676582336,
                        0.39068952202796936,
                        -0.5530143976211548,
                        -0.4312225580215454,
                        0.33262041211128235,
                        -0.3683214783668518,
                        -0.3350558578968048,
                        0.3804325759410858
                    ]
                ],
                [
                    [
                        -0.028107166290283203,
                        0.17114447057247162,
                        -0.03338799253106117,
                        -0.29513970017433167,
                        -0.117672860622406,
                        0.03950021415948868,
                        -0.11006640642881393,
                        -0.11887897551059723,
                        -0.006496275309473276,
                        0.332806795835495,
                        0.0832912027835846,
                        -0.18543893098831177,
                        0.2843581438064575,
                        -0.21511182188987732,
                        0.22868722677230835,
                        0.4461107552051544,
                        -0.10189619660377502,
                        0.3489243686199188,
                        -0.02806846797466278,
                        0.3286437690258026,
                        -0.0705217644572258,
                        0.0465325266122818,
                        -0.035867445170879364,
                        0.11803629994392395
                    ],
                    [
                        0.03295613452792168,
                        0.0444452241063118,
                        0.47658538818359375,
                        0.336664617061615,
                        -0.06888169795274734,
                        0.18726761639118195,
                        0.07451243698596954,
                        0.18409991264343262,
                        -0.01389701385051012,
                        0.2777822017669678,
                        0.009704384952783585,
                        0.1963646411895752,
                        -0.07886428385972977,
                        -0.5381566286087036,
                        0.23195265233516693,
                        0.031844500452280045,
                        0.0029313648119568825,
                        -0.2748425006866455,
                        -0.18351836502552032,
                        -0.004922626540064812,
                        0.16712428629398346,
                        -0.06501621007919312,
                        0.08659868687391281,
                        -0.07792392373085022
                    ],
                    [
                        -0.17227371037006378,
                        -0.2399909496307373,
                        -0.08644147217273712,
                        -0.10313964635133743,
                        0.16840514540672302,
                        0.43666359782218933,
                        -0.32087671756744385,
                        0.3923533260822296,
                        -0.21536320447921753,
                        0.06890973448753357,
                        -0.2546018362045288,
                        0.196807399392128,
                        0.059169624000787735,
                        -0.13058382272720337,
                        0.03710975870490074,
                        -0.14879994094371796,
                        0.14144358038902283,
                        0.15842582285404205,
                        0.19178365170955658,
                        0.03900948166847229,
                        -0.3691134750843048,
                        -0.07593458145856857,
                        0.17072603106498718,
                        -0.09461317956447601
                    ],
                    [
                        0.15963448584079742,
                        0.4653364419937134,
                        0.05453448370099068,
                        -0.04634496197104454,
                        0.293962299823761,
                        0.3694309890270233,
                        0.16894175112247467,
                        -0.14795251190662384,
                        0.17038175463676453,
                        0.17265605926513672,
                        -0.33996790647506714,
                        0.1671031415462494,
                        0.20581847429275513,
                        0.1060967817902565,
                        -0.1549818366765976,
                        0.03474123775959015,
                        0.13934791088104248,
                        -0.25052931904792786,
                        0.14554187655448914,
                        -0.09545186161994934,
                        -0.07548124343156815,
                        0.27470922470092773,
                        0.08069783449172974,
                        0.10770650953054428
                    ],
                    [
                        -0.2860385775566101,
                        0.06127176433801651,
                        0.1177404373884201,
                        -0.07417649030685425,
                        -0.2958460748195648,
                        -0.14429982006549835,
                        -0.08983145654201508,
                        -0.39476725459098816,
                        -0.12240706384181976,
                        0.13266593217849731,
                        -0.15600670874118805,
                        0.11673033982515335,
                        0.16082505881786346,
                        -0.007120142690837383,
                        -0.32772359251976013,
                        0.025375409051775932,
                        0.021443935111165047,
                        0.04146318882703781,
                        -0.0298239067196846,
                        0.004602693021297455,
                        0.011809879913926125,
                        0.04694821313023567,
                        0.23355567455291748,
                        -0.5685481429100037
                    ],
                    [
                        -0.46268001198768616,
                        0.2949884235858917,
                        -0.08982758969068527,
                        0.16927869617938995,
                        0.11536244302988052,
                        -0.12609639763832092,
                        -0.07528757303953171,
                        -0.055725060403347015,
                        0.12721672654151917,
                        0.1295875906944275,
                        -0.10741382837295532,
                        0.5402195453643799,
                        -0.10184480249881744,
                        -0.05924878269433975,
                        0.16759255528450012,
                        -0.06827855855226517,
                        0.157097727060318,
                        0.3339771628379822,
                        -0.14351202547550201,
                        -0.15161126852035522,
                        -0.0028104595839977264,
                        -0.07737355679273605,
                        -0.32125192880630493,
                        0.22110208868980408
                    ],
                    [
                        0.01019372045993805,
                        -0.3109307587146759,
                        -0.24563415348529816,
                        -0.1741519719362259,
                        0.13354071974754333,
                        -0.04975420981645584,
                        -0.16809634864330292,
                        -0.06815627962350845,
                        -0.061376262456178665,
                        -0.008598614484071732,
                        -0.1294305920600891,
                        -0.10194950550794601,
                        0.22754919528961182,
                        -0.28251415491104126,
                        -0.25530824065208435,
                        0.16221646964550018,
                        0.07239006459712982,
                        -0.3220766484737396,
                        -0.40618154406547546,
                        -0.14327196776866913,
                        0.05271879956126213,
                        0.17334750294685364,
                        -0.3805297613143921,
                        0.10845234990119934
                    ],
                    [
                        -0.3678615391254425,
                        -0.3117141127586365,
                        0.16078905761241913,
                        0.01459907740354538,
                        0.08960194885730743,
                        0.399417906999588,
                        0.15201425552368164,
                        -0.1821627914905548,
                        0.3285822570323944,
                        -0.21803003549575806,
                        0.13317333161830902,
                        -0.16140389442443848,
                        0.10525759309530258,
                        -0.03603664040565491,
                        -0.1488950103521347,
                        0.12882937490940094,
                        -0.3662490248680115,
                        0.23845592141151428,
                        0.03533617779612541,
                        -0.21699783205986023,
                        0.1881517916917801,
                        0.08495840430259705,
                        0.11223024129867554,
                        0.12812551856040955
                    ]
                ],
                [
                    [
                        -0.20748154819011688,
                        -0.5961855053901672,
                        0.03135616332292557,
                        -0.18028075993061066,
                        -0.13149267435073853,
                        0.06237467750906944,
                        -0.1822531372308731,
                        -0.2877519726753235,
                        0.0,
                        0.0,
                        0.0,
                        0.0,
                        0.0,
                        0.0,
                        0.0,
                        0.0,
                        0.10734688490629196,
                        0.1429484337568283,
                        0.06843697279691696,
                        0.09999324381351471,
                        0.18450529873371124,
                        -0.21715590357780457,
                        -0.05913025885820389,
                        -0.04723278805613518
                    ],
                    [
                        -0.20748154819011688,
                        -0.5961855053901672,
                        0.03135616332292557,
                        -0.18028075993061066,
                        -0.13149267435073853,
                        0.06237467750906944,
                        -0.1822531372308731,
                        -0.2877519726753235,
                        0.0,
                        0.0,
                        0.0,
                        0.0,
                        0.0,
                        0.0,
                        0.0,
                        0.0,
                        0.10734688490629196,
                        0.1429484337568283,
                        0.06843697279691696,
                        0.09999324381351471,
                        0.18450529873371124,
                        -0.21715590357780457,
                        -0.05913025885820389,
                        -0.04723278805613518
                    ]
                ]
            ]
        },
        {
            "type": "gru",
            "activation": "tanh",
            "shape": [
                null,
                1,
                8
            ],
            "weights": [
                [
                    [
                        -3.780097484588623,
                        -0.8095657229423523,
                        -0.420245498418808,
                        -0.4097641408443451,
                        -1.1065140962600708,
                        -0.7672392725944519,
                        -0.7034366726875305,
                        -0.2677682340145111,
                        -0.09710097312927246,
                        -0.28764575719833374,
                        0.31209251284599304,
                        -0.3364545702934265,
                        -0.1112266480922699,
                        0.004813790321350098,
                        0.2772424519062042,
                        0.195355623960495,
                        -0.3030949532985687,
                        0.18261487782001495,
                        -0.010651852935552597,
                        0.3841583728790283,
                        0.03280962258577347,
                        0.48322734236717224,
                        -0.5630556344985962,
                        -0.540170431137085
                    ],
                    [
                        3.9746265411376953,
                        0.9229147434234619,
                        0.47710758447647095,
                        -0.04423503577709198,
                        3.4821999073028564,
                        0.2058284729719162,
                        0.6403071284294128,
                        2.1644177436828613,
                        -0.002326488494873047,
                        -0.11251527070999146,
                        -0.17492982745170593,
                        0.0013515055179595947,
                        -0.012022316455841064,
                        0.35586419701576233,
                        0.39059683680534363,
                        -0.028264671564102173,
                        1.1777552366256714,
                        0.3729472756385803,
                        -0.19609335064888,
                        -0.11591458320617676,
                        -0.6601018905639648,
                        -0.06889643520116806,
                        -0.3403087556362152,
                        -0.44442474842071533
                    ],
                    [
                        -2.1649765968322754,
                        -0.6159367561340332,
                        -0.39933112263679504,
                        -0.35752153396606445,
                        -1.3890666961669922,
                        -0.5345771908760071,
                        -0.7518550157546997,
                        -0.5241512060165405,
                        -0.1919584572315216,
                        0.1876520812511444,
                        -0.43014442920684814,
                        -0.32674312591552734,
                        -0.06493532657623291,
                        -0.05962464213371277,
                        -0.0019645094871520996,
                        0.4319336712360382,
                        -0.9135239720344543,
                        0.08931320905685425,
                        0.2366948425769806,
                        0.2768101692199707,
                        -0.2718835175037384,
                        -0.17957191169261932,
                        -0.4645133316516876,
                        0.1092938482761383
                    ],
                    [
                        -1.105788230895996,
                        -0.1848416030406952,
                        0.3130849003791809,
                        -0.43937739729881287,
                        0.2724485695362091,
                        0.1921825110912323,
                        -0.19570651650428772,
                        -0.6754568219184875,
                        0.3204903304576874,
                        -0.07936689257621765,
                        0.43299904465675354,
                        -0.2184792309999466,
                        -0.26010119915008545,
                        -0.2654063105583191,
                        -0.2964060604572296,
                        -0.3467842638492584,
                        0.1346575766801834,
                        0.13625872135162354,
                        0.3751206398010254,
                        0.015323582105338573,
                        -0.4593620002269745,
                        0.45881548523902893,
                        -0.41801679134368896,
                        -0.4477877914905548
                    ],
                    [
                        -0.6826658844947815,
                        -0.4790340065956116,
                        -0.6677576303482056,
                        0.8186833262443542,
                        -0.5760210156440735,
                        -0.0010490823769941926,
                        0.2700064182281494,
                        -0.09611979126930237,
                        0.2553704082965851,
                        -0.11979511380195618,
                        0.23057052493095398,
                        -0.22327423095703125,
                        -0.27539998292922974,
                        -0.3982551693916321,
                        0.08584269881248474,
                        -0.21459777653217316,
                        -0.02933831699192524,
                        -0.42299503087997437,
                        -0.06107752397656441,
                        -0.10209975391626358,
                        0.24255576729774475,
                        -0.15050800144672394,
                        0.1641961932182312,
                        0.21910597383975983
                    ],
                    [
                        -1.2457064390182495,
                        0.017922909930348396,
                        0.14809183776378632,
                        0.06907705962657928,
                        -0.48427778482437134,
                        -0.1577683687210083,
                        0.0546981580555439,
                        -0.4426114559173584,
                        -0.19593952596187592,
                        0.010478794574737549,
                        -0.3927187919616699,
                        -0.2401653528213501,
                        0.11185869574546814,
                        0.2645159661769867,
                        -0.27158302068710327,
                        0.15510424971580505,
                        -0.4741092920303345,
                        0.04737382382154465,
                        -0.036222923547029495,
                        0.25498130917549133,
                        0.3449193239212036,
                        -0.1970667988061905,
                        -0.38244354724884033,
                        -0.10889933258295059
                    ],
                    [
                        -0.22367867827415466,
                        0.21377164125442505,
                        -0.09191622585058212,
                        -0.8020653128623962,
                        0.26801130175590515,
                        0.5462179780006409,
                        -1.0904029607772827,
                        -0.12873311340808868,
                        -0.14678427577018738,
                        0.18618246912956238,
                        -0.4141376316547394,
                        -0.0006706416606903076,
                        0.20880433917045593,
                        0.15657570958137512,
                        -0.10171344876289368,
                        0.37411513924598694,
                        -0.08668377995491028,
                        0.4811730682849884,
                        0.5945093631744385,
                        0.47567373514175415,
                        -0.5498663187026978,
                        0.6139825582504272,
                        -0.48198530077934265,
                        -0.5515162348747253
                    ],
                    [
                        2.888535499572754,
                        0.7239658832550049,
                        0.7678728103637695,
                        -0.23542678356170654,
                        0.7404103875160217,
                        0.4053960144519806,
                        0.5115535855293274,
                        0.37852025032043457,
                        -0.15483945608139038,
                        0.0868704617023468,
                        -0.36152783036231995,
                        -0.004315167665481567,
                        -0.014912456274032593,
                        0.11302462220191956,
                        -0.1817072033882141,
                        -0.02153417468070984,
                        0.8344941139221191,
                        0.05189313367009163,
                        0.6416621804237366,
                        -0.08467839658260345,
                        -0.5530709624290466,
                        0.3243440091609955,
                        -0.433580607175827,
                        -0.5065625309944153
                    ]
                ],
                [
                    [
                        0.038784146308898926,
                        0.000730495376046747,
                        0.17568562924861908,
                        -0.05944948270916939,
                        -0.045440707355737686,
                        -0.41977354884147644,
                        7.339835428865626e-05,
                        0.13528090715408325,
                        -0.0015985836507752538,
                        0.38701045513153076,
                        -0.26512211561203003,
                        -0.1992097944021225,
                        -0.08149350434541702,
                        0.02307809703052044,
                        -0.3469979763031006,
                        0.021667886525392532,
                        -0.12600970268249512,
                        -0.11055437475442886,
                        0.39612582325935364,
                        0.18798299133777618,
                        0.28966614603996277,
                        -0.0027873192448168993,
                        -0.13888689875602722,
                        0.06498142331838608
                    ],
                    [
                        0.05504081770777702,
                        -0.44488266110420227,
                        -0.01658756658434868,
                        -0.25805485248565674,
                        -0.10824526101350784,
                        0.04717083275318146,
                        0.14632298052310944,
                        -0.08315329253673553,
                        0.19516518712043762,
                        -0.04402836412191391,
                        0.09826433658599854,
                        -0.08318618685007095,
                        0.16487736999988556,
                        -0.025179076939821243,
                        -0.10102919489145279,
                        0.18591274321079254,
                        -0.05898100882768631,
                        -0.2670179009437561,
                        0.0025246869772672653,
                        0.19710539281368256,
                        -0.4979820251464844,
                        -0.1609395444393158,
                        -0.11892735958099365,
                        0.3288145065307617
                    ],
                    [
                        -0.12170810997486115,
                        -0.1261010766029358,
                        0.12240028381347656,
                        0.15554988384246826,
                        -0.2195373773574829,
                        -0.039330944418907166,
                        0.10427942872047424,
                        0.3498497009277344,
                        0.023977570235729218,
                        -0.05429106205701828,
                        -0.14982271194458008,
                        0.4126403033733368,
                        0.38500458002090454,
                        0.017355484887957573,
                        0.0010422766208648682,
                        0.23370492458343506,
                        0.2166813164949417,
                        0.21669654548168182,
                        0.15325036644935608,
                        0.4147586524486542,
                        -0.10154043883085251,
                        0.1102166697382927,
                        0.23325403034687042,
                        -0.25624391436576843
                    ],
                    [
                        0.295942097902298,
                        -0.39646947383880615,
                        -0.16521455347537994,
                        0.055149853229522705,
                        -0.23678894340991974,
                        0.20696167647838593,
                        0.23309649527072906,
                        -0.08882038295269012,
                        0.030495906248688698,
                        0.22734501957893372,
                        -0.31373438239097595,
                        0.0331873744726181,
                        0.12260287255048752,
                        0.1359027922153473,
                        -0.1989499181509018,
                        -0.006607830058783293,
                        0.16571013629436493,
                        0.07846485078334808,
                        -0.25568997859954834,
                        -0.34860390424728394,
                        0.3060474991798401,
                        -0.0331442654132843,
                        -0.060984693467617035,
                        -0.15722785890102386
                    ],
                    [
                        0.41680511832237244,
                        -0.008297021500766277,
                        0.1032097116112709,
                        0.1533515602350235,
                        0.1600348949432373,
                        0.28151047229766846,
                        -0.2566757798194885,
                        0.10125787556171417,
                        -0.2710195779800415,
                        0.25277096033096313,
                        0.266581267118454,
                        0.016231132671236992,
                        0.2935585081577301,
                        -0.2091570347547531,
                        -0.0381774939596653,
                        -0.021665485575795174,
                        -0.08538603782653809,
                        -0.11723190546035767,
                        0.04118477553129196,
                        0.16170361638069153,
                        -0.10882261395454407,
                        0.02233300544321537,
                        -0.39930370450019836,
                        -0.2520262897014618
                    ],
                    [
                        -0.12286438047885895,
                        -0.02381923981010914,
                        0.43464261293411255,
                        0.03524520993232727,
                        -0.011049820110201836,
                        -0.23441153764724731,
                        -0.06410307437181473,
                        -0.047795459628105164,
                        -0.1831306517124176,
                        -0.0002448856830596924,
                        0.19221681356430054,
                        0.00022078398615121841,
                        0.2643399238586426,
                        0.04510919749736786,
                        0.18940240144729614,
                        0.41027846932411194,
                        -0.26771676540374756,
                        -0.06008806824684143,
                        -0.20176534354686737,
                        -0.25470036268234253,
                        0.13051338493824005,
                        -0.3861273229122162,
                        0.08598166704177856,
                        -0.1719103753566742
                    ],
                    [
                        -0.005066538229584694,
                        -0.05731169879436493,
                        -0.38266387581825256,
                        -0.0885929986834526,
                        0.1233852431178093,
                        0.05986137315630913,
                        -0.18698279559612274,
                        0.2190772294998169,
                        0.06412423402070999,
                        0.1646472066640854,
                        0.11135935038328171,
                        -0.05341888219118118,
                        0.11692484468221664,
                        0.1654856950044632,
                        0.09738070517778397,
                        0.030783312395215034,
                        -0.05408236384391785,
                        -0.5988714098930359,
                        0.12114042043685913,
                        -0.04174092784523964,
                        0.07335753738880157,
                        -0.08085975795984268,
                        0.48831304907798767,
                        -0.22712887823581696
                    ],
                    [
                        -0.15284304320812225,
                        0.07046061009168625,
                        -0.07472845166921616,
                        -0.009222335182130337,
                        0.18906858563423157,
                        -0.11856138706207275,
                        -0.3579685688018799,
                        0.01890413649380207,
                        0.4777734577655792,
                        0.26593950390815735,
                        -0.10971816629171371,
                        0.2764832675457001,
                        -0.07277343422174454,
                        -0.05533789098262787,
                        -0.05624038353562355,
                        0.38424044847488403,
                        0.15327490866184235,
                        -0.05069071426987648,
                        -0.3162950873374939,
                        -0.009402072057127953,
                        -0.022688260301947594,
                        -0.0673680379986763,
                        -0.2648136615753174,
                        0.024332156404852867
                    ]
                ],
                [
                    [
                        -0.2795945107936859,
                        -0.17362767457962036,
                        -0.20232747495174408,
                        -0.22282348573207855,
                        0.003117813728749752,
                        -0.2609023153781891,
                        -0.0872507095336914,
                        -0.17121200263500214,
                        0.0,
                        0.0,
                        0.0,
                        0.0,
                        0.0,
                        0.0,
                        0.0,
                        0.0,
                        -0.054518502205610275,
                        -0.045720506459474564,
                        -0.07019573450088501,
                        0.14965692162513733,
                        -0.08133603632450104,
                        -0.16372589766979218,
                        -0.06058059632778168,
                        -0.0713188499212265
                    ],
                    [
                        -0.2795945107936859,
                        -0.17362767457962036,
                        -0.20232747495174408,
                        -0.22282348573207855,
                        0.003117813728749752,
                        -0.2609023153781891,
                        -0.0872507095336914,
                        -0.17121200263500214,
                        0.0,
                        0.0,
                        0.0,
                        0.0,
                        0.0,
                        0.0,
                        0.0,
                        0.0,
                        -0.054518502205610275,
                        -0.045720506459474564,
                        -0.07019573450088501,
                        0.14965692162513733,
                        -0.08133603632450104,
                        -0.16372589766979218,
                        -0.06058059632778168,
                        -0.0713188499212265
                    ]
                ]
            ]
        },
        {
            "type": "gru",
            "activation": "tanh",
            "shape": [
                null,
                1,
                8
            ],
            "weights": [
                [
                    [
                        2.3260550498962402,
                        1.329664945602417,
                        2.2041163444519043,
                        2.4429333209991455,
                        2.1607718467712402,
                        1.8752130270004272,
                        1.5803217887878418,
                        2.4190802574157715,
                        -0.18404461443424225,
                        0.2757510840892792,
                        -0.1632544994354248,
                        0.05319786071777344,
                        0.2863865792751312,
                        0.3393503725528717,
                        0.19442710280418396,
                        0.08602812886238098,
                        0.11333448439836502,
                        0.6397939920425415,
                        -0.28278806805610657,
                        0.15259289741516113,
                        0.16560153663158417,
                        0.497336745262146,
                        0.20391501486301422,
                        0.11263616383075714
                    ],
                    [
                        0.5580304861068726,
                        0.3313717246055603,
                        0.9227192997932434,
                        0.6834627389907837,
                        0.2965039610862732,
                        0.5346534848213196,
                        -0.8531398773193359,
                        -0.09457387775182724,
                        0.32344821095466614,
                        0.2326383888721466,
                        -0.3622933328151703,
                        0.2835957109928131,
                        -0.3301233649253845,
                        0.3454136550426483,
                        -0.4296911954879761,
                        -0.03381085395812988,
                        -0.12926547229290009,
                        0.5204906463623047,
                        -0.17008987069129944,
                        0.5716685652732849,
                        0.6649063229560852,
                        0.5143091678619385,
                        0.20577971637248993,
                        -0.4464012682437897
                    ],
                    [
                        0.03063499927520752,
                        0.7452060580253601,
                        0.6988791227340698,
                        -0.07714083790779114,
                        0.46076700091362,
                        0.7814317941665649,
                        -0.20767639577388763,
                        0.2054978460073471,
                        -0.20269864797592163,
                        -0.33533257246017456,
                        -0.09577444195747375,
                        -0.27692076563835144,
                        -0.24334509670734406,
                        0.3781191408634186,
                        -0.17399901151657104,
                        0.4003126919269562,
                        0.5001450777053833,
                        0.16200847923755646,
                        -0.5394395589828491,
                        -0.06440877914428711,
                        0.521389901638031,
                        0.4575722813606262,
                        -0.5540486574172974,
                        -0.01592918485403061
                    ],
                    [
                        -0.9213176965713501,
                        0.6329048871994019,
                        -0.728484034538269,
                        -0.5502358675003052,
                        -0.6442459225654602,
                        -0.6228980422019958,
                        -0.16515618562698364,
                        -0.2902272343635559,
                        0.26300445199012756,
                        0.23381784558296204,
                        0.18014594912528992,
                        0.41880062222480774,
                        -0.2565445303916931,
                        -0.22387456893920898,
                        0.3640080392360687,
                        0.32937249541282654,
                        0.0031871774699538946,
                        0.2675826847553253,
                        -0.5500351786613464,
                        -0.11316900700330734,
                        -0.14160415530204773,
                        0.5920407176017761,
                        -0.46735551953315735,
                        -0.4959964156150818
                    ],
                    [
                        -1.4967267513275146,
                        -1.3445141315460205,
                        -1.1643421649932861,
                        -0.984348714351654,
                        -1.4031691551208496,
                        -1.3523290157318115,
                        1.2961803674697876,
                        -0.8118987083435059,
                        -0.27960145473480225,
                        0.24473127722740173,
                        0.22052714228630066,
                        0.2269529402256012,
                        -0.16083574295043945,
                        -0.14945721626281738,
                        -0.41060617566108704,
                        0.35723939538002014,
                        -0.7491060495376587,
                        -0.1589948683977127,
                        0.2928505539894104,
                        -0.5511661171913147,
                        -0.011877273209393024,
                        -0.20693913102149963,
                        -0.23427502810955048,
                        0.5279110670089722
                    ],
                    [
                        0.5450876951217651,
                        0.7906565070152283,
                        0.3507695496082306,
                        0.5676972270011902,
                        0.24459724128246307,
                        0.44610631465911865,
                        -0.4975709021091461,
                        -0.373111367225647,
                        0.24310359358787537,
                        0.23372182250022888,
                        0.17245063185691833,
                        0.3920310437679291,
                        0.2831380069255829,
                        0.006172299385070801,
                        0.19113925099372864,
                        -0.14983156323432922,
                        0.5931865572929382,
                        0.33728036284446716,
                        0.015166209079325199,
                        0.3646681308746338,
                        0.18714483082294464,
                        -0.1794491410255432,
                        -0.5430426001548767,
                        -0.11780770868062973
                    ],
                    [
                        0.44402068853378296,
                        -0.4772160053253174,
                        0.36896806955337524,
                        0.777050256729126,
                        1.290418267250061,
                        0.520933985710144,
                        0.700063943862915,
                        0.9806197881698608,
                        0.2879938781261444,
                        -0.07031413912773132,
                        -0.29256075620651245,
                        -0.2936190366744995,
                        0.023459047079086304,
                        0.1930428445339203,
                        0.07485845685005188,
                        -0.22212807834148407,
                        0.054994452744722366,
                        -0.2618657648563385,
                        0.38423678278923035,
                        -0.5680123567581177,
                        -0.6584792733192444,
                        -0.5713679790496826,
                        -0.11825879663228989,
                        -0.12884211540222168
                    ],
                    [
                        -0.8060302734375,
                        -1.1285734176635742,
                        0.026406189426779747,
                        -0.7802013754844666,
                        -1.0154743194580078,
                        -0.44540804624557495,
                        0.8220729231834412,
                        0.06291545182466507,
                        -0.4268447160720825,
                        0.081563800573349,
                        0.4025293290615082,
                        0.1773945391178131,
                        0.07377323508262634,
                        -0.41549697518348694,
                        0.31169572472572327,
                        0.27709802985191345,
                        -0.7233228087425232,
                        -0.3761192262172699,
                        0.6167544722557068,
                        -0.6141946911811829,
                        -0.3434261083602905,
                        -0.6307598948478699,
                        0.2071465104818344,
                        -0.019249845296144485
                    ]
                ],
                [
                    [
                        0.13011860847473145,
                        0.015840621665120125,
                        -0.05482405051589012,
                        0.054322659969329834,
                        -0.23678450286388397,
                        0.06611572206020355,
                        0.11055110394954681,
                        0.1838236153125763,
                        -0.10590282082557678,
                        -0.10934259742498398,
                        -0.0865248441696167,
                        0.0670027807354927,
                        0.14755624532699585,
                        0.14474210143089294,
                        0.08026038855314255,
                        0.04958369582891464,
                        0.3404635787010193,
                        -0.44883596897125244,
                        -0.5698962211608887,
                        0.3020305931568146,
                        -0.12022125720977783,
                        0.10984700173139572,
                        0.13862864673137665,
                        -0.1005447581410408
                    ],
                    [
                        0.17356958985328674,
                        0.3210681080818176,
                        -0.23663048446178436,
                        0.3069339990615845,
                        0.09250643849372864,
                        -0.08233417570590973,
                        0.014675294980406761,
                        -0.364803671836853,
                        -0.16106413304805756,
                        0.26779642701148987,
                        -0.3131507337093353,
                        0.19395968317985535,
                        -0.2979886829853058,
                        -0.10438788682222366,
                        -0.004988609813153744,
                        -0.22790969908237457,
                        0.03453538566827774,
                        0.15071168541908264,
                        -0.25421348214149475,
                        0.08477532863616943,
                        0.2642756700515747,
                        0.0531572625041008,
                        0.15890444815158844,
                        0.2103746384382248
                    ],
                    [
                        -0.020832011476159096,
                        -0.2762170135974884,
                        0.5521941781044006,
                        0.05213621258735657,
                        0.14280256628990173,
                        -0.08348783105611801,
                        0.4010181128978729,
                        -0.20214174687862396,
                        -0.22538644075393677,
                        -0.12379571795463562,
                        -0.09321819245815277,
                        -0.10467913746833801,
                        -0.02988324500620365,
                        -0.04565560817718506,
                        -0.09399531036615372,
                        -0.04620584100484848,
                        0.17932231724262238,
                        0.0322701670229435,
                        -0.11829137802124023,
                        -0.0720180869102478,
                        -0.036998528987169266,
                        0.10568453371524811,
                        -0.23721221089363098,
                        0.3590978682041168
                    ],
                    [
                        0.22477124631404877,
                        -0.4324961304664612,
                        0.039662349969148636,
                        -0.183803528547287,
                        0.16156384348869324,
                        -0.04324781894683838,
                        -0.15939714014530182,
                        0.16835205256938934,
                        -0.4720924496650696,
                        0.11210814118385315,
                        -0.07702656090259552,
                        0.3069697916507721,
                        0.05222349241375923,
                        -0.24058747291564941,
                        0.40441906452178955,
                        -0.1651131510734558,
                        -0.1115693747997284,
                        0.15582093596458435,
                        -0.07282551378011703,
                        0.042178697884082794,
                        -0.056727997958660126,
                        -0.08122216165065765,
                        0.26332226395606995,
                        0.06788679212331772
                    ],
                    [
                        -0.1961870789527893,
                        -0.009600313380360603,
                        0.22598104178905487,
                        -0.16234725713729858,
                        -0.2918512523174286,
                        -0.237213596701622,
                        -0.2926148772239685,
                        -0.05306557938456535,
                        0.060278765857219696,
                        -0.3209003210067749,
                        -0.11654815077781677,
                        0.08035270124673843,
                        -0.2960352599620819,
                        -0.34096840023994446,
                        -0.07897589355707169,
                        0.13471846282482147,
                        -0.02374763786792755,
                        -0.2809876799583435,
                        -0.011492796242237091,
                        0.009972773492336273,
                        0.14010725915431976,
                        -0.23955515027046204,
                        0.194961816072464,
                        0.10789095610380173
                    ],
                    [
                        -0.026848331093788147,
                        0.09001195430755615,
                        -0.04418831691145897,
                        0.16979949176311493,
                        -0.4188951253890991,
                        -0.10931801795959473,
                        -0.186667799949646,
                        0.016422316431999207,
                        -0.28037896752357483,
                        0.1865488886833191,
                        0.09998777508735657,
                        -0.214461088180542,
                        0.1300298124551773,
                        -0.07249269634485245,
                        -0.17823080718517303,
                        0.22395119071006775,
                        -0.1818123757839203,
                        0.253182977437973,
                        -0.2126137912273407,
                        -0.18214121460914612,
                        -0.41276198625564575,
                        -0.19884970784187317,
                        0.00016120239160954952,
                        0.1379900425672531
                    ],
                    [
                        -0.36307501792907715,
                        0.012409873306751251,
                        -0.08343236148357391,
                        0.33495816588401794,
                        -0.05413114279508591,
                        -0.031847141683101654,
                        -0.002254404127597809,
                        0.11340615153312683,
                        -0.4464229941368103,
                        -0.11723962426185608,
                        -0.15244075655937195,
                        0.04176805168390274,
                        0.30331459641456604,
                        -0.10902877897024155,
                        -0.048935409635305405,
                        -0.1316221058368683,
                        -0.051725342869758606,
                        -0.0718611478805542,
                        0.11540624499320984,
                        0.07198072224855423,
                        0.1913735568523407,
                        -0.061270177364349365,
                        -0.3915596008300781,
                        -0.315495103597641
                    ],
                    [
                        0.11347638070583344,
                        0.07417245209217072,
                        -0.31048813462257385,
                        -0.05519277974963188,
                        -0.04828561097383499,
                        -0.21682113409042358,
                        0.4364376664161682,
                        -0.012508220970630646,
                        0.02960377186536789,
                        -0.315883994102478,
                        0.20198428630828857,
                        -0.2858527898788452,
                        0.24772198498249054,
                        -0.19160254299640656,
                        0.15463578701019287,
                        -0.1444089114665985,
                        -0.0832967460155487,
                        -0.07687197625637054,
                        -0.06823214888572693,
                        -0.4712405800819397,
                        0.13218025863170624,
                        -0.08213452994823456,
                        0.20708774030208588,
                        -0.016970543190836906
                    ]
                ],
                [
                    [
                        -0.1996576339006424,
                        -0.26737314462661743,
                        -0.14206179976463318,
                        -0.10576830059289932,
                        -0.16109727323055267,
                        -0.17394006252288818,
                        0.17473068833351135,
                        0.0723666176199913,
                        0.0,
                        0.0,
                        0.0,
                        0.0,
                        0.0,
                        0.0,
                        0.0,
                        0.0,
                        0.01614833064377308,
                        -0.025998789817094803,
                        -0.012189878150820732,
                        0.04217672720551491,
                        -0.006128951907157898,
                        0.015603459440171719,
                        -0.032685015350580215,
                        -0.020643984898924828
                    ],
                    [
                        -0.1996576339006424,
                        -0.26737314462661743,
                        -0.14206179976463318,
                        -0.10576830059289932,
                        -0.16109727323055267,
                        -0.17394006252288818,
                        0.17473068833351135,
                        0.0723666176199913,
                        0.0,
                        0.0,
                        0.0,
                        0.0,
                        0.0,
                        0.0,
                        0.0,
                        0.0,
                        0.01614833064377308,
                        -0.025998789817094803,
                        -0.012189878150820732,
                        0.04217672720551491,
                        -0.006128951907157898,
                        0.015603459440171719,
                        -0.032685015350580215,
                        -0.020643984898924828
                    ]
                ]
            ]
        },
        {
            "type": "unknown",
            "activation": "",
            "shape": [
                null,
                8
            ],
            "weights": []
        },
        {
            "type": "dense",
            "activation": "tanh",
            "shape": [
                null,
                1
            ],
            "weights": [
                [
                    [
                        -0.4841603934764862
                    ],
                    [
                        -0.9499730467796326
                    ],
                    [
                        1.0506291389465332
                    ],
                    [
                        -1.1521389484405518
                    ],
                    [
                        -0.849507749080658
                    ],
                    [
                        -1.0947219133377075
                    ],
                    [
                        0.8492499589920044
                    ],
                    [
                        0.5360294580459595
                    ]
                ],
                [
                    -0.020860861986875534
                ]
            ]
        }
    ]
}