{
    "in_shape": [
        null,
        16
    ],
    "layers": [
        {
            "type": "dense",
            "activation": "tanh",
            "shape": [
                null,
                16
            ],
            "weights": [
                [
                    [
                        -0.7870990037918091,
                        1.0701713562011719,
                        1.351172924041748,
                        -1.098987102508545,
                        0.224931538105011,
                        0.7723308205604553,
                        1.3068042993545532,
                        -2.249152660369873,
                        0.4640316367149353,
                        -1.0056378841400146,
                        -0.2422093152999878,
                        2.2253594398498535,
                        0.11274979263544083,
                        -1.753944993019104,
                        0.8728082180023193,
                        -1.8476741313934326
                    ],
                    [
                        1.2930934429168701,
                        -0.7322193384170532,
                        -0.40421152114868164,
                        1.2624191045761108,
                        -0.9183483123779297,
                        0.4075371325016022,
                        -0.26813024282455444,
                        0.07813791185617447,
                        -2.043790340423584,
                        0.8800671696662903,
                        -0.8546878099441528,
                        -1.6223526000976562,
                        -0.5892621874809265,
                        0.7848840951919556,
                        -0.6906661987304688,
                        0.6786154508590698
                    ],
                    [
                        0.1537429392337799,
                        0.35779300332069397,
                        -0.6191750764846802,
                        0.39608508348464966,
                        -0.9494545459747314,
                        -0.38188037276268005,
                        0.2792448103427887,
                        -0.1332097053527832,
                        0.2912318706512451,
                        -0.19108358025550842,
                        -0.0799192264676094,
                        -0.9255958795547485,
                        -1.5227069854736328,
                        -0.5877149701118469,
                        -0.3016883134841919,
                        -0.6023744940757751
                    ],
                    [
                        -0.5620805025100708,
                        -0.22136171162128448,
                        -0.3387260138988495,
                        0.1559959203004837,
                        -0.2566041052341461,
                        -0.6042007207870483,
                        0.18684525787830353,
                        -0.404168039560318,
                        0.4170752167701721,
                        -0.4024472236633301,
                        0.12860070168972015,
                        -0.2771473228931427,
                        -0.6720148324966431,
                        -0.6285721063613892,
                        -0.21575234830379486,
                        -0.12521886825561523
                    ],
                    [
                        -0.33358505368232727,
                        -0.51799476146698,
                        0.48406726121902466,
                        -0.9979843497276306,
                        0.4143505394458771,
                        -0.876946210861206,
                        0.41968485713005066,
                        -0.5145515203475952,
                        1.2226006984710693,
                        -0.6269785165786743,
                        -0.06508786231279373,
                        0.8616889119148254,
                        0.35382765531539917,
                        -1.2116416692733765,
                        -0.7853778600692749,
                        -1.1745741367340088
                    ],
                    [
                        -0.11887102574110031,
                        -0.3645343780517578,
                        0.06179220601916313,
                        0.40125587582588196,
                        0.19919416308403015,
                        -0.26904675364494324,
                        0.5622838735580444,
                        0.0226407740265131,
                        1.0163965225219727,
                        0.15121901035308838,
                        0.490353524684906,
                        0.10693906247615814,
                        -0.06370727717876434,
                        -0.6507741212844849,
                        -0.15088292956352234,
                        -0.5842421054840088
                    ],
                    [
                        0.37140923738479614,
                        -0.5925982594490051,
                        -0.3582806885242462,
                        0.48539575934410095,
                        -0.019842348992824554,
                        0.18202506005764008,
                        -0.3573933243751526,
                        0.9824517965316772,
                        0.38130366802215576,
                        0.14018428325653076,
                        -0.048836756497621536,
                        -0.049908243119716644,
                        0.3060765564441681,
                        0.027845103293657303,
                        0.03313296660780907,
                        0.013192596845328808
                    ],
                    [
                        -0.31641528010368347,
                        0.36051979660987854,
                        -0.9911739826202393,
                        0.7117012143135071,
                        -0.0743204802274704,
                        0.46479785442352295,
                        -0.5836923718452454,
                        0.5399624705314636,
                        0.3015863597393036,
                        0.7206356525421143,
                        -0.8254392743110657,
                        -0.6551684141159058,
                        -0.14775264263153076,
                        0.24420250952243805,
                        1.1112487316131592,
                        0.6266791224479675
                    ],
                    [
                        -0.39721620082855225,
                        -0.1261143535375595,
                        0.3973708152770996,
                        -0.2513367533683777,
                        1.0011985301971436,
                        0.3077738583087921,
                        -0.26486971974372864,
                        -0.27006885409355164,
                        1.0714325904846191,
                        -1.0646140575408936,
                        -0.07926841080188751,
                        0.6878358125686646,
                        0.8008560538291931,
                        -0.5202969312667847,
                        0.2903444170951843,
                        -0.6553637981414795
                    ],
                    [
                        0.2671981155872345,
                        -0.32848668098449707,
                        0.3760465979576111,
                        -0.05873874947428703,
                        0.7447351217269897,
                        -0.102320596575737,
                        0.06162925437092781,
                        -1.0461660623550415,
                        0.3210800588130951,
                        -0.8723906874656677,
                        0.06281091272830963,
                        0.35233908891677856,
                        -0.8191063404083252,
                        -0.16890059411525726,
                        0.6425768733024597,
                        -0.2702343463897705
                    ],
                    [
                        -0.09035920351743698,
                        -0.17973178625106812,
                        0.639926552772522,
                        -0.21345101296901703,
                        0.4501699209213257,
                        0.11038494110107422,
                        -0.4217643439769745,
                        0.5829442143440247,
                        0.06103786826133728,
                        -0.11862851679325104,
                        -0.18860210478305817,
                        0.2539732754230499,
                        -0.35269394516944885,
                        0.18259522318840027,
                        -0.48096561431884766,
                        0.20175084471702576
                    ],
                    [
                        -0.6152894496917725,
                        0.785896360874176,
                        -0.30474135279655457,
                        0.5730698704719543,
                        -0.07805851101875305,
                        0.5056135654449463,
                        0.3965243101119995,
                        0.46197274327278137,
                        -0.6867993474006653,
                        2.0432233810424805,
                        -0.7696847319602966,
                        -0.7856297492980957,
                        -1.322802186012268,
                        1.249358892440796,
                        0.8267589211463928,
                        1.41244375705719
                    ],
                    [
                        0.11413774639368057,
                        -0.22229014337062836,
                        0.2695324718952179,
                        -0.4629851281642914,
                        0.3861752152442932,
                        0.8096379041671753,
                        0.134464830160141,
                        -0.17031821608543396,
                        -0.5697230696678162,
                        0.690280556678772,
                        -0.5147762894630432,
                        -0.6048036217689514,
                        0.8090059757232666,
                        0.334497332572937,
                        -0.5610710382461548,
                        0.7000113129615784
                    ],
                    [
                        0.11327802389860153,
                        0.3236100971698761,
                        0.6231064200401306,
                        -0.11243559420108795,
                        -0.18699714541435242,
                        -0.154938742518425,
                        0.05961480736732483,
                        -0.3928201198577881,
                        -0.18758130073547363,
                        0.36677607893943787,
                        0.06135868281126022,
                        0.03097533993422985,
                        0.8202791810035706,
                        0.11542632430791855,
                        -0.04981725290417671,
                        -0.07814956456422806
                    ],
                    [
                        1.35177743434906,
                        -2.6414506435394287,
                        0.9409518837928772,
                        -2.0027363300323486,
                        0.398722380399704,
                        -1.1569057703018188,
                        -0.13270188868045807,
                        -0.9224224090576172,
                        -0.42980626225471497,
                        -2.299570322036743,
                        1.2391844987869263,
                        0.207108274102211,
                        2.196892261505127,
                        -1.7350709438323975,
                        -1.844897985458374,
                        -2.0333943367004395
                    ],
                    [
                        -1.5542211532592773,
                        3.370502471923828,
                        -1.5532500743865967,
                        1.8258140087127686,
                        -1.8591281175613403,
                        1.3195812702178955,
                        2.278414011001587,
                        1.5089380741119385,
                        -0.4978128671646118,
                        0.48336535692214966,
                        -0.43261176347732544,
                        -0.19550316035747528,
                        -2.2741031646728516,
                        1.3204792737960815,
                        1.8808987140655518,
                        0.3125261068344116
                    ]
                ],
                [
                    0.6641750335693359,
                    0.02827431447803974,
                    0.9641145467758179,
                    -0.07904043793678284,
                    -0.036405690014362335,
                    -0.05143764615058899,
                    -0.23285415768623352,
                    -0.33859574794769287,
                    -0.08448462933301926,
                    0.7447437644004822,
                    0.38702452182769775,
                    -0.16485127806663513,
                    -0.21886973083019257,
                    0.1478501558303833,
                    0.23413868248462677,
                    -0.04705699533224106
                ]
            ]
        },
        {
            "type": "dense",
            "activation": "tanh",
            "shape": [
                null,
                16
            ],
            "weights": [
                [
                    [
                        0.42984285950660706,
                        0.8055988550186157,
                        -0.1123216450214386,
                        -0.366592675447464,
                        0.0448116771876812,
                        0.5315510034561157,
                        -0.039271216839551926,
                        -0.6819297075271606,
                        -0.4526265561580658,
                        0.04990806058049202,
                        -0.05603272467851639,
                        -0.5786909461021423,
                        0.43659940361976624,
                        -0.15005163848400116,
                        -1.2842727899551392,
                        0.2733452022075653
                    ],
                    [
                        0.8703311681747437,
                        1.1166163682937622,
                        0.5688145756721497,
                        -0.5642441511154175,
                        -0.751708984375,
                        1.1573307514190674,
                        0.9362586140632629,
                        1.366127848625183,
                        1.283608078956604,
                        1.404587984085083,
                        0.17408783733844757,
                        0.15342937409877777,
                        -0.7263045907020569,
                        0.952836275100708,
                        0.9018102288246155,
                        0.7815395593643188
                    ],
                    [
                        1.1353209018707275,
                        0.27947673201560974,
                        0.5100458860397339,
                        -0.8491748571395874,
                        -0.1613042652606964,
                        0.07782815396785736,
                        1.1806668043136597,
                        -1.0068387985229492,
                        -0.5933884382247925,
                        -0.2585150897502899,
                        0.6407480239868164,
                        0.7491985559463501,
                        -0.3318603038787842,
                        -1.2761304378509521,
                        0.06718917191028595,
                        1.0944910049438477
                    ],
                    [
                        1.092416524887085,
                        1.273430585861206,
                        1.8057650327682495,
                        0.7883920669555664,
                        -1.2353862524032593,
                        0.54896080493927,
                        1.1036242246627808,
                        0.29254209995269775,
                        -0.7023919820785522,
                        0.5808258652687073,
                        -0.849762499332428,
                        0.6840823888778687,
                        -0.2588154375553131,
                        0.8907904028892517,
                        0.019668767228722572,
                        -1.6380157470703125
                    ],
                    [
                        -1.0737764835357666,
                        0.2053098827600479,
                        -0.7540395855903625,
                        -0.2643207907676697,
                        -0.27137115597724915,
                        -0.2560485899448395,
                        -0.5976122617721558,
                        0.024482786655426025,
                        -0.12598805129528046,
                        0.37315452098846436,
                        -0.3454437255859375,
                        -0.3614861071109772,
                        -0.11079956591129303,
                        -0.34331053495407104,
                        0.174558624625206,
                        0.06536181271076202
                    ],
                    [
                        -0.9826335310935974,
                        -2.3318498134613037,
                        -0.10312854498624802,
                        -0.4637582004070282,
                        0.14768186211585999,
                        -0.9915695786476135,
                        -0.10408846288919449,
                        0.40237918496131897,
                        0.22149211168289185,
                        0.7616004943847656,
                        0.8243659138679504,
                        0.010016513988375664,
                        0.25749754905700684,
                        -0.27570223808288574,
                        0.12115295231342316,
                        -0.15031170845031738
                    ],
                    [
                        -0.32058626413345337,
                        -1.3606681823730469,
                        0.18224205076694489,
                        -0.4180088937282562,
                        -0.4207412004470825,
                        -0.08730551600456238,
                        -0.8426680564880371,
                        -0.07247333973646164,
                        0.16485542058944702,
                        -0.6368233561515808,
                        -0.21311859786510468,
                        0.7422233819961548,
                        0.32601141929626465,
                        0.16205787658691406,
                        -0.1371786743402481,
                        0.3983219861984253
                    ],
                    [
                        0.5656598806381226,
                        -1.198587417602539,
                        0.15773114562034607,
                        -0.02015146240592003,
                        -0.617135226726532,
                        0.5731282830238342,
                        1.0346359014511108,
                        -0.46935024857521057,
                        0.22095854580402374,
                        0.48476362228393555,
                        -0.20007063448429108,
                        0.18616728484630585,
                        -0.10848104953765869,
                        -0.12923263013362885,
                        -0.37462979555130005,
                        -0.14521627128124237
                    ],
                    [
                        0.07251287996768951,
                        -0.7106932997703552,
                        -0.33500349521636963,
                        0.33991846442222595,
                        -0.5401544570922852,
                        1.1724380254745483,
                        0.6092371940612793,
                        -0.14388853311538696,
                        -0.2098820060491562,
                        -0.5023297071456909,
                        0.930228590965271,
                        -0.6780533790588379,
                        -0.0902353972196579,
                        0.8487169742584229,
                        0.3288046419620514,
                        0.026219192892313004
                    ],
                    [
                        0.5125389099121094,
                        0.8493532538414001,
                        0.45734208822250366,
                        -0.5514825582504272,
                        0.12353421747684479,
                        0.5066046118736267,
                        0.23632027208805084,
                        0.2674887776374817,
                        -1.3338685035705566,
                        -0.02666918933391571,
                        -0.5765160322189331,
                        -0.6762377023696899,
                        -0.48496538400650024,
                        0.404796838760376,
                        -0.7266524434089661,
                        0.5859187841415405
                    ],
                    [
                        0.6293860673904419,
                        0.36551007628440857,
                        0.5947060585021973,
                        0.06589313596487045,
                        -0.2463628649711609,
                        -0.17546607553958893,
                        -0.6349714398384094,
                        -0.7730763554573059,
                        -0.5292177200317383,
                        -0.479799747467041,
                        0.34466302394866943,
                        0.19423572719097137,
                        -0.5595389604568481,
                        0.17863474786281586,
                        -0.6160299777984619,
                        1.040557622909546
                    ],
                    [
                        -0.06524893641471863,
                        0.9996588826179504,
                        -0.9074898958206177,
                        -0.2237682193517685,
                        0.766865074634552,
                        -1.7043449878692627,
                        0.056666817516088486,
                        0.42563632130622864,
                        0.2958216369152069,
                        0.19040605425834656,
                        1.4282219409942627,
                        -0.15315641462802887,
                        -0.04684895649552345,
                        0.4554549753665924,
                        1.2016552686691284,
                        0.4302215874195099
                    ],
                    [
                        -0.14831100404262543,
                        -0.25809377431869507,
                        -1.1546608209609985,
                        0.10218152403831482,
                        -0.456890732049942,
                        0.44757080078125,
                        -0.2613483965396881,
                        -0.0885128602385521,
                        -0.9993609189987183,
                        -0.5331568717956543,
                        -0.12055005878210068,
                        0.1191181093454361,
                        0.06221887841820717,
                        -0.630892276763916,
                        0.20567309856414795,
                        0.2053433358669281
                    ],
                    [
                        -0.4687146246433258,
                        -0.4396100640296936,
                        0.6669260263442993,
                        -0.17402149736881256,
                        -0.6779354810714722,
                        0.0985972136259079,
                        -1.8740828037261963,
                        -0.7194235920906067,
                        1.3065698146820068,
                        0.7889731526374817,
                        -0.2953929603099823,
                        -0.699114203453064,
                        -1.2163589000701904,
                        0.673194169998169,
                        -0.5663275718688965,
                        -0.14744646847248077
                    ],
                    [
                        -0.48505356907844543,
                        0.5058462023735046,
                        1.2693504095077515,
                        0.39962515234947205,
                        -0.9842209219932556,
                        -0.24267317354679108,
                        -0.3143131136894226,
                        -0.407903790473938,
                        -0.0323932059109211,
                        1.4382882118225098,
                        0.4516528844833374,
                        8.881179383024573e-06,
                        -0.8386122584342957,
                        0.3341941237449646,
                        0.15674059092998505,
                        0.3301478922367096
                    ],
                    [
                        -0.3879223167896271,
                        0.4045848548412323,
                        -0.3364378809928894,
                        0.6243906021118164,
                        1.403884768486023,
                        -0.7218916416168213,
                        -0.08832910656929016,
                        -0.8933447599411011,
                        0.7078978419303894,
                        0.3186076581478119,
                        -0.4455260634422302,
                        0.21367213129997253,
                        0.17199546098709106,
                        -0.7644723653793335,
                        -0.3071000277996063,
                        -0.5616084337234497
                    ]
                ],
                [
                    0.7427886128425598,
                    1.8933438062667847,
                    0.06253853440284729,
                    1.12788724899292,
                    -0.3281633257865906,
                    0.4062669575214386,
                    0.4177798926830292,
                    0.39807233214378357,
                    -0.5510292649269104,
                    -0.7695512771606445,
                    0.4872666299343109,
                    -0.22362370789051056,
                    -0.30144423246383667,
                    -0.023396454751491547,
                    -0.21730224788188934,
                    -0.2825532853603363
                ]
            ]
        },
        {
            "type": "dense",
            "activation": "tanh",
            "shape": [
                null,
                16
            ],
            "weights": [
                [
                    [
                        -0.5897783637046814,
                        0.3061015009880066,
                        1.1996979713439941,
                        -0.9938629269599915,
                        -0.7054789066314697,
                        0.5408022999763489,
                        -0.41385844349861145,
                        0.6667155623435974,
                        -0.11198852211236954,
                        -0.12799909710884094,
                        -0.9176125526428223,
                        0.1521783471107483,
                        0.1258000135421753,
                        0.8236678838729858,
                        -0.16430923342704773,
                        -0.3533290922641754
                    ],
                    [
                        -0.2476225048303604,
                        -0.5876677632331848,
                        0.38685867190361023,
                        -0.16598613560199738,
                        0.4423682391643524,
                        1.7170884609222412,
                        0.13739852607250214,
                        -0.3301706314086914,
                        0.519973635673523,
                        0.45696333050727844,
                        -0.1837904155254364,
                        -0.9126905798912048,
                        -0.5021263360977173,
                        -1.1799718141555786,
                        -0.08886522799730301,
                        -0.036471981555223465
                    ],
                    [
                        0.9613500237464905,
                        0.25675421953201294,
                        0.3698957562446594,
                        -0.4293796718120575,
                        -0.5087466239929199,
                        0.5855839252471924,
                        -0.39556801319122314,
                        0.3264758884906769,
                        -1.0919164419174194,
                        0.016474882140755653,
                        -0.21072736382484436,
                        0.9161942005157471,
                        0.8129429817199707,
                        -0.08248215913772583,
                        1.0548155307769775,
                        0.31613779067993164
                    ],
                    [
                        0.9926444292068481,
                        -0.27454832196235657,
                        0.6845763325691223,
                        -0.27552467584609985,
                        0.8430364727973938,
                        -0.43685272336006165,
                        -0.16140824556350708,
                        -0.27393966913223267,
                        0.24308550357818604,
                        1.2844597101211548,
                        0.19915425777435303,
                        0.6285542249679565,
                        0.04141450673341751,
                        1.3559117317199707,
                        -0.07175806164741516,
                        0.08290321379899979
                    ],
                    [
                        -0.20712974667549133,
                        -0.22858546674251556,
                        -0.5361274480819702,
                        0.2980499565601349,
                        0.12211057543754578,
                        0.15248650312423706,
                        0.15663762390613556,
                        0.17943385243415833,
                        -0.5166493654251099,
                        0.49423152208328247,
                        0.8775296807289124,
                        0.09428255259990692,
                        -0.2342042475938797,
                        -0.31820717453956604,
                        -0.2503332197666168,
                        0.34524258971214294
                    ],
                    [
                        0.19922393560409546,
                        0.49889957904815674,
                        0.6958723068237305,
                        -0.5683598518371582,
                        0.5114200115203857,
                        0.4760051369667053,
                        -0.40963032841682434,
                        -0.16587476432323456,
                        -0.7191919088363647,
                        0.33318015933036804,
                        -0.46827730536460876,
                        -0.5613622069358826,
                        0.013913707807660103,
                        0.9865344762802124,
                        -0.53194260597229,
                        0.030636748299002647
                    ],
                    [
                        -0.33144447207450867,
                        0.18064065277576447,
                        -0.38140609860420227,
                        0.4476199150085449,
                        0.20580343902111053,
                        -0.21553033590316772,
                        0.5271674990653992,
                        0.23470240831375122,
                        -0.8622170686721802,
                        0.593986988067627,
                        0.3987472355365753,
                        0.0700298622250557,
                        0.2507425546646118,
                        -0.6008056998252869,
                        0.3775481879711151,
                        -0.4194888174533844
                    ],
                    [
                        0.1790343075990677,
                        -0.1299445927143097,
                        -0.9853717684745789,
                        -0.08978278934955597,
                        0.07752092182636261,
                        -0.189801424741745,
                        -0.025073057040572166,
                        0.05868672579526901,
                        1.0404627323150635,
                        0.9551437497138977,
                        0.6366330981254578,
                        0.7523238658905029,
                        -0.0011094070505350828,
                        0.5398638248443604,
                        -0.2059754580259323,
                        0.7568820118904114
                    ],
                    [
                        -0.8315114378929138,
                        0.3762187957763672,
                        -0.8338257670402527,
                        -0.25748923420906067,
                        0.28986531496047974,
                        -0.5266139507293701,
                        0.2551606595516205,
                        -0.2627137303352356,
                        -0.011417451314628124,
                        0.30260056257247925,
                        0.9107911586761475,
                        -1.0007259845733643,
                        -0.13964729011058807,
                        0.9668314456939697,
                        0.22617003321647644,
                        0.6184819936752319
                    ],
                    [
                        -0.09704601764678955,
                        0.11743989586830139,
                        -0.27167344093322754,
                        -1.1171185970306396,
                        -0.6492306590080261,
                        -1.167777180671692,
                        -0.189008429646492,
                        0.08669838309288025,
                        -0.14240923523902893,
                        0.06505616009235382,
                        -1.1475883722305298,
                        0.251588374376297,
                        -0.014040984213352203,
                        1.8199596405029297,
                        -0.9354623556137085,
                        -0.7160817980766296
                    ],
                    [
                        0.21579374372959137,
                        -0.1304427534341812,
                        0.8120173215866089,
                        0.32480761408805847,
                        -0.5215118527412415,
                        -0.12076769024133682,
                        -0.5724775791168213,
                        0.016133034601807594,
                        -0.07682698965072632,
                        -0.3449297845363617,
                        0.18160560727119446,
                        -0.6883156299591064,
                        -0.4889692962169647,
                        0.24841707944869995,
                        0.1316050887107849,
                        -0.3370088040828705
                    ],
                    [
                        0.4516366720199585,
                        -0.5770378112792969,
                        0.8760097622871399,
                        -0.7329277396202087,
                        0.0821148008108139,
                        0.5951375365257263,
                        -0.6880679130554199,
                        -0.48734351992607117,
                        -0.10344983637332916,
                        0.583501398563385,
                        0.10003530234098434,
                        0.5945649147033691,
                        0.4163706302642822,
                        0.9454124569892883,
                        -0.6715096831321716,
                        -1.2685002088546753
                    ],
                    [
                        -0.4288133978843689,
                        -0.35030120611190796,
                        -0.10429178178310394,
                        0.8800311088562012,
                        -0.09129130840301514,
                        0.6007423400878906,
                        -0.15438055992126465,
                        0.6310042142868042,
                        -0.16425010561943054,
                        -0.37058335542678833,
                        0.7973631024360657,
                        0.37007617950439453,
                        -0.29142454266548157,
                        0.7402955293655396,
                        -0.4404163360595703,
                        0.643308162689209
                    ],
                    [
                        0.5790195465087891,
                        0.5975770354270935,
                        -1.4319508075714111,
                        -0.15037016570568085,
                        -0.44866636395454407,
                        -0.2610798180103302,
                        0.06544782966375351,
                        0.18878938257694244,
                        0.8800144791603088,
                        -1.0114754438400269,
                        0.6409950852394104,
                        -1.4261139631271362,
                        0.4381515383720398,
                        1.5162352323532104,
                        -0.9458492994308472,
                        -1.1475173234939575
                    ],
                    [
                        -1.4291571378707886,
                        0.15878990292549133,
                        -0.029736097902059555,
                        0.6195358037948608,
                        -0.7324150800704956,
                        -0.35480964183807373,
                        0.7370637059211731,
                        -0.43031591176986694,
                        0.03407900035381317,
                        0.41340264678001404,
                        -0.24844205379486084,
                        1.9378060102462769,
                        -0.20943540334701538,
                        -0.10236625373363495,
                        0.15723583102226257,
                        0.08001921325922012
                    ],
                    [
                        -0.8990119099617004,
                        -0.5940471887588501,
                        0.05382518097758293,
                        -0.357706755399704,
                        -0.41527628898620605,
                        0.5770249366760254,
                        0.7019881010055542,
                        -0.4062328636646271,
                        0.16712237894535065,
                        0.3013417422771454,
                        -0.22856038808822632,
                        -0.8177278637886047,
                        0.3982868790626526,
                        -0.14156021177768707,
                        0.19552399218082428,
                        0.31080368161201477
                    ]
                ],
                [
                    0.4850994348526001,
                    0.31529080867767334,
                    -0.06682655960321426,
                    -1.177141785621643,
                    0.08326303958892822,
                    3.230445146560669,
                    0.3958747982978821,
                    0.4915093779563904,
                    -1.0279779434204102,
                    0.7332789897918701,
                    -0.6743419170379639,
                    -0.7728967666625977,
                    -0.5522201061248779,
                    -1.1184964179992676,
                    -0.47775283455848694,
                    1.5699429512023926
                ]
            ]
        },
        {
            "type": "dense",
            "activation": "tanh",
            "shape": [
                null,
                16
            ],
            "weights": [
                [
                    [
                        -0.5062981843948364,
                        -0.28747183084487915,
                        0.10703632980585098,
                        0.02465463988482952,
                        -0.6573330163955688,
                        0.5419579744338989,
                        -0.022325225174427032,
                        1.4760273694992065,
                        0.07951879501342773,
                        0.19870178401470184,
                        -0.2877110540866852,
                        -0.6276028752326965,
                        0.0026218753773719072,
                        -1.2128281593322754,
                        0.8704591393470764,
                        -0.9845909476280212
                    ],
                    [
                        -0.37834930419921875,
                        -0.26299959421157837,
                        0.17662914097309113,
                        0.2995436489582062,
                        -1.159595251083374,
                        -0.07373960316181183,
                        0.5187081098556519,
                        0.1294405609369278,
                        -0.027400245890021324,
                        -1.0334787368774414,
                        0.5735960006713867,
                        1.3195163011550903,
                        0.2831747829914093,
                        -0.4624408781528473,
                        -0.7421059012413025,
                        1.191787600517273
                    ],
                    [
                        0.8469792604446411,
                        0.12189111113548279,
                        -0.09517885744571686,
                        0.029594456776976585,
                        -0.01794479973614216,
                        -0.7536927461624146,
                        0.8101356029510498,
                        -0.24570801854133606,
                        1.9087555408477783,
                        0.8922885656356812,
                        -0.7173172831535339,
                        -1.1714788675308228,
                        -0.7246404886245728,
                        0.3061216175556183,
                        0.31273117661476135,
                        0.6163343191146851
                    ],
                    [
                        0.6396118402481079,
                        -0.922782838344574,
                        -0.39201900362968445,
                        -0.1298786848783493,
                        0.32472100853919983,
                        0.28641054034233093,
                        0.14342395961284637,
                        0.6303794384002686,
                        -0.2843097746372223,
                        0.530697226524353,
                        -0.2938557267189026,
                        0.37262070178985596,
                        0.0781569853425026,
                        -0.2516767978668213,
                        -0.2432379424571991,
                        0.25963884592056274
                    ],
                    [
                        0.7519786953926086,
                        0.3899868428707123,
                        0.31980612874031067,
                        -0.17857830226421356,
                        -0.8835967183113098,
                        0.9844611883163452,
                        0.3615487217903137,
                        -1.1837483644485474,
                        -1.0451312065124512,
                        -1.029642939567566,
                        -0.6077204346656799,
                        -0.049030717462301254,
                        0.30716538429260254,
                        0.3231377601623535,
                        1.5496885776519775,
                        1.2222973108291626
                    ],
                    [
                        -0.7059069275856018,
                        -0.21835209429264069,
                        -0.19489769637584686,
                        0.09704029560089111,
                        -0.024241184815764427,
                        0.21463336050510406,
                        -0.0559467077255249,
                        0.576225996017456,
                        -0.9809703826904297,
                        -0.3147396743297577,
                        -0.5271416902542114,
                        1.0721750259399414,
                        0.034226659685373306,
                        -0.10544037818908691,
                        -0.7335747480392456,
                        -0.8655456900596619
                    ],
                    [
                        -0.9057929515838623,
                        -0.26152387261390686,
                        1.2671687602996826,
                        0.027124935761094093,
                        0.29170238971710205,
                        -0.2953869700431824,
                        0.5499493479728699,
                        0.8405149579048157,
                        -2.3329615592956543,
                        0.07108090072870255,
                        -0.9984126687049866,
                        -0.12357643246650696,
                        0.5239059329032898,
                        0.5388407707214355,
                        -0.21958474814891815,
                        -1.0673654079437256
                    ],
                    [
                        0.7854169011116028,
                        0.8066701292991638,
                        -0.2823287844657898,
                        -0.17920996248722076,
                        -0.5976142287254333,
                        -0.12268000096082687,
                        -0.16757136583328247,
                        0.6997300386428833,
                        -0.7922075390815735,
                        -0.12090274691581726,
                        -0.6874951124191284,
                        0.040189966559410095,
                        -1.098542332649231,
                        -0.28597861528396606,
                        -0.7621076107025146,
                        -1.6723719835281372
                    ],
                    [
                        0.41276389360427856,
                        0.1934855729341507,
                        -0.1764238327741623,
                        -0.12876680493354797,
                        -0.7285208702087402,
                        -0.20065610110759735,
                        0.16862906515598297,
                        -0.7033654451370239,
                        0.8566421270370483,
                        0.7382431030273438,
                        -0.3526690900325775,
                        -0.9250360131263733,
                        -0.3252302408218384,
                        -0.49919432401657104,
                        -0.11584699153900146,
                        0.6130049824714661
                    ],
                    [
                        0.3662088215351105,
                        0.044816095381975174,
                        -0.18872636556625366,
                        0.0048859212547540665,
                        0.46668845415115356,
                        0.15655417740345,
                        0.2667894959449768,
                        1.1156015396118164,
                        -0.7562846541404724,
                        -0.7986903190612793,
                        -0.48375335335731506,
                        -0.43113377690315247,
                        -0.2520262897014618,
                        0.8964566588401794,
                        -1.6844782829284668,
                        0.41254597902297974
                    ],
                    [
                        0.053885217756032944,
                        0.3138815760612488,
                        -0.022462332621216774,
                        -0.29854536056518555,
                        -0.8724514245986938,
                        -1.1027401685714722,
                        -0.04540632665157318,
                        0.9493451118469238,
                        0.7568122744560242,
                        0.0791555717587471,
                        1.651950716972351,
                        0.6960545778274536,
                        -0.008189527317881584,
                        0.2575141191482544,
                        -0.06976418197154999,
                        0.9628933668136597
                    ],
                    [
                        0.09219557046890259,
                        0.17132684588432312,
                        0.19394844770431519,
                        -0.16763447225093842,
                        -0.17375284433364868,
                        0.3796011805534363,
                        0.011093031615018845,
                        0.6366705298423767,
                        0.07203225046396255,
                        -0.4206983745098114,
                        0.3314312696456909,
                        0.08319089561700821,
                        0.35539689660072327,
                        -0.2959328591823578,
                        -0.027081526815891266,
                        0.19750556349754333
                    ],
                    [
                        0.3726988434791565,
                        -1.8285874128341675,
                        -0.9122939109802246,
                        0.15949247777462006,
                        -1.0774118900299072,
                        -2.128767490386963,
                        -1.315591812133789,
                        0.09220422059297562,
                        -0.055107198655605316,
                        0.24419893324375153,
                        -1.1979275941848755,
                        0.7387701869010925,
                        1.612031102180481,
                        0.2816593647003174,
                        -0.12251315265893936,
                        0.11576512455940247
                    ],
                    [
                        0.2914445698261261,
                        0.5249559283256531,
                        0.3670845627784729,
                        0.055824972689151764,
                        0.2126491218805313,
                        0.13009785115718842,
                        -0.4778391420841217,
                        0.4611630141735077,
                        1.1452871561050415,
                        0.136117622256279,
                        -0.7023864984512329,
                        -0.6356507539749146,
                        0.13840234279632568,
                        0.2061678171157837,
                        0.3051290512084961,
                        0.10138317197561264
                    ],
                    [
                        -1.2703993320465088,
                        -0.8439792394638062,
                        -0.358843058347702,
                        -0.008689292706549168,
                        0.5318801403045654,
                        0.6189143657684326,
                        0.19361867010593414,
                        -0.5409361720085144,
                        0.3361579477787018,
                        0.6410422921180725,
                        -0.8547694087028503,
                        0.590420663356781,
                        0.1602483093738556,
                        -0.4589490294456482,
                        0.048877015709877014,
                        0.6282932162284851
                    ],
                    [
                        -0.7719590663909912,
                        1.0169097185134888,
                        1.300797939300537,
                        -0.08725818246603012,
                        -0.960831344127655,
                        0.1747017502784729,
                        -0.9733585715293884,
                        -0.19003164768218994,
                        0.18725596368312836,
                        -0.8707268834114075,
                        -0.00567198358476162,
                        0.8588187098503113,
                        -0.3336922228336334,
                        0.5950300097465515,
                        -0.5066230297088623,
                        0.5693393349647522
                    ]
                ],
                [
                    0.4153827428817749,
                    -0.17996321618556976,
                    -0.22706565260887146,
                    -0.1665928214788437,
                    0.6817666292190552,
                    0.37493398785591125,
                    -1.009939432144165,
                    -0.5079050064086914,
                    -1.4496742486953735,
                    -0.7795374393463135,
                    0.08953234553337097,
                    0.16714201867580414,
                    -0.19414372742176056,
                    -0.38026201725006104,
                    -0.6365789771080017,
                    0.13412554562091827
                ]
            ]
        },
        {
            "type": "dense",
            "activation": "tanh",
            "shape": [
                null,
                16
            ],
            "weights": [
                [
                    [
                        0.10347119718790054,
                        0.03395594656467438,
                        -0.04053188115358353,
                        -0.12705859541893005,
                        -0.222013458609581,
                        -0.30354878306388855,
                        -0.3464781641960144,
                        -0.33733224868774414,
                        -0.2862183153629303,
                        -0.2209702581167221,
                        -0.17781248688697815,
                        -0.1712704598903656,
                        -0.17920833826065063,
                        -0.1718665212392807,
                        -0.1295526921749115,
                        -0.0642981305718422
                    ],
                    [
                        -0.017825109884142876,
                        -0.04483485221862793,
                        -0.07691482454538345,
                        -0.10154987871646881,
                        -0.10822805762290955,
                        -0.09406206756830215,
                        -0.060996681451797485,
                        -0.01504009310156107,
                        0.03998979181051254,
                        0.09868230670690536,
                        0.15367357432842255,
                        0.19104298949241638,
                        0.19525273144245148,
                        0.16267894208431244,
                        0.10111843049526215,
                        0.030733207240700722
                    ],
                    [
                        -0.009005232714116573,
                        -0.0016053919680416584,
                        -0.009370094165205956,
                        -0.03824407607316971,
                        -0.07954574376344681,
                        -0.12121625989675522,
                        -0.1588454693555832,
                        -0.19545897841453552,
                        -0.23350200057029724,
                        -0.2643093764781952,
                        -0.2734183073043823,
                        -0.2525714337825775,
                        -0.20568296313285828,
                        -0.14770419895648956,
                        -0.0898909866809845,
                        -0.03228046000003815
                    ],
                    [
                        0.5265304446220398,
                        0.5697506070137024,
                        0.537207841873169,
                        0.44659900665283203,
                        0.3279672861099243,
                        0.1940835863351822,
                        0.05882429704070091,
                        -0.0678657814860344,
                        -0.14813923835754395,
                        -0.151945099234581,
                        -0.07086015492677689,
                        0.049246709793806076,
                        0.14254538714885712,
                        0.16896522045135498,
                        0.13423462212085724,
                        0.0738983228802681
                    ],
                    [
                        0.08303669095039368,
                        0.03166717290878296,
                        0.006805074401199818,
                        -0.001905564102344215,
                        -0.014439164660871029,
                        -0.04175848886370659,
                        -0.08222731947898865,
                        -0.1279735267162323,
                        -0.1751640886068344,
                        -0.22585201263427734,
                        -0.28091004490852356,
                        -0.3290184438228607,
                        -0.34648436307907104,
                        -0.31482207775115967,
                        -0.2322435826063156,
                        -0.12113334238529205
                    ],
                    [
                        -0.05267445743083954,
                        -0.07394354790449142,
                        -0.07602521777153015,
                        -0.04889237880706787,
                        0.0009577191667631269,
                        0.05219653621315956,
                        0.08473383635282516,
                        0.09472835808992386,
                        0.09028072655200958,
                        0.08773164451122284,
                        0.09491310268640518,
                        0.11184611916542053,
                        0.134244903922081,
                        0.16172116994857788,
                        0.19408729672431946,
                        0.22552502155303955
                    ],
                    [
                        -0.11415984481573105,
                        -0.07877161353826523,
                        -0.028566768392920494,
                        0.01360335573554039,
                        0.026543140411376953,
                        0.004208596423268318,
                        -0.0455993190407753,
                        -0.10275238007307053,
                        -0.14933215081691742,
                        -0.17501507699489594,
                        -0.1754305362701416,
                        -0.14211902022361755,
                        -0.0708504468202591,
                        0.031427402049303055,
                        0.13923639059066772,
                        0.21254457533359528
                    ],
                    [
                        -0.13887035846710205,
                        -0.0468786396086216,
                        0.05105800926685333,
                        0.14569205045700073,
                        0.2210710644721985,
                        0.26038509607315063,
                        0.2558088004589081,
                        0.21596486866474152,
                        0.16031514108181,
                        0.11332504451274872,
                        0.08670627325773239,
                        0.0759027898311615,
                        0.06561154872179031,
                        0.04285328462719917,
                        0.0035533993504941463,
                        -0.046275969594717026
                    ],
                    [
                        0.10311681777238846,
                        0.0553094707429409,
                        -0.010298587381839752,
                        -0.05556090176105499,
                        -0.06783929467201233,
                        -0.06287603825330734,
                        -0.06817757338285446,
                        -0.09915202856063843,
                        -0.14569582045078278,
                        -0.18169930577278137,
                        -0.18374061584472656,
                        -0.1555987298488617,
                        -0.11965811252593994,
                        -0.09878561645746231,
                        -0.1025012880563736,
                        -0.1229102835059166
                    ],
                    [
                        -0.02144557796418667,
                        -0.021566802635788918,
                        0.011207029223442078,
                        0.06469190120697021,
                        0.12446429580450058,
                        0.17883750796318054,
                        0.2176123857498169,
                        0.23574592173099518,
                        0.2285158485174179,
                        0.20114761590957642,
                        0.1599726527929306,
                        0.11770240217447281,
                        0.08615607768297195,
                        0.07183343172073364,
                        0.07130927592515945,
                        0.07917401194572449
                    ],
                    [
                        -0.12779758870601654,
                        -0.12051448971033096,
                        -0.10350801050662994,
                        -0.09629112482070923,
                        -0.0922950878739357,
                        -0.09168101102113724,
                        -0.09447064995765686,
                        -0.08963009715080261,
                        -0.06302276998758316,
                        -0.03466295078396797,
                        -0.015224442817270756,
                        -0.013746600598096848,
                        -0.03130589425563812,
                        -0.04062619060277939,
                        -0.02568122185766697,
                        0.015421818941831589
                    ],
                    [
                        0.015644066035747528,
                        -0.07153259217739105,
                        -0.11880999803543091,
                        -0.14290469884872437,
                        -0.16836494207382202,
                        -0.20070962607860565,
                        -0.228397399187088,
                        -0.23438191413879395,
                        -0.2178088128566742,
                        -0.19086810946464539,
                        -0.17629320919513702,
                        -0.18364691734313965,
                        -0.20548860728740692,
                        -0.2243073433637619,
                        -0.22995798289775848,
                        -0.22348399460315704
                    ],
                    [
                        0.17529258131980896,
                        0.1539791226387024,
                        0.09063030034303665,
                        0.029251841828227043,
                        0.012346671894192696,
                        0.043478671461343765,
                        0.10027602314949036,
                        0.15485423803329468,
                        0.18317590653896332,
                        0.18963555991649628,
                        0.18655048310756683,
                        0.19323337078094482,
                        0.20158345997333527,
                        0.20518973469734192,
                        0.1892899125814438,
                        0.15535162389278412
                    ],
                    [
                        0.030757827684283257,
                        0.027903655543923378,
                        0.047870852053165436,
                        0.08576805144548416,
                        0.13282187283039093,
                        0.17823806405067444,
                        0.21411637961864471,
                        0.23085279762744904,
                        0.22369830310344696,
                        0.18872150778770447,
                        0.12619607150554657,
                        0.044092223048210144,
                        -0.0417146198451519,
                        -0.11517440527677536,
                        -0.16663521528244019,
                        -0.1964595913887024
                    ],
                    [
                        0.15787315368652344,
                        0.001055444939993322,
                        -0.11063061654567719,
                        -0.15375034511089325,
                        -0.15558092296123505,
                        -0.15264876186847687,
                        -0.16757462918758392,
                        -0.19123269617557526,
                        -0.20510055124759674,
                        -0.19768407940864563,
                        -0.1869322955608368,
                        -0.20135127007961273,
                        -0.24847717583179474,
                        -0.31289008259773254,
                        -0.35069531202316284,
                        -0.32840439677238464
                    ],
                    [
                        0.05733031406998634,
                        0.12788015604019165,
                        0.19092872738838196,
                        0.21961794793605804,
                        0.1990584433078766,
                        0.13625109195709229,
                        0.0748942643404007,
                        0.03507966548204422,
                        0.017903245985507965,
                        0.018622813746333122,
                        0.03397921100258827,
                        0.058468371629714966,
                        0.09990447759628296,
                        0.13885429501533508,
                        0.15881729125976562,
                        0.1469716876745224
                    ]
                ],
                [
                    0.04275309294462204,
                    -0.006054220721125603,
                    -0.05031450092792511,
                    -0.0738384947180748,
                    -0.06963297724723816,
                    -0.05951276421546936,
                    -0.054282356053590775,
                    -0.05256962031126022,
                    -0.05477559566497803,
                    -0.06291746348142624,
                    -0.08024971187114716,
                    -0.10429340600967407,
                    -0.11924923956394196,
                    -0.11273442208766937,
                    -0.08236078917980194,
                    -0.03775147348642349
                ]
            ]
        }
    ]
}