{
    "in_shape": [
        null,
        8
    ],
    "layers": [
        {
            "type": "unknown",
            "activation": "",
            "shape": [
                null,
                1,
                8
            ],
            "weights": []
        },
        {
            "type": "gru",
            "activation": "tanh",
            "shape": [
                null,
                1,
                8
            ],
            "weights": [
                [
                    [
                        -0.2911128103733063,
                        -0.8076207637786865,
                        0.2998373210430145,
                        -0.2507064938545227,
                        1.1151351928710938,
                        0.34870272874832153,
                        -0.19383604824543,
                        -1.1890721321105957,
                        -0.0500616729259491,
                        -0.2918068766593933,
                        0.4068947732448578,
                        -0.2090000957250595,
                        -0.13396549224853516,
                        0.38522234559059143,
                        0.10519269108772278,
                        0.035479992628097534,
                        -0.10629305988550186,
                        0.0742325484752655,
                        -0.25230932235717773,
                        -0.4107840657234192,
                        -0.5093830823898315,
                        -0.03288304805755615,
                        0.11926037818193436,
                        -0.014155952259898186
                    ],
                    [
                        0.6398295164108276,
                        -0.5000487565994263,
                        0.3901935815811157,
                        -0.23957709968090057,
                        0.6227608323097229,
                        0.058788202702999115,
                        0.3806780278682709,
                        -0.08314874023199081,
                        0.419290691614151,
                        0.03249630331993103,
                        0.3623081147670746,
                        -0.06889978051185608,
                        0.08031615614891052,
                        -0.2101660668849945,
                        -0.3012312054634094,
                        -0.3524811565876007,
                        0.347292959690094,
                        0.05625968798995018,
                        -0.1370697170495987,
                        -0.11968523263931274,
                        -0.18982933461666107,
                        -0.207167387008667,
                        0.3433923125267029,
                        0.14584994316101074
                    ],
                    [
                        0.6637428402900696,
                        0.3560117185115814,
                        0.08650209754705429,
                        0.5224975347518921,
                        -0.6447558403015137,
                        -0.11247843503952026,
                        -0.22899378836154938,
                        0.49952390789985657,
                        -0.24151581525802612,
                        0.3292899429798126,
                        -0.2093079537153244,
                        -0.033056169748306274,
                        -0.28760066628456116,
                        -0.3723636269569397,
                        -0.2063082605600357,
                        0.3055895268917084,
                        0.38519564270973206,
                        0.035548169165849686,
                        0.2882656753063202,
                        0.1566075086593628,
                        -0.018887806683778763,
                        0.09291829913854599,
                        0.11914893239736557,
                        0.0838804766535759
                    ],
                    [
                        -0.20819984376430511,
                        1.188178300857544,
                        -0.5409327149391174,
                        0.19458842277526855,
                        -1.0334656238555908,
                        0.4027736186981201,
                        0.3570060729980469,
                        -0.16515158116817474,
                        0.07630941271781921,
                        -0.13944745063781738,
                        0.34635594487190247,
                        0.2925775945186615,
                        -0.3970174193382263,
                        -0.22795547544956207,
                        0.4247846305370331,
                        0.3155393898487091,
                        -0.18959984183311462,
                        -0.2904598116874695,
                        -0.30093538761138916,
                        -0.1377117782831192,
                        0.3256707191467285,
                        -0.28041455149650574,
                        -0.5383179187774658,
                        -0.26319900155067444
                    ],
                    [
                        -0.43793103098869324,
                        0.6190060973167419,
                        -0.020922034978866577,
                        -0.17007756233215332,
                        -1.9149566888809204,
                        0.3831317126750946,
                        -0.15635129809379578,
                        0.18011987209320068,
                        -0.20297634601593018,
                        -0.31989213824272156,
                        0.43264827132225037,
                        -0.26298409700393677,
                        0.09445050358772278,
                        0.14078012108802795,
                        -0.00013822317123413086,
                        0.21146079897880554,
                        0.14674878120422363,
                        0.20302288234233856,
                        0.01365916058421135,
                        -0.007743665482848883,
                        0.35436201095581055,
                        0.12103484570980072,
                        -0.29208868741989136,
                        -0.2813817858695984
                    ],
                    [
                        -0.09886985272169113,
                        -0.3535867929458618,
                        -0.10492963343858719,
                        -0.1709333062171936,
                        -0.3873586654663086,
                        -0.4818440079689026,
                        -0.014054893516004086,
                        -0.24472397565841675,
                        0.16158708930015564,
                        0.42771658301353455,
                        -0.41834592819213867,
                        0.240987628698349,
                        -0.21645483374595642,
                        -0.0718681812286377,
                        0.33289244771003723,
                        -0.31152665615081787,
                        -0.3807324469089508,
                        -0.4847189486026764,
                        -0.20907357335090637,
                        0.2803937792778015,
                        0.10301696509122849,
                        0.19960185885429382,
                        0.4615079462528229,
                        0.1859862357378006
                    ],
                    [
                        -0.34885868430137634,
                        -0.8338814973831177,
                        0.036661405116319656,
                        0.5485074520111084,
                        -0.4351229667663574,
                        -0.4421919286251068,
                        -0.5858765840530396,
                        0.1086331233382225,
                        -0.31118109822273254,
                        -0.4135197699069977,
                        -0.017119795083999634,
                        0.15281537175178528,
                        -0.05367967486381531,
                        0.39149925112724304,
                        -0.15733614563941956,
                        0.21091899275779724,
                        0.03128982335329056,
                        0.22806870937347412,
                        0.32501572370529175,
                        -0.6702166795730591,
                        0.18883587419986725,
                        -0.3621867895126343,
                        0.16505847871303558,
                        -0.1796296238899231
                    ],
                    [
                        -0.04631843790411949,
                        0.9257763028144836,
                        -0.11924311518669128,
                        -1.2244718074798584,
                        0.7217500805854797,
                        -0.12326694279909134,
                        0.3831309676170349,
                        -0.648133397102356,
                        0.21140310168266296,
                        -0.2676239609718323,
                        -0.4170929491519928,
                        -0.32538020610809326,
                        0.09750494360923767,
                        0.39190784096717834,
                        0.4147285521030426,
                        0.30228474736213684,
                        0.4767388105392456,
                        0.7201133966445923,
                        -0.19336159527301788,
                        0.6597399711608887,
                        -0.6913797855377197,
                        0.691534698009491,
                        -0.45885011553764343,
                        -0.07572124153375626
                    ]
                ],
                [
                    [
                        -0.009339332580566406,
                        -0.20440591871738434,
                        0.023884287104010582,
                        0.05232459306716919,
                        -0.28667116165161133,
                        0.07301243394613266,
                        -0.12617795169353485,
                        0.043494436889886856,
                        -0.13828898966312408,
                        0.2763546407222748,
                        0.411349892616272,
                        0.3952227830886841,
                        0.04951374977827072,
                        0.30187276005744934,
                        0.011920936405658722,
                        0.29286542534828186,
                        -0.05648353323340416,
                        0.2236064225435257,
                        0.06936023384332657,
                        -0.39132919907569885,
                        0.06400133669376373,
                        0.28717583417892456,
                        0.03554582595825195,
                        -0.042142581194639206
                    ],
                    [
                        -0.12562903761863708,
                        -0.0850638747215271,
                        -0.19202415645122528,
                        0.2747856378555298,
                        0.07777251303195953,
                        -0.31895384192466736,
                        0.2123723179101944,
                        0.118238665163517,
                        0.2142130583524704,
                        -0.07806697487831116,
                        -0.012506592087447643,
                        0.061935484409332275,
                        -0.5339524745941162,
                        0.37559494376182556,
                        -0.3693881034851074,
                        0.10018543899059296,
                        0.04448224976658821,
                        0.17151334881782532,
                        -0.3321852684020996,
                        -0.1411730945110321,
                        -0.06255167722702026,
                        -0.08919861912727356,
                        -0.051246486604213715,
                        -0.13626879453659058
                    ],
                    [
                        -0.08770687133073807,
                        -0.013829579576849937,
                        0.1684136837720871,
                        -0.2207241952419281,
                        0.14201703667640686,
                        -0.13647040724754333,
                        -0.06004410982131958,
                        -0.12945914268493652,
                        -0.09872399270534515,
                        0.16960103809833527,
                        0.02953820861876011,
                        0.20610107481479645,
                        -0.09682656079530716,
                        0.39947405457496643,
                        0.15390810370445251,
                        -0.10700353235006332,
                        -0.298739492893219,
                        -0.1025204062461853,
                        0.24766314029693604,
                        0.0960066020488739,
                        -0.29299989342689514,
                        -0.4818854033946991,
                        0.06043646112084389,
                        0.20955677330493927
                    ],
                    [
                        0.567043662071228,
                        0.1112256869673729,
                        -0.06536796689033508,
                        -0.10987049341201782,
                        0.20067057013511658,
                        -0.14826388657093048,
                        0.07603739947080612,
                        0.02272224985063076,
                        -0.4296600818634033,
                        -0.10600826144218445,
                        0.09515602141618729,
                        0.15177646279335022,
                        0.12357786297798157,
                        0.0379427969455719,
                        -0.08996938169002533,
                        -0.29489660263061523,
                        -0.04676137492060661,
                        0.124993234872818,
                        -0.21694797277450562,
                        -0.09531672298908234,
                        0.3304240107536316,
                        -0.2511240243911743,
                        -0.12111197412014008,
                        -0.03709573671221733
                    ],
                    [
                        -0.1037689745426178,
                        0.15213404595851898,
                        -0.3571685254573822,
                        0.1151125580072403,
                        -0.07227803766727448,
                        0.4529772400856018,
                        0.023567408323287964,
                        0.009119022637605667,
                        -0.2787521481513977,
                        -0.05039162188768387,
                        0.35786131024360657,
                        -0.026165297254920006,
                        -0.25980398058891296,
                        -0.2472846508026123,
                        0.024667972698807716,
                        0.08330902457237244,
                        0.09957314282655716,
                        0.06769774854183197,
                        -0.12629497051239014,
                        0.040193457156419754,
                        -0.12453680485486984,
                        -0.2909547686576843,
                        0.1855548620223999,
                        0.19719013571739197
                    ],
                    [
                        -0.057588521391153336,
                        -0.07127804309129715,
                        0.16799989342689514,
                        0.05818430706858635,
                        -0.3835308253765106,
                        -0.3284966051578522,
                        0.0178450345993042,
                        -0.09032394737005234,
                        -0.1501876413822174,
                        -0.23440006375312805,
                        0.1828041672706604,
                        -0.23259614408016205,
                        -0.19908666610717773,
                        -0.13690240681171417,
                        0.4650934338569641,
                        0.03168975189328194,
                        -0.3008250594139099,
                        -0.07756036520004272,
                        -0.3245616555213928,
                        -0.17455585300922394,
                        -0.10673411935567856,
                        -0.0441465750336647,
                        -0.08251840621232986,
                        -0.15224093198776245
                    ],
                    [
                        -0.08025305718183517,
                        0.12370260059833527,
                        -0.4548613429069519,
                        -0.15544535219669342,
                        -0.032645031809806824,
                        -0.4594902992248535,
                        -0.27075740694999695,
                        0.05504698306322098,
                        0.0742875412106514,
                        0.22875133156776428,
                        -0.05381030961871147,
                        -0.00027043765294365585,
                        -0.18358570337295532,
                        -0.20586270093917847,
                        0.2037360519170761,
                        0.16972024738788605,
                        -0.05258788913488388,
                        0.2862260341644287,
                        0.17655254900455475,
                        0.08660058677196503,
                        0.2994813024997711,
                        0.0577642098069191,
                        -0.0625058114528656,
                        0.25830456614494324
                    ],
                    [
                        0.14422306418418884,
                        0.5001773238182068,
                        0.1939777284860611,
                        0.26871636509895325,
                        0.14039263129234314,
                        0.1947069615125656,
                        -0.16946524381637573,
                        -0.05803944543004036,
                        0.09916619956493378,
                        0.04030726104974747,
                        -0.020694533362984657,
                        -0.1213875263929367,
                        -0.3045884668827057,
                        0.2975214719772339,
                        0.32561177015304565,
                        -0.09735071659088135,
                        0.2050086259841919,
                        0.0664324089884758,
                        0.04894199222326279,
                        -0.2708290219306946,
                        0.055104173719882965,
                        0.14280414581298828,
                        -0.22914445400238037,
                        0.10186204314231873
                    ]
                ],
                [
                    [
                        -0.18469379842281342,
                        -0.1989762783050537,
                        -0.18904469907283783,
                        -0.21829044818878174,
                        -0.11094992607831955,
                        -0.21114100515842438,
                        -0.3014940619468689,
                        -0.004692814312875271,
                        0.0,
                        0.0,
                        0.0,
                        0.0,
                        0.0,
                        0.0,
                        0.0,
                        0.0,
                        -0.042168740183115005,
                        0.1989727020263672,
                        0.016678763553500175,
                        0.19076260924339294,
                        0.33188551664352417,
                        -0.20492097735404968,
                        0.1993739753961563,
                        0.24345897138118744
                    ],
                    [
                        -0.18469379842281342,
                        -0.1989762783050537,
                        -0.18904469907283783,
                        -0.21829044818878174,
                        -0.11094992607831955,
                        -0.21114100515842438,
                        -0.3014940619468689,
                        -0.004692814312875271,
                        0.0,
                        0.0,
                        0.0,
                        0.0,
                        0.0,
                        0.0,
                        0.0,
                        0.0,
                        -0.042168740183115005,
                        0.1989727020263672,
                        0.016678763553500175,
                        0.19076260924339294,
                        0.33188551664352417,
                        -0.20492097735404968,
                        0.1993739753961563,
                        0.24345897138118744
                    ]
                ]
            ]
        },
        {
            "type": "gru",
            "activation": "tanh",
            "shape": [
                null,
                1,
                8
            ],
            "weights": [
                [
                    [
                        -0.7503703832626343,
                        -0.6808860301971436,
                        -0.3503144085407257,
                        0.5321528315544128,
                        -0.7748501300811768,
                        -0.7084428668022156,
                        -1.129343032836914,
                        -1.1343281269073486,
                        0.04173418879508972,
                        -0.18423178791999817,
                        -0.1350136697292328,
                        0.3118811547756195,
                        -0.35330212116241455,
                        0.09304341673851013,
                        -0.00246429443359375,
                        0.09900727868080139,
                        -0.23507463932037354,
                        0.2882433831691742,
                        -0.11454734206199646,
                        -0.19545072317123413,
                        -0.6602765917778015,
                        -0.3104196786880493,
                        0.25292810797691345,
                        -0.16965274512767792
                    ],
                    [
                        0.2594045400619507,
                        0.8718460202217102,
                        1.6166107654571533,
                        0.8514732122421265,
                        -0.11653808504343033,
                        0.28366222977638245,
                        0.8674783110618591,
                        2.154470682144165,
                        0.12827375531196594,
                        0.20039185881614685,
                        -0.20524460077285767,
                        -0.33379751443862915,
                        0.07595577836036682,
                        -0.33673369884490967,
                        -0.3880443871021271,
                        0.18947651982307434,
                        0.2525559067726135,
                        0.08885852247476578,
                        -0.5307798981666565,
                        0.48293372988700867,
                        0.25852495431900024,
                        -0.5847485065460205,
                        0.04821784421801567,
                        -0.45208969712257385
                    ],
                    [
                        0.39860236644744873,
                        -0.2396828979253769,
                        -0.7267963886260986,
                        -0.6159729361534119,
                        1.0188463926315308,
                        -0.38057926297187805,
                        0.016000783070921898,
                        -0.019489848986268044,
                        -0.29188278317451477,
                        0.0918293297290802,
                        -0.43125373125076294,
                        -0.2979383170604706,
                        0.35747286677360535,
                        0.01513257622718811,
                        -0.37922266125679016,
                        0.04101842641830444,
                        0.338358074426651,
                        -0.4092695116996765,
                        0.4704274833202362,
                        -0.1575573831796646,
                        0.128090500831604,
                        0.47418320178985596,
                        -0.6334376335144043,
                        -0.558417797088623
                    ],
                    [
                        -0.6577865481376648,
                        -0.44382596015930176,
                        -0.5774116516113281,
                        0.08842827379703522,
                        -0.45280370116233826,
                        0.5545977354049683,
                        -0.28498977422714233,
                        -2.1003880500793457,
                        -0.049557268619537354,
                        -0.3533637523651123,
                        0.06320527195930481,
                        -0.2546883821487427,
                        0.006579995155334473,
                        0.3404987156391144,
                        0.3801545202732086,
                        0.1603945791721344,
                        -0.12606361508369446,
                        0.5930430889129639,
                        -0.4108462333679199,
                        0.19288668036460876,
                        -0.08242328464984894,
                        0.09119076281785965,
                        0.4877456724643707,
                        0.5434962511062622
                    ],
                    [
                        1.4620898962020874,
                        0.06990117579698563,
                        -0.3952053189277649,
                        -0.40702322125434875,
                        0.9756762385368347,
                        0.6598890423774719,
                        0.9804277420043945,
                        1.5457935333251953,
                        0.3776796758174896,
                        0.3215892016887665,
                        -0.06038251519203186,
                        0.27564600110054016,
                        0.0034865736961364746,
                        -0.23266726732254028,
                        0.2726065218448639,
                        -0.36104053258895874,
                        0.4729965627193451,
                        -0.17862163484096527,
                        -0.3804103434085846,
                        -0.10179556161165237,
                        -0.03849850594997406,
                        0.32875508069992065,
                        -0.4889378249645233,
                        -0.3735886216163635
                    ],
                    [
                        -0.588666558265686,
                        -0.057819999754428864,
                        0.6097198724746704,
                        0.588079571723938,
                        -0.008482415229082108,
                        0.6747782826423645,
                        -0.22051677107810974,
                        -1.331199288368225,
                        -0.08730489015579224,
                        0.3760477602481842,
                        0.05478793382644653,
                        -0.42156481742858887,
                        0.03200024366378784,
                        -0.3403065800666809,
                        0.160712331533432,
                        -0.09106731414794922,
                        -0.19231310486793518,
                        0.4430650472640991,
                        -0.17463544011116028,
                        0.16407930850982666,
                        -0.11527551710605621,
                        0.2731218636035919,
                        0.17273849248886108,
                        0.5847704410552979
                    ],
                    [
                        0.4419568181037903,
                        -0.5500462651252747,
                        -1.1590604782104492,
                        -0.6094117164611816,
                        0.4131620228290558,
                        -0.8632096648216248,
                        -0.18740548193454742,
                        1.626856803894043,
                        -0.06836757063865662,
                        -0.1443578600883484,
                        -0.35922643542289734,
                        0.3507535755634308,
                        0.15467330813407898,
                        0.23999974131584167,
                        -0.3372223377227783,
                        0.11426869034767151,
                        0.2541843354701996,
                        -0.5228676199913025,
                        0.20413558185100555,
                        -0.25511112809181213,
                        0.24985966086387634,
                        0.14536689221858978,
                        -0.33389657735824585,
                        -0.694261908531189
                    ],
                    [
                        0.6818761825561523,
                        -0.06082899868488312,
                        0.2991570234298706,
                        -0.1636468470096588,
                        -0.12985824048519135,
                        0.2469523698091507,
                        0.8103607892990112,
                        0.5200310349464417,
                        -0.19784551858901978,
                        -0.3943147659301758,
                        0.390021413564682,
                        0.07404354214668274,
                        0.006986558437347412,
                        -0.09348854422569275,
                        0.3394565284252167,
                        -0.05251452326774597,
                        0.28562816977500916,
                        -0.06374599784612656,
                        -0.1919781118631363,
                        0.05253202095627785,
                        0.3197154700756073,
                        0.09805913269519806,
                        -0.03334232419729233,
                        0.16353103518486023
                    ]
                ],
                [
                    [
                        0.42919063568115234,
                        0.25985321402549744,
                        -0.038837939500808716,
                        -0.26031655073165894,
                        -0.012466837652027607,
                        0.31953465938568115,
                        0.023397741839289665,
                        0.10064762830734253,
                        -0.06811125576496124,
                        -0.023668842390179634,
                        0.137499138712883,
                        0.17400379478931427,
                        -0.1679188460111618,
                        0.3278249204158783,
                        -0.45207449793815613,
                        0.09413103014230728,
                        -0.12588593363761902,
                        0.08632052689790726,
                        -0.15156008303165436,
                        0.23479799926280975,
                        0.20305092632770538,
                        0.1811947077512741,
                        -0.15958505868911743,
                        -0.14695172011852264
                    ],
                    [
                        -0.2321513593196869,
                        0.3592855930328369,
                        -0.012247500941157341,
                        -0.11807825416326523,
                        0.11109793186187744,
                        -0.3083803355693817,
                        -0.11362233012914658,
                        0.4324561655521393,
                        0.06251156330108643,
                        -0.19257374107837677,
                        -0.3050439953804016,
                        0.024503029882907867,
                        -0.08012005686759949,
                        0.1359013319015503,
                        -0.22801850736141205,
                        0.10594107210636139,
                        0.3053523302078247,
                        -0.026630818843841553,
                        0.005180109292268753,
                        -0.27946051955223083,
                        0.17472206056118011,
                        0.2100372016429901,
                        0.21208563446998596,
                        -0.055990904569625854
                    ],
                    [
                        0.48572027683258057,
                        -0.048759981989860535,
                        0.06235804781317711,
                        -0.23216453194618225,
                        0.18062809109687805,
                        -0.162859708070755,
                        0.08127979189157486,
                        -0.19049546122550964,
                        -0.05082230269908905,
                        -0.0664873793721199,
                        -0.2080352008342743,
                        0.23735736310482025,
                        0.29709887504577637,
                        -0.12526099383831024,
                        -0.006651098839938641,
                        -0.0762145072221756,
                        0.01864466816186905,
                        -0.22209563851356506,
                        -0.24374380707740784,
                        -0.07967504858970642,
                        -0.03641252964735031,
                        -0.1950053572654724,
                        0.44322869181632996,
                        0.33582475781440735
                    ],
                    [
                        -0.08773703128099442,
                        0.17358975112438202,
                        -0.28714409470558167,
                        -0.13744992017745972,
                        0.32289907336235046,
                        0.0994553342461586,
                        0.4462714195251465,
                        -0.2134592980146408,
                        -0.06798926740884781,
                        -0.0373830683529377,
                        -0.09096971899271011,
                        -0.23439420759677887,
                        -0.5102500915527344,
                        0.13105911016464233,
                        0.09218847006559372,
                        -0.2999119162559509,
                        0.03793312609195709,
                        -0.20042748749256134,
                        0.2162773162126541,
                        0.014518148265779018,
                        0.10164499282836914,
                        -0.10606992244720459,
                        0.0803149938583374,
                        0.002835480496287346
                    ],
                    [
                        0.11467881500720978,
                        0.3760349750518799,
                        -0.08537892997264862,
                        0.20892338454723358,
                        -0.1668611317873001,
                        0.3789137601852417,
                        0.008737599477171898,
                        0.00695086270570755,
                        0.2907244861125946,
                        0.19981379806995392,
                        -0.38637951016426086,
                        0.0015992409316822886,
                        0.20901906490325928,
                        -0.2348829060792923,
                        -0.03643619641661644,
                        -0.3191409111022949,
                        -0.11962918937206268,
                        0.2554866671562195,
                        0.24104620516300201,
                        -0.017017006874084473,
                        -0.15548892319202423,
                        -0.017017804086208344,
                        0.25626781582832336,
                        0.03579888865351677
                    ],
                    [
                        -0.0377630814909935,
                        0.20423884689807892,
                        -0.20955903828144073,
                        -0.2403695434331894,
                        -0.33513158559799194,
                        0.021598732098937035,
                        0.06085120514035225,
                        0.22377564013004303,
                        -0.07093845307826996,
                        0.2908291816711426,
                        0.12758220732212067,
                        -0.2583909034729004,
                        0.06290261447429657,
                        0.05155257135629654,
                        0.4078618586063385,
                        0.12269104272127151,
                        0.012892695143818855,
                        -0.19794292747974396,
                        -0.14995841681957245,
                        0.23954583704471588,
                        0.20755210518836975,
                        0.21876245737075806,
                        0.07677837461233139,
                        0.32925358414649963
                    ],
                    [
                        -0.32102590799331665,
                        0.04911239445209503,
                        0.069350466132164,
                        -0.1274428367614746,
                        0.3495117127895355,
                        0.027358844876289368,
                        -0.009908770211040974,
                        -0.08804207295179367,
                        -0.13266777992248535,
                        0.08048349618911743,
                        0.11562000215053558,
                        -0.0857834666967392,
                        0.3942813277244568,
                        0.2663540840148926,
                        -0.10310482978820801,
                        -0.10858149081468582,
                        0.20371277630329132,
                        0.3413868248462677,
                        -0.026597511023283005,
                        0.37689408659935,
                        -0.06618665158748627,
                        -0.20973362028598785,
                        0.1579171121120453,
                        0.06952615082263947
                    ],
                    [
                        -0.11608278006315231,
                        -0.3810938596725464,
                        -0.5252844095230103,
                        0.0046141985803842545,
                        0.11222873628139496,
                        0.10531403869390488,
                        0.05146954208612442,
                        0.29574379324913025,
                        0.1434069126844406,
                        -0.06322070211172104,
                        -0.3196943402290344,
                        -0.005585076287388802,
                        0.027011865749955177,
                        -0.07513999938964844,
                        -0.21554459631443024,
                        -0.0638398677110672,
                        -0.06221887841820717,
                        -0.09249687939882278,
                        -0.36724552512168884,
                        0.13545139133930206,
                        -0.1955920308828354,
                        -0.035911962389945984,
                        -0.20993508398532867,
                        0.07764798402786255
                    ]
                ],
                [
                    [
                        -0.1292192041873932,
                        -0.1741052120923996,
                        -0.13842619955539703,
                        -0.17513544857501984,
                        -0.03192230314016342,
                        -0.10648887604475021,
                        -0.09424979984760284,
                        -0.09051474928855896,
                        0.0,
                        0.0,
                        0.0,
                        0.0,
                        0.0,
                        0.0,
                        0.0,
                        0.0,
                        -0.08153744041919708,
                        -0.06031567603349686,
                        -0.0888858214020729,
                        -0.07652893662452698,
                        -0.07032043486833572,
                        -0.003530863905325532,
                        -0.1670742779970169,
                        0.0806172639131546
                    ],
                    [
                        -0.1292192041873932,
                        -0.1741052120923996,
                        -0.13842619955539703,
                        -0.17513544857501984,
                        -0.03192230314016342,
                        -0.10648887604475021,
                        -0.09424979984760284,
                        -0.09051474928855896,
                        0.0,
                        0.0,
                        0.0,
                        0.0,
                        0.0,
                        0.0,
                        0.0,
                        0.0,
                        -0.08153744041919708,
                        -0.06031567603349686,
                        -0.0888858214020729,
                        -0.07652893662452698,
                        -0.07032043486833572,
                        -0.003530863905325532,
                        -0.1670742779970169,
                        0.0806172639131546
                    ]
                ]
            ]
        },
        {
            "type": "gru",
            "activation": "tanh",
            "shape": [
                null,
                1,
                8
            ],
            "weights": [
                [
                    [
                        0.4237487018108368,
                        0.5976731181144714,
                        1.1732563972473145,
                        1.0176594257354736,
                        1.4426263570785522,
                        1.3903169631958008,
                        1.3541362285614014,
                        0.9048024415969849,
                        -0.22515946626663208,
                        0.40133580565452576,
                        0.059472471475601196,
                        -0.2889493703842163,
                        -0.3341522514820099,
                        0.07521870732307434,
                        -0.27632981538772583,
                        -0.048728883266448975,
                        0.0020505529828369617,
                        -0.27197134494781494,
                        -0.15948359668254852,
                        -0.3972252309322357,
                        -0.4775666296482086,
                        0.5169140100479126,
                        0.3841175436973572,
                        0.3561221957206726
                    ],
                    [
                        0.2881869077682495,
                        0.2878880798816681,
                        0.21179939806461334,
                        -0.09164661914110184,
                        -0.6126553416252136,
                        -0.7743198275566101,
                        -0.47161170840263367,
                        0.28542372584342957,
                        0.12629446387290955,
                        -0.25088149309158325,
                        0.42258623242378235,
                        -0.2551303505897522,
                        -0.2501447796821594,
                        -0.035313695669174194,
                        -0.09440717101097107,
                        0.3449821174144745,
                        -0.5382747650146484,
                        -0.548128604888916,
                        0.3903041183948517,
                        0.3229508101940155,
                        0.07264625281095505,
                        -0.4491857588291168,
                        -0.33402496576309204,
                        -0.5706365704536438
                    ],
                    [
                        -1.2412681579589844,
                        -2.14367413520813,
                        0.09749867767095566,
                        -0.5991610288619995,
                        0.2643159329891205,
                        0.3549003303050995,
                        -0.5642369985580444,
                        -1.1552855968475342,
                        0.3332156836986542,
                        0.13899466395378113,
                        0.252112478017807,
                        -0.22000478208065033,
                        -0.3880939185619354,
                        0.1373637616634369,
                        0.13560596108436584,
                        0.35175344347953796,
                        0.5371572375297546,
                        0.8489829897880554,
                        -0.04307190701365471,
                        -0.05464186146855354,
                        -0.30455851554870605,
                        -0.23045295476913452,
                        0.5745165944099426,
                        0.5281835794448853
                    ],
                    [
                        1.2625178098678589,
                        1.5557786226272583,
                        0.44875824451446533,
                        0.39831721782684326,
                        -0.2347789853811264,
                        -0.353960245847702,
                        0.1336769014596939,
                        -0.030231894925236702,
                        -0.019914239645004272,
                        0.38249555230140686,
                        0.05688408017158508,
                        -0.3963654935359955,
                        -0.10754135251045227,
                        0.3734624683856964,
                        0.3470447361469269,
                        0.30036482214927673,
                        -0.5028020143508911,
                        -0.22031182050704956,
                        0.16093522310256958,
                        0.5048215389251709,
                        0.3244001567363739,
                        0.2706865072250366,
                        -0.23543275892734528,
                        -0.0345718190073967
                    ],
                    [
                        0.9515764713287354,
                        1.275572419166565,
                        0.04342815279960632,
                        1.4252352714538574,
                        0.555431067943573,
                        0.8228783011436462,
                        0.41172337532043457,
                        0.7252369523048401,
                        -0.09479698538780212,
                        0.13411012291908264,
                        0.414069801568985,
                        0.21732893586158752,
                        -0.1996810883283615,
                        0.24853208661079407,
                        0.04725164175033569,
                        -0.197219580411911,
                        -0.21569295227527618,
                        -0.39631348848342896,
                        -0.5536082983016968,
                        0.19410599768161774,
                        -0.31233710050582886,
                        0.42824918031692505,
                        0.46687042713165283,
                        0.44852787256240845
                    ],
                    [
                        -0.5838314294815063,
                        -0.7016188502311707,
                        0.5321378707885742,
                        -0.5231151580810547,
                        0.018541943281888962,
                        0.4690215587615967,
                        -1.1485289335250854,
                        -0.7511662840843201,
                        0.0012314319610595703,
                        0.33512213826179504,
                        0.39393338561058044,
                        -0.21457403898239136,
                        0.21271738409996033,
                        0.09478411078453064,
                        -0.24851959943771362,
                        0.14455249905586243,
                        0.40140143036842346,
                        0.5185489058494568,
                        -0.4120285212993622,
                        0.019350090995430946,
                        0.16347850859165192,
                        0.11998720467090607,
                        0.02493949979543686,
                        0.49156808853149414
                    ],
                    [
                        0.307329922914505,
                        0.7121636867523193,
                        -0.9444421529769897,
                        0.3933568000793457,
                        -0.6465989351272583,
                        -1.2632397413253784,
                        -0.594336748123169,
                        -0.45182985067367554,
                        0.25160661339759827,
                        -0.03293755650520325,
                        0.17100098729133606,
                        0.04030328989028931,
                        -0.4243566691875458,
                        -0.3452657461166382,
                        0.03947097063064575,
                        0.3389644920825958,
                        0.027128558605909348,
                        -0.1824302226305008,
                        0.022585341706871986,
                        0.08632250875234604,
                        -0.09235544502735138,
                        -0.5126636028289795,
                        -0.09698480367660522,
                        -0.12904371321201324
                    ],
                    [
                        0.5168209671974182,
                        0.3071102797985077,
                        -2.3566792011260986,
                        -0.5512576103210449,
                        -1.3702406883239746,
                        -3.2373316287994385,
                        -1.7348036766052246,
                        -1.0871859788894653,
                        0.2309703528881073,
                        -0.30770063400268555,
                        -0.40290603041648865,
                        0.38239309191703796,
                        -0.273613840341568,
                        0.13008764386177063,
                        -0.056206315755844116,
                        0.14788994193077087,
                        0.06174953654408455,
                        -0.34389346837997437,
                        0.28305721282958984,
                        0.36090874671936035,
                        0.3638536334037781,
                        -0.7063377499580383,
                        -0.609419584274292,
                        -0.10808452218770981
                    ]
                ],
                [
                    [
                        -0.1736699342727661,
                        0.022722428664565086,
                        0.2046424150466919,
                        0.050652746111154556,
                        -0.1839168816804886,
                        -0.002467463491484523,
                        0.3162654638290405,
                        -0.26434388756752014,
                        0.20512881875038147,
                        0.12430322915315628,
                        0.037816256284713745,
                        0.20502601563930511,
                        0.09238062798976898,
                        -0.340973824262619,
                        0.18664894998073578,
                        -0.1310613751411438,
                        0.2701241672039032,
                        -0.15198032557964325,
                        -0.0019470223924145103,
                        -0.23996584117412567,
                        -0.11053460836410522,
                        -0.39440348744392395,
                        0.22417674958705902,
                        -0.0958377867937088
                    ],
                    [
                        -0.084103524684906,
                        0.09075901657342911,
                        -0.2249547690153122,
                        -0.46076300740242004,
                        0.08541937172412872,
                        -0.18016067147254944,
                        -0.05387676879763603,
                        -0.0642583891749382,
                        -0.15193183720111847,
                        0.16580356657505035,
                        -0.04847409576177597,
                        0.2876253128051758,
                        0.17379185557365417,
                        0.27054405212402344,
                        0.06713893264532089,
                        -0.06091666594147682,
                        -0.29993459582328796,
                        0.1749260276556015,
                        -0.05413695424795151,
                        -0.47419291734695435,
                        -0.20643745362758636,
                        -0.004538265988230705,
                        -0.06650105118751526,
                        -0.10181036591529846
                    ],
                    [
                        0.2901391386985779,
                        0.28244641423225403,
                        -0.20654436945915222,
                        -0.2632991373538971,
                        0.30971866846084595,
                        -0.13140994310379028,
                        -0.21003499627113342,
                        0.20575165748596191,
                        0.3464685082435608,
                        -0.06543511897325516,
                        -0.11877906322479248,
                        0.08268044143915176,
                        0.07009775191545486,
                        -0.13326634466648102,
                        -0.21654817461967468,
                        -0.2953655421733856,
                        0.3953515291213989,
                        -0.1895453929901123,
                        -0.0642310306429863,
                        0.03319782763719559,
                        -0.09492424130439758,
                        -0.16408340632915497,
                        -0.07840777933597565,
                        0.1731128990650177
                    ],
                    [
                        -0.22381216287612915,
                        0.06315037608146667,
                        0.18997399508953094,
                        -0.11771783232688904,
                        -0.20077794790267944,
                        -0.17790105938911438,
                        0.01006573811173439,
                        0.26508912444114685,
                        0.1993325650691986,
                        -0.12505479156970978,
                        -0.019460631534457207,
                        -0.07573369890451431,
                        0.5721685290336609,
                        0.2930050194263458,
                        -0.05581158027052879,
                        0.18123900890350342,
                        0.16440220177173615,
                        -0.06379484385251999,
                        -0.13225805759429932,
                        0.28374215960502625,
                        -0.18148048222064972,
                        0.17100214958190918,
                        0.1968599259853363,
                        -0.10865327715873718
                    ],
                    [
                        0.4680810272693634,
                        -0.3043254017829895,
                        0.01766425371170044,
                        0.1358918696641922,
                        0.15340518951416016,
                        -0.04569782689213753,
                        0.30905598402023315,
                        0.29580777883529663,
                        -0.15360045433044434,
                        -0.007610734552145004,
                        -0.10009093582630157,
                        0.4210931062698364,
                        0.22796037793159485,
                        -0.11683598905801773,
                        0.11478979140520096,
                        -0.19021089375019073,
                        -0.011292241513729095,
                        -0.2080034613609314,
                        -0.019247105345129967,
                        -0.030542582273483276,
                        0.08907647430896759,
                        0.3506672978401184,
                        0.10690735280513763,
                        -0.07933551073074341
                    ],
                    [
                        -0.14429853856563568,
                        0.2921317517757416,
                        0.01387140341103077,
                        0.22809715569019318,
                        -0.06378436833620071,
                        -0.10596751421689987,
                        0.13476485013961792,
                        0.09477753192186356,
                        0.08688617497682571,
                        -0.14024968445301056,
                        0.24802538752555847,
                        -0.1865909844636917,
                        -0.23558592796325684,
                        0.1974456012248993,
                        -0.0889551043510437,
                        -0.33993881940841675,
                        0.1873609721660614,
                        0.14017224311828613,
                        -0.2585359811782837,
                        -0.3490229547023773,
                        0.18180593848228455,
                        0.3741357922554016,
                        0.06158410757780075,
                        -0.22587190568447113
                    ],
                    [
                        0.06344788521528244,
                        -0.003497395198792219,
                        0.20615510642528534,
                        0.027847355231642723,
                        0.07610511034727097,
                        -0.28773704171180725,
                        0.11153826117515564,
                        0.20787039399147034,
                        -0.07625271379947662,
                        -0.42942655086517334,
                        0.2153584510087967,
                        0.09007216989994049,
                        -0.0949573814868927,
                        -0.019634097814559937,
                        0.23272109031677246,
                        0.4434504210948944,
                        0.215026393532753,
                        0.1705072969198227,
                        0.2534310221672058,
                        -0.3345232307910919,
                        -0.0880446508526802,
                        -0.14324338734149933,
                        -0.27751731872558594,
                        0.14948222041130066
                    ],
                    [
                        0.2194806933403015,
                        0.05881528556346893,
                        0.2451074719429016,
                        -0.1960068643093109,
                        -0.013919301331043243,
                        0.06794405728578568,
                        0.09519429504871368,
                        0.11691772937774658,
                        0.2168361395597458,
                        0.16724103689193726,
                        0.20673197507858276,
                        -0.33958712220191956,
                        0.10074318200349808,
                        -0.32488125562667847,
                        -0.22854827344417572,
                        0.1632978469133377,
                        -0.3009299039840698,
                        -0.13180135190486908,
                        0.1002177819609642,
                        -0.1385606974363327,
                        -0.03334909677505493,
                        0.07144562900066376,
                        -0.30994701385498047,
                        -0.3661133348941803
                    ]
                ],
                [
                    [
                        -0.17012640833854675,
                        -0.13732697069644928,
                        -0.15525393187999725,
                        -0.23559042811393738,
                        0.05941929295659065,
                        -0.11443173140287399,
                        -0.14069046080112457,
                        -0.1709696650505066,
                        0.0,
                        0.0,
                        0.0,
                        0.0,
                        0.0,
                        0.0,
                        0.0,
                        0.0,
                        -0.06800580024719238,
                        -0.05760391429066658,
                        0.07165825366973877,
                        -0.13181544840335846,
                        0.18367739021778107,
                        0.00180103222373873,
                        -3.661256414488889e-05,
                        -0.006381646264344454
                    ],
                    [
                        -0.17012640833854675,
                        -0.13732697069644928,
                        -0.15525393187999725,
                        -0.23559042811393738,
                        0.05941929295659065,
                        -0.11443173140287399,
                        -0.14069046080112457,
                        -0.1709696650505066,
                        0.0,
                        0.0,
                        0.0,
                        0.0,
                        0.0,
                        0.0,
                        0.0,
                        0.0,
                        -0.06800580024719238,
                        -0.05760391429066658,
                        0.07165825366973877,
                        -0.13181544840335846,
                        0.18367739021778107,
                        0.00180103222373873,
                        -3.661256414488889e-05,
                        -0.006381646264344454
                    ]
                ]
            ]
        },
        {
            "type": "gru",
            "activation": "tanh",
            "shape": [
                null,
                1,
                8
            ],
            "weights": [
                [
                    [
                        -1.3716484308242798,
                        -1.3473597764968872,
                        -1.2429343461990356,
                        -1.6683001518249512,
                        -2.0941965579986572,
                        -0.9165437817573547,
                        -1.090356707572937,
                        -0.8158908486366272,
                        -0.42359551787376404,
                        -0.38417550921440125,
                        -0.1469307839870453,
                        -0.01406744122505188,
                        0.19859090447425842,
                        -0.14217540621757507,
                        0.3800608813762665,
                        -0.33459606766700745,
                        0.0009869117056950927,
                        0.08721445500850677,
                        -0.6200302839279175,
                        0.44988685846328735,
                        0.21454070508480072,
                        -0.3197644054889679,
                        0.557780385017395,
                        -0.4219561517238617
                    ],
                    [
                        -0.8899997472763062,
                        -1.8648288249969482,
                        -1.313653826713562,
                        -2.5858607292175293,
                        -2.338292121887207,
                        -1.8043948411941528,
                        -1.391629695892334,
                        -1.1989216804504395,
                        -0.14466282725334167,
                        -0.13453814387321472,
                        -0.10175597667694092,
                        0.3932488262653351,
                        -0.192758247256279,
                        -0.06190735101699829,
                        0.3665921986103058,
                        0.059018850326538086,
                        -0.20889440178871155,
                        0.6637657284736633,
                        0.0335296094417572,
                        0.42377763986587524,
                        0.6434733271598816,
                        -0.28082066774368286,
                        -0.04796772822737694,
                        -0.4057154059410095
                    ],
                    [
                        -0.7379158139228821,
                        -1.4783673286437988,
                        -0.7442530393600464,
                        -1.7049286365509033,
                        -1.4181599617004395,
                        -1.0777673721313477,
                        -0.45993444323539734,
                        -0.787619411945343,
                        0.14264288544654846,
                        0.2074233591556549,
                        0.22372350096702576,
                        -0.3136563301086426,
                        0.3332543671131134,
                        0.20118609070777893,
                        0.4010416567325592,
                        0.41142866015434265,
                        0.5275475382804871,
                        -0.5226449370384216,
                        0.5481820702552795,
                        0.039203327149152756,
                        -0.4157918393611908,
                        0.42955178022384644,
                        -0.40858563780784607,
                        0.5693814754486084
                    ],
                    [
                        -0.4471796154975891,
                        0.10187811404466629,
                        0.5016331076622009,
                        0.43084585666656494,
                        -0.03581280633807182,
                        -0.19478365778923035,
                        0.2579657733440399,
                        0.3436405658721924,
                        -0.3679630756378174,
                        0.22764161229133606,
                        -0.2121843844652176,
                        -0.3173268735408783,
                        -0.3095517158508301,
                        -0.13256177306175232,
                        -0.3466581106185913,
                        0.0809997022151947,
                        0.13743671774864197,
                        -0.2869817018508911,
                        0.4277271032333374,
                        -0.19001615047454834,
                        -0.19568587839603424,
                        -0.054151203483343124,
                        0.015674514696002007,
                        0.5799025893211365
                    ],
                    [
                        -0.9321157336235046,
                        -0.4108934998512268,
                        -0.7671456933021545,
                        -0.568986713886261,
                        -0.5854137539863586,
                        -0.4381846785545349,
                        -0.507646381855011,
                        -0.9538955092430115,
                        0.24522599577903748,
                        -0.2096899300813675,
                        -0.39969441294670105,
                        0.2627064883708954,
                        -0.039050281047821045,
                        -0.03396797180175781,
                        -0.2348083257675171,
                        -0.22088675200939178,
                        0.3617774546146393,
                        0.020143000409007072,
                        0.13271553814411163,
                        0.020900670439004898,
                        -0.1102064847946167,
                        0.30255448818206787,
                        0.1666412055492401,
                        0.08268130570650101
                    ],
                    [
                        2.114924430847168,
                        1.9663044214248657,
                        2.0002708435058594,
                        1.9464528560638428,
                        2.090453624725342,
                        1.9546831846237183,
                        1.8176405429840088,
                        1.7215945720672607,
                        0.1535511314868927,
                        0.38135090470314026,
                        0.4137360155582428,
                        -0.007903099060058594,
                        -0.2648841142654419,
                        0.23231109976768494,
                        0.19270268082618713,
                        0.2937861979007721,
                        -0.3836095631122589,
                        0.4004325866699219,
                        -0.20547765493392944,
                        0.5227456092834473,
                        0.6710516214370728,
                        -0.19445089995861053,
                        0.49240168929100037,
                        -0.0835849940776825
                    ],
                    [
                        0.9331272840499878,
                        0.4682580828666687,
                        0.639007031917572,
                        0.9130039811134338,
                        0.8548445701599121,
                        0.42045944929122925,
                        0.8868489265441895,
                        0.3577767014503479,
                        -0.03297245502471924,
                        -0.05991390347480774,
                        -0.3038186728954315,
                        0.40172383189201355,
                        -0.14751273393630981,
                        -0.0638447105884552,
                        -0.307643860578537,
                        0.21576550602912903,
                        -0.5037093758583069,
                        0.2549580931663513,
                        -0.47114771604537964,
                        0.6453014612197876,
                        0.20221514999866486,
                        -0.6312044262886047,
                        0.6333595514297485,
                        -0.49609261751174927
                    ],
                    [
                        -0.012687396258115768,
                        -0.3013093173503876,
                        0.11199187487363815,
                        0.07800238579511642,
                        0.34568724036216736,
                        -0.0343874916434288,
                        0.257049560546875,
                        -0.47602543234825134,
                        -0.039007872343063354,
                        0.02488568425178528,
                        0.1966949999332428,
                        0.07717761397361755,
                        0.41389092803001404,
                        0.39102062582969666,
                        0.13492736220359802,
                        -0.2338663786649704,
                        -0.318827360868454,
                        0.20377780497074127,
                        -0.5900708436965942,
                        0.1233256459236145,
                        0.13067162036895752,
                        -0.37240737676620483,
                        0.6298186779022217,
                        -0.5768306255340576
                    ]
                ],
                [
                    [
                        0.11042606830596924,
                        -0.17354866862297058,
                        -0.0674179196357727,
                        -0.005148717667907476,
                        0.36796149611473083,
                        -0.01886867545545101,
                        -0.4307323694229126,
                        0.08536788821220398,
                        0.3956880569458008,
                        -0.040129274129867554,
                        0.09691557288169861,
                        -0.10509417206048965,
                        0.25558000802993774,
                        0.05425509065389633,
                        0.1667238026857376,
                        -0.0782788023352623,
                        -0.005914713256061077,
                        -0.10831929743289948,
                        0.18007011711597443,
                        0.4372868239879608,
                        -0.1510561853647232,
                        -0.11952752619981766,
                        0.03711102530360222,
                        -0.09874267131090164
                    ],
                    [
                        0.544875979423523,
                        0.16536112129688263,
                        -0.19317752122879028,
                        -0.03300175070762634,
                        -0.09878544509410858,
                        0.03924812749028206,
                        0.23287244141101837,
                        0.08671177923679352,
                        0.050879523158073425,
                        0.16253671050071716,
                        0.22933726012706757,
                        -0.33845633268356323,
                        -0.024165714159607887,
                        0.3781575560569763,
                        -0.1485268473625183,
                        0.1097031980752945,
                        0.22589173913002014,
                        -0.2764383852481842,
                        -0.275170236825943,
                        0.05376380681991577,
                        -0.050512462854385376,
                        -0.05844385549426079,
                        0.11323675513267517,
                        0.002461690455675125
                    ],
                    [
                        -0.048377908766269684,
                        0.042914677411317825,
                        0.10243526101112366,
                        0.157540962100029,
                        0.08962632715702057,
                        -0.15431199967861176,
                        0.15896902978420258,
                        0.07875486463308334,
                        -0.24385106563568115,
                        0.16776436567306519,
                        -0.07895956188440323,
                        -0.37523961067199707,
                        0.17458465695381165,
                        -0.40521082282066345,
                        0.09515824168920517,
                        -0.013986995443701744,
                        -0.3533199727535248,
                        -0.31168386340141296,
                        0.07371992617845535,
                        -0.13672572374343872,
                        -0.16872648894786835,
                        -0.3301412761211395,
                        -0.011486714705824852,
                        -0.33380866050720215
                    ],
                    [
                        0.0038611930795013905,
                        -0.05660735443234444,
                        -0.5313315987586975,
                        0.27533531188964844,
                        -0.2843933701515198,
                        -0.10647321492433548,
                        0.25673699378967285,
                        0.3350081741809845,
                        0.18966883420944214,
                        -0.057480599731206894,
                        0.025168420746922493,
                        -0.1300864815711975,
                        0.13928517699241638,
                        -0.19521841406822205,
                        0.14562299847602844,
                        -0.06867214292287827,
                        -0.19564245641231537,
                        0.08355357497930527,
                        0.18612998723983765,
                        0.0524902381002903,
                        -0.026470420882105827,
                        0.22260461747646332,
                        -0.09629224985837936,
                        0.30640438199043274
                    ],
                    [
                        0.2237250953912735,
                        0.009104438126087189,
                        -0.19358129799365997,
                        0.1114705502986908,
                        -0.19843290746212006,
                        -0.1274651139974594,
                        -0.2609619200229645,
                        -0.5470775365829468,
                        -0.31208834052085876,
                        -0.23663084208965302,
                        0.25532713532447815,
                        -0.023135514929890633,
                        0.10913001000881195,
                        -0.2022145837545395,
                        0.07763905078172684,
                        0.15437965095043182,
                        -0.10614661872386932,
                        0.004977161064743996,
                        0.07852424681186676,
                        0.165216326713562,
                        0.18324817717075348,
                        0.10642285645008087,
                        0.23656927049160004,
                        -0.054695699363946915
                    ],
                    [
                        0.49406155943870544,
                        -0.3420621454715729,
                        0.08334540575742722,
                        0.14611469209194183,
                        0.06354731321334839,
                        -0.13967853784561157,
                        -0.14620700478553772,
                        0.21812930703163147,
                        -0.11816900968551636,
                        0.14433971047401428,
                        -0.0729006677865982,
                        0.2087334543466568,
                        -0.24705596268177032,
                        0.06895063072443008,
                        0.13499324023723602,
                        0.38760775327682495,
                        -0.06909898668527603,
                        0.10202952474355698,
                        -0.02287827432155609,
                        -0.02314145863056183,
                        0.277779757976532,
                        -0.17701958119869232,
                        -0.3841981887817383,
                        -0.011317867785692215
                    ],
                    [
                        -0.07558783888816833,
                        0.43096503615379333,
                        0.09934910386800766,
                        -0.2395254671573639,
                        -0.034913595765829086,
                        0.01641833782196045,
                        -0.0893511027097702,
                        0.12521062791347504,
                        -0.047378409653902054,
                        0.04374351724982262,
                        -0.0035153604112565517,
                        0.14731687307357788,
                        0.13655664026737213,
                        -0.08341576159000397,
                        -0.09210006892681122,
                        0.16428057849407196,
                        -0.41632118821144104,
                        -0.16602206230163574,
                        -0.3269086182117462,
                        0.3978132903575897,
                        0.22588364779949188,
                        0.19883129000663757,
                        -0.32004860043525696,
                        0.05738304927945137
                    ],
                    [
                        0.048889242112636566,
                        0.017582375556230545,
                        0.10667283833026886,
                        -0.16024574637413025,
                        -0.2689622640609741,
                        -0.1106843501329422,
                        0.23163777589797974,
                        -0.28876444697380066,
                        0.1419793665409088,
                        0.13141003251075745,
                        -0.031032688915729523,
                        0.1612727791070938,
                        0.6178709268569946,
                        0.07024507969617844,
                        -0.03366346284747124,
                        0.18196548521518707,
                        0.07710926979780197,
                        0.25342392921447754,
                        0.12159949541091919,
                        -0.10187102854251862,
                        -0.07721195369958878,
                        -0.15744906663894653,
                        -0.2733159363269806,
                        -0.15452627837657928
                    ]
                ],
                [
                    [
                        -0.19218896329402924,
                        -0.22352661192417145,
                        -0.17869268357753754,
                        -0.2541596293449402,
                        -0.21466697752475739,
                        -0.21185302734375,
                        -0.20720230042934418,
                        -0.18589697778224945,
                        0.0,
                        0.0,
                        0.0,
                        0.0,
                        0.0,
                        0.0,
                        0.0,
                        0.0,
                        0.021448643878102303,
                        -0.012437429279088974,
                        0.02614189125597477,
                        0.0014233184047043324,
                        -0.0005757077015005052,
                        0.016930345445871353,
                        -0.01288894284516573,
                        0.019780457019805908
                    ],
                    [
                        -0.19218896329402924,
                        -0.22352661192417145,
                        -0.17869268357753754,
                        -0.2541596293449402,
                        -0.21466697752475739,
                        -0.21185302734375,
                        -0.20720230042934418,
                        -0.18589697778224945,
                        0.0,
                        0.0,
                        0.0,
                        0.0,
                        0.0,
                        0.0,
                        0.0,
                        0.0,
                        0.021448643878102303,
                        -0.012437429279088974,
                        0.02614189125597477,
                        0.0014233184047043324,
                        -0.0005757077015005052,
                        0.016930345445871353,
                        -0.01288894284516573,
                        0.019780457019805908
                    ]
                ]
            ]
        },
        {
            "type": "unknown",
            "activation": "",
            "shape": [
                null,
                8
            ],
            "weights": []
        },
        {
            "type": "dense",
            "activation": "tanh",
            "shape": [
                null,
                1
            ],
            "weights": [
                [
                    [
                        0.6708186864852905
                    ],
                    [
                        -1.086390495300293
                    ],
                    [
                        1.1510802507400513
                    ],
                    [
                        -0.8085216283798218
                    ],
                    [
                        -0.8479270339012146
                    ],
                    [
                        0.9073130488395691
                    ],
                    [
                        -0.811598002910614
                    ],
                    [
                        0.8977818489074707
                    ]
                ],
                [
                    0.01970568671822548
                ]
            ]
        }
    ]
}